Epoch, weights
1,0.164505,-0.800258,0.848034,0.673934,0.0701906,-0.50232,0.0143805,-0.697578,0.168447,0.503064,-0.51383,0.793735,0.686158,-0.843033,0.85949,-0.716263,0.160895,-0.407564,0.895843,-0.831901,-0.620817,0.178361,0.877066,0.642405,0.286881,-0.10149,0.717816,-0.00385944,-1.21923,-1.33643,0.124288,0.424767,-1.09266,-0.619122,0.92877,-0.258659,-0.763054,0.126181,-0.342475,-0.340297,-0.00297324,-0.275814,-0.318616,1.02512,-0.332562,-0.230105,-0.391936,-0.0721951,-0.356751,-0.415955,0.107669,0.667299,0.372989,0.234084,-0.304189,0.964059,-0.402273,0.105628,0.617926,-0.994585,-0.502108,0.428021,-0.497458,-0.728818,0.126682,0.921286,0.305306,
2,0.126438,-0.874817,0.936301,0.715722,0.067136,-0.517862,0.0375921,-0.687936,0.201199,0.579343,-0.612429,0.74835,0.643247,-0.92851,0.960479,-0.668837,0.0186872,-0.538929,0.978836,-0.771497,-0.67697,0.145697,0.877644,0.653785,0.273014,-0.111743,0.719726,-0.000893441,-1.39468,-1.48657,0.207008,0.491789,-1.22466,-0.619122,1.01947,-0.365337,-0.826297,0.0456397,-0.408838,-0.340297,-0.0227278,-0.275814,-0.295993,1.06578,-0.326446,-0.262987,-0.357019,-0.0721951,-0.204998,-0.415955,-0.00565136,0.733316,0.430116,0.347508,-0.272742,0.964059,-0.416439,0.103764,0.631397,-1.01032,-0.543208,0.413105,-0.500947,-0.778631,0.149343,0.940833,0.263099,
3,0.0920224,-0.931865,0.999502,0.747305,0.0693036,-0.524985,0.0514478,-0.683175,0.224883,0.631761,-0.679602,0.717094,0.620997,-0.982385,1.02869,-0.638378,-0.0876218,-0.631041,1.03502,-0.726239,-0.73866,0.107306,0.885315,0.670671,0.259581,-0.12331,0.725105,0.00366461,-1.51999,-1.58671,0.25909,0.539779,-1.30253,-0.619122,1.08252,-0.439429,-0.847836,0.00883693,-0.451069,-0.340297,-0.0613224,-0.275814,-0.269346,1.08782,-0.35388,-0.313539,-0.336473,-0.0721951,-0.0885325,-0.415955,-0.095351,0.785364,0.479089,0.434862,-0.251058,0.964059,-0.428585,0.103724,0.64103,-1.0192,-0.574264,0.396085,-0.504588,-0.814526,0.162237,0.959242,0.231796,
4,0.0596187,-0.978955,1.05022,0.774519,0.0727872,-0.528874,0.0609615,-0.680549,0.245237,0.672629,-0.731785,0.691951,0.60739,-1.02122,1.08094,-0.615803,-0.171004,-0.700827,1.08031,-0.687558,-0.797259,0.0707069,0.896505,0.690271,0.248118,-0.133801,0.731468,0.00854636,-1.61299,-1.65925,0.300408,0.579408,-1.35596,-0.619122,1.13022,-0.496035,-0.854336,-0.00940697,-0.482921,-0.340297,-0.106543,-0.275814,-0.243604,1.09911,-0.389502,-0.369845,-0.325114,-0.0721951,0.010113,-0.415955,-0.16879,0.830685,0.521211,0.509413,-0.230564,0.964059,-0.439882,0.104275,0.649194,-1.02515,-0.599479,0.379175,-0.507884,-0.842147,0.170626,0.975336,0.207312,
5,0.028241,-1.01952,1.09308,0.799393,0.0775052,-0.530563,0.0681969,-0.679018,0.262802,0.705657,-0.775146,0.670134,0.600224,-1.04976,1.12374,-0.597707,-0.244331,-0.759344,1.11724,-0.653565,-0.857367,0.033543,0.908024,0.710979,0.237663,-0.143432,0.737816,0.0133942,-1.69101,-1.71822,0.333664,0.613169,-1.39512,-0.619122,1.16772,-0.541269,-0.85591,-0.0180562,-0.508517,-0.340297,-0.155816,-0.275814,-0.215212,1.10409,-0.415149,-0.426256,-0.317824,-0.0721951,0.0985468,-0.415955,-0.234681,0.870938,0.548432,0.574473,-0.212259,0.964059,-0.450846,0.105267,0.656406,-1.02909,-0.622015,0.361494,-0.510995,-0.865771,0.176429,0.99083,0.186016,
6,-0.00699109,-1.05777,1.13036,0.823294,0.0839487,-0.530467,0.073852,-0.678313,0.280611,0.73449,-0.812442,0.65018,0.597936,-1.07122,1.15946,-0.582886,-0.318542,-0.813599,1.14845,-0.622307,-0.927365,-0.0076456,0.919698,0.733274,0.226879,-0.152768,0.743767,0.0181612,-1.76793,-1.7722,0.3618,0.643822,-1.42478,-0.619122,1.1983,-0.578553,-0.856197,-0.0216495,-0.529716,-0.340297,-0.213789,-0.275814,-0.179268,1.10433,-0.426893,-0.473097,-0.313298,-0.0721951,0.186181,-0.415955,-0.301204,0.907984,0.560463,0.624906,-0.195585,0.964059,-0.462754,0.106754,0.663576,-1.03156,-0.644399,0.34126,-0.514193,-0.888714,0.180687,1.00761,0.164977,
7,-0.0521495,-1.09729,1.16366,0.847913,0.0922758,-0.528965,0.078335,-0.67837,0.303024,0.762304,-0.845451,0.630665,0.598666,-1.08797,1.1895,-0.570688,-0.398864,-0.866336,1.17546,-0.592018,-1.01101,-0.0533554,0.931097,0.757772,0.214796,-0.162174,0.749146,0.0229369,-1.85056,-1.82468,0.386306,0.673583,-1.44728,-0.619122,1.22396,-0.609923,-0.856234,-0.0227203,-0.54759,-0.340297,-0.284011,-0.275814,-0.134211,1.10227,-0.430753,-0.494328,-0.310868,-0.0721951,0.278903,-0.415955,-0.371928,0.941406,0.56436,0.647209,-0.180141,0.964059,-0.476998,0.108704,0.671798,-1.03313,-0.667578,0.318118,-0.517652,-0.912348,0.183969,1.02629,0.143019,
8,-0.10927,-1.13805,1.19208,0.874041,0.101981,-0.526702,0.0824088,-0.678958,0.332446,0.789982,-0.874224,0.610776,0.601768,-1.10112,1.2156,-0.560545,-0.482819,-0.915202,1.19573,-0.562972,-1.10264,-0.0986108,0.937951,0.782898,0.202008,-0.171105,0.75365,0.0276399,-1.93703,-1.87355,0.404403,0.702297,-1.4637,-0.619122,1.24552,-0.636474,-0.856236,-0.0229273,-0.56281,-0.340297,-0.359756,-0.275814,-0.0860241,1.10589,-0.43114,-0.498494,-0.307198,-0.0721951,0.371074,-0.415955,-0.441668,0.96434,0.564748,0.651582,-0.168591,0.964059,-0.493445,0.11086,0.681341,-1.0341,-0.690086,0.294606,-0.521109,-0.935335,0.186481,1.04531,0.121486,
9,-0.166472,-1.17366,1.21942,0.902231,0.110451,-0.525042,0.0854793,-0.680018,0.36287,0.814267,-0.900538,0.590336,0.604961,-1.11212,1.23768,-0.552266,-0.552495,-0.952035,1.21549,-0.534685,-1.17994,-0.132714,0.946744,0.808575,0.190906,-0.178384,0.75817,0.0324055,-2.00895,-1.91035,0.42243,0.730468,-1.47533,-0.619122,1.26341,-0.658971,-0.856236,-0.022941,-0.575827,-0.340297,-0.434094,-0.275814,-0.0450337,1.11146,-0.43114,-0.498815,-0.306644,-0.0721951,0.457034,-0.415955,-0.500556,0.981271,0.564748,0.651916,-0.156129,0.964059,-0.509653,0.112726,0.69087,-1.03485,-0.708698,0.274909,-0.52413,-0.954376,0.188349,1.06133,0.103594,
10,-0.217993,-1.20235,1.24774,0.931939,0.11711,-0.524177,0.0875385,-0.681337,0.390422,0.834077,-0.925767,0.569731,0.607239,-1.12184,1.25636,-0.545319,-0.605993,-0.977968,1.23635,-0.507756,-1.23967,-0.156,0.958867,0.833766,0.181567,-0.184177,0.762981,0.0372843,-2.06424,-1.93613,0.441977,0.757421,-1.48369,-0.619122,1.27862,-0.678282,-0.856236,-0.0229414,-0.587054,-0.340297,-0.504078,-0.275814,-0.0120692,1.11565,-0.43114,-0.498827,-0.309797,-0.0721951,0.535384,-0.415955,-0.548725,0.996389,0.564748,0.651928,-0.141749,0.964059,-0.524761,0.114247,0.699726,-1.03559,-0.723648,0.259031,-0.526787,-0.969681,0.189794,1.07428,0.0891991,
11,-0.263955,-1.22501,1.27618,0.962248,0.122398,-0.523887,0.0889867,-0.682735,0.41479,0.849971,-0.949764,0.549463,0.608671,-1.13064,1.27253,-0.539278,-0.647935,-0.996334,1.25677,-0.482725,-1.28666,-0.171718,0.972094,0.857592,0.173415,-0.188871,0.767885,0.0422287,-2.10762,-1.95425,0.461357,0.782548,-1.48991,-0.619122,1.29189,-0.69512,-0.856236,-0.0229414,-0.596861,-0.340297,-0.568056,-0.275814,0.0143721,1.1194,-0.43114,-0.498827,-0.314673,-0.0721951,0.605582,-0.415955,-0.58844,1.00948,0.564748,0.651928,-0.127066,0.964059,-0.538775,0.115504,0.707842,-1.03633,-0.735943,0.24596,-0.529208,-0.982269,0.190968,1.08495,0.0773545,
12,-0.305204,-1.24273,1.30399,0.992514,0.126718,-0.523977,0.0900915,-0.684115,0.436325,0.862678,-0.972369,0.529823,0.609563,-1.13867,1.28686,-0.533875,-0.681839,-1.00951,1.27595,-0.459667,-1.32476,-0.18228,0.98513,0.879762,0.166109,-0.192716,0.772744,0.0471882,-2.1427,-1.96712,0.479668,0.805734,-1.49468,-0.619122,1.30371,-0.710046,-0.856236,-0.0229414,-0.605569,-0.340297,-0.625931,-0.275814,0.0358003,1.12334,-0.43114,-0.498827,-0.320088,-0.0721951,0.668229,-0.415955,-0.62169,1.02046,0.564748,0.651928,-0.112942,0.964059,-0.551842,0.116571,0.715286,-1.03706,-0.746342,0.234893,-0.531462,-0.992919,0.19195,1.09399,0.0673314,
13,-0.342594,-1.25651,1.33069,1.02231,0.130317,-0.524327,0.0909782,-0.685443,0.455555,0.872903,-0.993484,0.510983,0.610002,-1.14609,1.29966,-0.529004,-0.710021,-1.01909,1.29363,-0.438478,-1.35644,-0.189279,0.997466,0.900279,0.159433,-0.195896,0.777467,0.0521095,-2.17187,-1.97636,0.496608,0.827068,-1.49846,-0.619122,1.31443,-0.723415,-0.856236,-0.0229414,-0.61337,-0.340297,-0.678209,-0.275814,0.0533981,1.1276,-0.43114,-0.498827,-0.325548,-0.0721951,0.724282,-0.415955,-0.650004,1.02958,0.564748,0.651928,-0.0996815,0.964059,-0.56413,0.117498,0.722173,-1.03778,-0.755366,0.22529,-0.533593,-1.00216,0.192802,1.10184,0.0586347,
14,-0.376734,-1.26712,1.35606,1.05137,0.133361,-0.524853,0.0917183,-0.686706,0.472878,0.881173,-1.01312,0.493023,0.610073,-1.15302,1.31118,-0.524599,-0.733953,-1.0261,1.3098,-0.418993,-1.38332,-0.19375,1.00892,0.919246,0.153261,-0.198539,0.781999,0.0569513,-2.19663,-1.983,0.512135,0.846704,-1.50153,-0.619122,1.32426,-0.735485,-0.856236,-0.0229414,-0.620409,-0.340297,-0.725519,-0.275814,0.0680153,1.13214,-0.43114,-0.498827,-0.330831,-0.0721951,0.774664,-0.415955,-0.674454,1.0371,0.564748,0.651928,-0.0873592,0.964059,-0.575763,0.118316,0.728593,-1.03848,-0.763351,0.216797,-0.535628,-1.01034,0.19356,1.10877,0.0509401,
15,-0.408111,-1.27517,1.37998,1.07954,0.135983,-0.525494,0.0923662,-0.687897,0.488582,0.887876,-1.03134,0.475949,0.609912,-1.15948,1.32164,-0.520594,-0.754638,-1.03124,1.32454,-0.401036,-1.40653,-0.196411,1.01942,0.936793,0.147514,-0.20074,0.786314,0.0616866,-2.21803,-1.98775,0.526294,0.864812,-1.50409,-0.619122,1.33335,-0.746475,-0.856236,-0.0229414,-0.626819,-0.340297,-0.768478,-0.275814,0.0802899,1.13696,-0.43114,-0.498827,-0.335807,-0.0721951,0.820176,-0.415955,-0.695817,1.04327,0.564748,0.651928,-0.0759739,0.964059,-0.586839,0.119051,0.734613,-1.03915,-0.770531,0.209159,-0.537582,-1.01769,0.194242,1.11501,0.0440211,
16,-0.437147,-1.28116,1.40246,1.10678,0.138281,-0.526203,0.0929554,-0.689018,0.502913,0.893324,-1.04828,0.459726,0.609622,-1.16554,1.33122,-0.516935,-0.772798,-1.03498,1.33797,-0.384428,-1.42689,-0.197772,1.02899,0.953065,0.142128,-0.202577,0.790404,0.0663005,-2.23682,-1.99111,0.539199,0.881567,-1.50625,-0.619122,1.3418,-0.756563,-0.856236,-0.0229414,-0.632705,-0.340297,-0.807667,-0.275814,0.0907297,1.14201,-0.43114,-0.498827,-0.340432,-0.0721951,0.861528,-0.415955,-0.714703,1.04832,0.564748,0.651928,-0.0654623,0.964059,-0.597445,0.119723,0.740292,-1.03977,-0.777076,0.202193,-0.539467,-1.02439,0.194859,1.1207,0.0377127,
17,-0.464162,-1.28547,1.42357,1.13309,0.140322,-0.526953,0.093503,-0.690073,0.516065,0.897756,-1.06405,0.444294,0.609264,-1.17123,1.34004,-0.513581,-0.788935,-1.03768,1.35026,-0.368998,-1.44499,-0.198179,1.03773,0.968217,0.137057,-0.20411,0.794276,0.0707887,-2.25351,-1.99343,0.550996,0.89714,-1.50811,-0.619122,1.34969,-0.765887,-0.856236,-0.0229414,-0.638149,-0.340297,-0.843605,-0.275814,0.0997136,1.1472,-0.43114,-0.498827,-0.344723,-0.0721951,0.89933,-0.415955,-0.731576,1.05244,0.564748,0.651928,-0.0557276,0.964059,-0.607649,0.120346,0.745678,-1.04035,-0.783107,0.195768,-0.541293,-1.03057,0.195421,1.12596,0.0318967,
18,-0.48946,-1.28843,1.4434,1.15851,0.142161,-0.527722,0.0940213,-0.691069,0.528215,0.901367,-1.07878,0.429589,0.608881,-1.17658,1.34822,-0.510501,-0.803448,-1.03958,1.36152,-0.354596,-1.46127,-0.197889,1.0457,0.982386,0.132258,-0.205393,0.797939,0.0751519,-2.26852,-1.99496,0.561811,0.91168,-1.50974,-0.619122,1.35709,-0.774557,-0.856236,-0.0229414,-0.643216,-0.340297,-0.876733,-0.275814,0.107541,1.15251,-0.43114,-0.498827,-0.348699,-0.0721951,0.934087,-0.415955,-0.746806,1.05581,0.564748,0.651928,-0.0466847,0.964059,-0.617515,0.120928,0.750815,-1.04088,-0.78872,0.189778,-0.543069,-1.03632,0.195935,1.13086,0.0264795,
19,-0.513265,-1.29028,1.46206,1.18311,0.143834,-0.528499,0.0945168,-0.692013,0.539499,0.904305,-1.09258,0.415541,0.608496,-1.18164,1.35584,-0.507667,-0.816618,-1.04087,1.3719,-0.341086,-1.47606,-0.19708,1.053,0.995699,0.127698,-0.206466,0.801406,0.079396,-2.28215,-1.99589,0.571766,0.925324,-1.51118,-0.619122,1.36406,-0.782662,-0.856236,-0.0229414,-0.647956,-0.340297,-0.907429,-0.275814,0.114434,1.15787,-0.43114,-0.498827,-0.352398,-0.0721951,0.966223,-0.415955,-0.760671,1.05855,0.564748,0.651928,-0.0382461,0.964059,-0.627097,0.121479,0.75574,-1.04135,-0.793989,0.184148,-0.544803,-1.04172,0.196407,1.13548,0.0213909,
20,-0.535736,-1.29122,1.47964,1.20693,0.145366,-0.529276,0.0949934,-0.692909,0.550022,0.906688,-1.10554,0.402096,0.608116,-1.18645,1.36296,-0.505054,-0.828654,-1.04168,1.3815,-0.328365,-1.48958,-0.195879,1.05971,1.00825,0.123353,-0.207362,0.804691,0.0835249,-2.2946,-1.99634,0.580963,0.938174,-1.51247,-0.619122,1.37065,-0.790271,-0.856236,-0.0229414,-0.65241,-0.340297,-0.93599,-0.275814,0.120548,1.16324,-0.43114,-0.498827,-0.355849,-0.0721951,0.996071,-0.415955,-0.773379,1.06079,0.564748,0.651928,-0.0303408,0.964059,-0.636429,0.122003,0.760477,-1.04178,-0.798965,0.178821,-0.546498,-1.04682,0.196845,1.13985,0.0165813,
21,-0.557024,-1.29141,1.49621,1.23,0.146778,-0.530045,0.0954553,-0.693762,0.559873,0.908614,-1.11775,0.389207,0.607749,-1.19102,1.36965,-0.50264,-0.839725,-1.04211,1.3904,-0.31635,-1.50202,-0.194391,1.06588,1.02013,0.119199,-0.208109,0.807804,0.087542,-2.30606,-1.99644,0.589482,0.950314,-1.51363,-0.619122,1.37691,-0.797442,-0.856236,-0.0229414,-0.656612,-0.340297,-0.962669,-0.275814,0.126018,1.16859,-0.43114,-0.498827,-0.359075,-0.0721951,1.02391,-0.415955,-0.785102,1.06261,0.564748,0.651928,-0.0229126,0.964059,-0.645541,0.122504,0.76505,-1.04217,-0.803689,0.173755,-0.548161,-1.05167,0.197252,1.14401,0.0120108,
22,-0.577233,-1.29098,1.51186,1.25236,0.148087,-0.530802,0.095905,-0.694576,0.569121,0.91016,-1.12926,0.376834,0.607396,-1.19538,1.37595,-0.500407,-0.849954,-1.04225,1.39868,-0.30497,-1.51353,-0.192688,1.07157,1.03139,0.115222,-0.208731,0.810755,0.0914509,-2.31664,-1.99625,0.597396,0.961815,-1.51468,-0.619122,1.38286,-0.804224,-0.856236,-0.0229414,-0.660589,-0.340297,-0.98767,-0.275814,0.130936,1.1739,-0.43114,-0.498827,-0.3621,-0.0721951,1.04996,-0.415955,-0.795969,1.06408,0.564748,0.651928,-0.0159114,0.964059,-0.654456,0.122985,0.769477,-1.04252,-0.808195,0.168916,-0.549793,-1.05629,0.197631,1.14799,0.00764862,
23,-0.596453,-1.29004,1.52663,1.27405,0.149305,-0.531547,0.0963439,-0.695353,0.577825,0.911384,-1.14014,0.364939,0.607054,-1.19956,1.3819,-0.498338,-0.859447,-1.04216,1.40639,-0.294164,-1.52421,-0.190821,1.07683,1.04209,0.111408,-0.209245,0.813554,0.0952557,-2.32647,-1.99583,0.604765,0.972738,-1.51564,-0.619122,1.38853,-0.810656,-0.856236,-0.0229414,-0.664363,-0.340297,-1.01116,-0.275814,0.135374,1.17915,-0.43114,-0.498827,-0.364941,-0.0721951,1.07442,-0.415955,-0.806081,1.06526,0.564748,0.651928,-0.00929555,0.964059,-0.663196,0.123449,0.773772,-1.04283,-0.812509,0.164275,-0.551398,-1.06072,0.197987,1.15182,0.00346847,
24,-0.614779,-1.28867,1.5406,1.29511,0.150442,-0.532277,0.0967743,-0.696096,0.586042,0.912339,-1.15044,0.353489,0.606724,-1.20357,1.38754,-0.496418,-0.868293,-1.04187,1.4136,-0.283878,-1.53417,-0.188836,1.08169,1.05229,0.107741,-0.209667,0.81621,0.0989605,-2.33563,-1.99523,0.61164,0.983136,-1.51653,-0.619122,1.39395,-0.816772,-0.856236,-0.0229414,-0.667956,-0.340297,-1.0333,-0.275814,0.1394,1.18434,-0.43114,-0.498827,-0.367614,-0.0721951,1.09745,-0.415955,-0.81553,1.06619,0.564748,0.651928,-0.00302972,0.964059,-0.671781,0.123897,0.777951,-1.0431,-0.816655,0.159808,-0.55298,-1.06497,0.198322,1.15551,-0.000552096,
25,-0.632331,-1.28696,1.55378,1.31556,0.15151,-0.532989,0.0971991,-0.696808,0.593836,0.913074,-1.1602,0.342455,0.60641,-1.20743,1.39289,-0.494634,-0.876587,-1.04144,1.42033,-0.274071,-1.54352,-0.186774,1.08617,1.06202,0.104203,-0.210014,0.818725,0.102569,-2.34422,-1.9945,0.618052,0.993052,-1.51735,-0.619122,1.39915,-0.822602,-0.856236,-0.0229414,-0.671383,-0.340297,-1.05422,-0.275814,0.143071,1.18946,-0.43114,-0.498827,-0.370124,-0.0721951,1.11917,-0.415955,-0.824396,1.0669,0.564748,0.651928,0.00290749,0.964059,-0.680233,0.124333,0.782028,-1.04334,-0.820656,0.15549,-0.554542,-1.06908,0.198637,1.15907,-0.00443487,
26,-0.649134,-1.28494,1.56626,1.33544,0.152516,-0.533685,0.0976174,-0.697492,0.601229,0.913612,-1.16946,0.331803,0.60611,-1.21115,1.39799,-0.492975,-0.884372,-1.04088,1.42665,-0.264694,-1.5523,-0.184649,1.09034,1.07133,0.100791,-0.210291,0.821113,0.106086,-2.35228,-1.99366,0.624057,1.00253,-1.51811,-0.619122,1.40413,-0.828172,-0.856236,-0.0229414,-0.67466,-0.340297,-1.07402,-0.275814,0.146425,1.19451,-0.43114,-0.498827,-0.372495,-0.0721951,1.13974,-0.415955,-0.832737,1.06742,0.564748,0.651928,0.00855566,0.964059,-0.688563,0.124757,0.786011,-1.04355,-0.824525,0.151307,-0.556084,-1.07305,0.198935,1.16253,-0.0081926,
27,-0.665227,-1.28266,1.57809,1.35479,0.153464,-0.534365,0.0980289,-0.69815,0.608246,0.913979,-1.17828,0.321506,0.605822,-1.21474,1.40285,-0.49143,-0.891692,-1.04022,1.43258,-0.25571,-1.56056,-0.182479,1.09421,1.08026,0.0974983,-0.210509,0.823385,0.109518,-2.35986,-1.99272,0.629698,1.01162,-1.51881,-0.619122,1.40893,-0.833504,-0.856236,-0.0229414,-0.6778,-0.340297,-1.09281,-0.275814,0.149498,1.19946,-0.43114,-0.498827,-0.374744,-0.0721951,1.15924,-0.415955,-0.840602,1.0678,0.564748,0.651928,0.0139447,0.964059,-0.69678,0.125171,0.789907,-1.04372,-0.828275,0.147248,-0.557609,-1.07691,0.199218,1.16589,-0.0118374,
28,-0.680663,-1.28017,1.58932,1.37364,0.154361,-0.535028,0.0984347,-0.698784,0.614918,0.914201,-1.18668,0.311541,0.605546,-1.21821,1.4075,-0.48999,-0.898592,-1.03948,1.43818,-0.247088,-1.56836,-0.180282,1.09781,1.08883,0.094317,-0.210675,0.825546,0.112868,-2.36701,-1.9917,0.635005,1.02034,-1.51947,-0.619122,1.41354,-0.838619,-0.856236,-0.0229414,-0.680814,-0.340297,-1.11068,-0.275814,0.152322,1.20432,-0.43114,-0.498827,-0.376881,-0.0721951,1.17777,-0.415955,-0.848041,1.06805,0.564748,0.651928,0.0190958,0.964059,-0.704895,0.125576,0.793725,-1.04387,-0.831918,0.143297,-0.559118,-1.08065,0.199486,1.16917,-0.0153809,
29,-0.695484,-1.2775,1.59998,1.39201,0.15521,-0.535674,0.098835,-0.699396,0.621269,0.914298,-1.1947,0.301885,0.605284,-1.22158,1.41195,-0.488647,-0.905109,-1.03867,1.44346,-0.238799,-1.57573,-0.178072,1.10117,1.09708,0.0912408,-0.210795,0.827605,0.116141,-2.37376,-1.99064,0.640008,1.02873,-1.5201,-0.619122,1.41799,-0.843533,-0.856236,-0.0229414,-0.683713,-0.340297,-1.12771,-0.275814,0.154928,1.20909,-0.43114,-0.498827,-0.378917,-0.0721951,1.19542,-0.415955,-0.855095,1.06821,0.564748,0.651928,0.02403,0.964059,-0.712917,0.125972,0.797471,-1.04399,-0.835464,0.139447,-0.560613,-1.0843,0.199741,1.17237,-0.0188323,
30,-0.709727,-1.27469,1.61013,1.40992,0.156017,-0.536303,0.0992303,-0.699987,0.627322,0.91429,-1.20237,0.29252,0.605034,-1.22483,1.41622,-0.487392,-0.911277,-1.03782,1.44846,-0.230819,-1.58271,-0.175862,1.10431,1.10502,0.0882638,-0.210878,0.829567,0.119339,-2.38015,-1.98952,0.644731,1.0368,-1.52068,-0.619122,1.42228,-0.848263,-0.856236,-0.0229414,-0.686504,-0.340297,-1.14396,-0.275814,0.157338,1.21375,-0.43114,-0.498827,-0.380861,-0.0721951,1.21225,-0.415955,-0.8618,1.06828,0.564748,0.651928,0.0287651,0.964059,-0.720853,0.12636,0.80115,-1.04409,-0.83892,0.135688,-0.562095,-1.08785,0.199983,1.17549,-0.0221996,
31,-0.723427,-1.27177,1.61978,1.42741,0.156784,-0.536916,0.0996208,-0.700558,0.633096,0.914193,-1.20971,0.283431,0.604793,-1.228,1.42033,-0.486219,-0.917123,-1.03692,1.45319,-0.223127,-1.58933,-0.173661,1.10724,1.11268,0.0853807,-0.210928,0.831438,0.122466,-2.38621,-1.98838,0.649197,1.04458,-1.52123,-0.619122,1.42643,-0.852822,-0.856236,-0.0229414,-0.689197,-0.340297,-1.15949,-0.275814,0.159573,1.2183,-0.43114,-0.498827,-0.382719,-0.0721951,1.22834,-0.415955,-0.868185,1.06828,0.564748,0.651928,0.0333159,0.964059,-0.728711,0.126742,0.804767,-1.04416,-0.842295,0.132011,-0.563564,-1.09132,0.200215,1.17855,-0.02549,
32,-0.736618,-1.26875,1.62897,1.44449,0.157515,-0.537512,0.100007,-0.701111,0.638613,0.914019,-1.21674,0.274598,0.604562,-1.23107,1.42428,-0.485122,-0.922676,-1.036,1.45768,-0.215701,-1.59562,-0.171476,1.10998,1.12008,0.0825856,-0.210949,0.833223,0.125525,-2.39197,-1.98722,0.653425,1.0521,-1.52176,-0.619122,1.43045,-0.857221,-0.856236,-0.0229414,-0.691797,-0.340297,-1.17436,-0.275814,0.161652,1.22275,-0.43114,-0.498827,-0.3845,-0.0721951,1.24373,-0.415955,-0.87428,1.06822,0.564748,0.651928,0.0376971,0.964059,-0.736498,0.127118,0.808329,-1.04421,-0.845597,0.12841,-0.565022,-1.09472,0.200436,1.18155,-0.0287108,
33,-0.749336,-1.26567,1.63773,1.46117,0.158213,-0.538092,0.100389,-0.701647,0.64389,0.913781,-1.22349,0.266008,0.604341,-1.23406,1.42809,-0.484096,-0.927958,-1.03506,1.46193,-0.208525,-1.60162,-0.169313,1.11255,1.12724,0.0798729,-0.210947,0.834927,0.128519,-2.39744,-1.98605,0.657432,1.05936,-1.52225,-0.619122,1.43434,-0.861473,-0.856236,-0.0229414,-0.694312,-0.340297,-1.18862,-0.275814,0.163592,1.2271,-0.43114,-0.498827,-0.386208,-0.0721951,1.25849,-0.415955,-0.880109,1.06813,0.564748,0.651928,0.0419204,0.964059,-0.744222,0.127487,0.811839,-1.04423,-0.848831,0.124877,-0.56647,-1.09805,0.200647,1.1845,-0.0318679,
34,-0.761608,-1.26253,1.64608,1.47749,0.158881,-0.538656,0.100767,-0.702167,0.648944,0.91349,-1.22996,0.257648,0.604127,-1.23697,1.43177,-0.483134,-0.932993,-1.0341,1.46598,-0.20158,-1.60734,-0.167179,1.11495,1.13416,0.077238,-0.210925,0.836554,0.131452,-2.40266,-1.98487,0.661234,1.06639,-1.52273,-0.619122,1.43811,-0.865587,-0.856236,-0.0229414,-0.696747,-0.340297,-1.20231,-0.275814,0.165406,1.23135,-0.43114,-0.498827,-0.38785,-0.0721951,1.27265,-0.415955,-0.885696,1.06799,0.564748,0.651928,0.0459971,0.964059,-0.751887,0.127852,0.815302,-1.04424,-0.852002,0.121408,-0.56791,-1.10131,0.200849,1.18739,-0.0349662,
35,-0.773454,-1.25936,1.65405,1.49345,0.15952,-0.539205,0.101141,-0.702672,0.653786,0.913154,-1.23619,0.249504,0.60392,-1.2398,1.43532,-0.482232,-0.937794,-1.03314,1.46983,-0.194854,-1.6128,-0.165075,1.11721,1.14088,0.074678,-0.210886,0.838109,0.134325,-2.40764,-1.98369,0.664848,1.0732,-1.52318,-0.619122,1.44177,-0.869571,-0.856236,-0.0229414,-0.699107,-0.340297,-1.21547,-0.275814,0.167107,1.23549,-0.43114,-0.498827,-0.389432,-0.0721951,1.28626,-0.415955,-0.891059,1.06784,0.564748,0.651928,0.0499387,0.964059,-0.759496,0.128212,0.818719,-1.04422,-0.855116,0.117999,-0.56934,-1.10452,0.201043,1.19024,-0.0380093,
36,-0.784894,-1.25617,1.66165,1.50907,0.160133,-0.539739,0.101512,-0.703162,0.658428,0.912782,-1.24218,0.241565,0.603718,-1.24256,1.43876,-0.481387,-0.942378,-1.03218,1.47351,-0.188332,-1.61802,-0.163007,1.11932,1.14739,0.0721894,-0.210833,0.839596,0.137141,-2.4124,-1.98251,0.668286,1.0798,-1.52361,-0.619122,1.44533,-0.873435,-0.856236,-0.0229414,-0.701396,-0.340297,-1.22814,-0.275814,0.168705,1.23953,-0.43114,-0.498827,-0.390958,-0.0721951,1.29936,-0.415955,-0.896215,1.06766,0.564748,0.651928,0.0537545,0.964059,-0.767053,0.128567,0.822094,-1.04419,-0.858174,0.114645,-0.570763,-1.10767,0.20123,1.19305,-0.041001,
37,-0.795952,-1.25298,1.66892,1.52437,0.16072,-0.540258,0.101879,-0.703639,0.662884,0.912382,-1.24796,0.233822,0.603521,-1.24526,1.4421,-0.480594,-0.946761,-1.03122,1.47701,-0.182004,-1.62301,-0.160978,1.12131,1.15371,0.0697681,-0.21077,0.841019,0.139903,-2.41695,-1.98135,0.67156,1.0862,-1.52402,-0.619122,1.44879,-0.877184,-0.856236,-0.0229414,-0.703619,-0.340297,-1.24034,-0.275814,0.170212,1.24346,-0.43114,-0.498827,-0.392432,-0.0721951,1.31197,-0.415955,-0.90118,1.06748,0.564748,0.651928,0.0574522,0.964059,-0.774562,0.128918,0.825429,-1.04414,-0.861182,0.111342,-0.572178,-1.11077,0.201409,1.19581,-0.0439448,
38,-0.80665,-1.24979,1.67586,1.53936,0.161285,-0.540762,0.102242,-0.704103,0.667164,0.91196,-1.25352,0.226265,0.603329,-1.24789,1.44533,-0.479849,-0.950956,-1.03027,1.48036,-0.175857,-1.6278,-0.158992,1.12317,1.15985,0.0674107,-0.210699,0.842379,0.142612,-2.4213,-1.9802,0.674679,1.09243,-1.52441,-0.619122,1.45216,-0.880827,-0.856236,-0.0229414,-0.705781,-0.340297,-1.25211,-0.275814,0.171635,1.24729,-0.43114,-0.498827,-0.393858,-0.0721951,1.32414,-0.415955,-0.90597,1.06729,0.564748,0.651928,0.0610386,0.964059,-0.782025,0.129266,0.828727,-1.04407,-0.864142,0.108088,-0.573587,-1.11382,0.201581,1.19854,-0.0468439,
39,-0.816997,-1.24662,1.6825,1.55405,0.161828,-0.541252,0.102603,-0.704555,0.671275,0.911522,-1.25888,0.218884,0.603139,-1.25046,1.44848,-0.479148,-0.954973,-1.02933,1.48355,-0.169882,-1.63239,-0.157049,1.12492,1.16582,0.0651157,-0.210623,0.843682,0.145271,-2.42547,-1.97907,0.677655,1.09848,-1.52479,-0.619122,1.45544,-0.884369,-0.856236,-0.0229414,-0.707883,-0.340297,-1.26347,-0.275814,0.172982,1.25102,-0.43114,-0.498827,-0.395239,-0.0721951,1.33587,-0.415955,-0.910595,1.06711,0.564748,0.651928,0.0645218,0.964059,-0.789444,0.129609,0.83199,-1.04398,-0.867058,0.10488,-0.574988,-1.11682,0.201747,1.20123,-0.0497006,
40,-0.827009,-1.24348,1.68884,1.56845,0.16235,-0.541729,0.10296,-0.704995,0.675225,0.911072,-1.26407,0.211671,0.602952,-1.25297,1.45153,-0.47849,-0.958822,-1.02841,1.48661,-0.16407,-1.63679,-0.15515,1.12657,1.17163,0.0628804,-0.210541,0.844929,0.147882,-2.42947,-1.97796,0.680497,1.10436,-1.52515,-0.619122,1.45863,-0.887815,-0.856236,-0.0229414,-0.70993,-0.340297,-1.27445,-0.275814,0.17426,1.25464,-0.43114,-0.498827,-0.396578,-0.0721951,1.34721,-0.415955,-0.915067,1.06693,0.564748,0.651928,0.0679083,0.964059,-0.796822,0.129949,0.835219,-1.04388,-0.869931,0.101714,-0.576384,-1.11978,0.201906,1.20389,-0.0525174,
41,-0.836701,-1.24036,1.69492,1.58258,0.162853,-0.542192,0.103314,-0.705424,0.679024,0.910614,-1.26907,0.204618,0.602767,-1.25542,1.4545,-0.47787,-0.962513,-1.0275,1.48954,-0.158411,-1.64101,-0.153298,1.12811,1.17729,0.0607023,-0.210458,0.846124,0.150446,-2.4333,-1.97687,0.683213,1.11009,-1.5255,-0.619122,1.46175,-0.891172,-0.856236,-0.0229414,-0.711924,-0.340297,-1.28506,-0.275814,0.175474,1.25816,-0.43114,-0.498827,-0.39788,-0.0721951,1.35818,-0.415955,-0.919397,1.06677,0.564748,0.651928,0.071204,0.964059,-0.804161,0.130285,0.838417,-1.04377,-0.872764,0.0985892,-0.577774,-1.1227,0.202061,1.20651,-0.0552968,
42,-0.846087,-1.23729,1.70074,1.59644,0.163338,-0.542641,0.103665,-0.705843,0.682677,0.910154,-1.27392,0.197718,0.602583,-1.25781,1.45739,-0.477286,-0.966055,-1.02661,1.49235,-0.152898,-1.64507,-0.151493,1.12957,1.1828,0.0585792,-0.210374,0.847269,0.152965,-2.43698,-1.97581,0.685811,1.11567,-1.52584,-0.619122,1.46479,-0.894444,-0.856236,-0.0229414,-0.713868,-0.340297,-1.29534,-0.275814,0.176631,1.26158,-0.43114,-0.498827,-0.399145,-0.0721951,1.36879,-0.415955,-0.923594,1.06662,0.564748,0.651928,0.0744141,0.964059,-0.811465,0.130619,0.841586,-1.04364,-0.87556,0.0955022,-0.579158,-1.12559,0.202209,1.20911,-0.058041,
43,-0.855181,-1.23427,1.70631,1.61005,0.163806,-0.543078,0.104013,-0.706251,0.686192,0.909693,-1.2786,0.190964,0.602401,-1.26016,1.46021,-0.476736,-0.969456,-1.02574,1.49504,-0.147524,-1.64898,-0.149735,1.13093,1.18818,0.0565087,-0.21029,0.848366,0.155442,-2.44052,-1.97477,0.688298,1.12111,-1.52616,-0.619122,1.46776,-0.897635,-0.856236,-0.0229414,-0.715766,-0.340297,-1.30529,-0.275814,0.177736,1.2649,-0.43114,-0.498827,-0.400377,-0.0721951,1.37906,-0.415955,-0.927668,1.06649,0.564748,0.651928,0.0775437,0.964059,-0.818734,0.13095,0.844726,-1.0435,-0.878321,0.092451,-0.580538,-1.12843,0.202353,1.21167,-0.0607518,
44,-0.864,-1.2313,1.71165,1.62342,0.164257,-0.543502,0.104358,-0.70665,0.689577,0.909235,-1.28314,0.184349,0.602221,-1.26245,1.46296,-0.476217,-0.972726,-1.0249,1.49762,-0.142282,-1.65274,-0.148027,1.13222,1.19342,0.0544881,-0.210208,0.849419,0.157877,-2.44391,-1.97376,0.690679,1.12642,-1.52647,-0.619122,1.47066,-0.90075,-0.856236,-0.0229414,-0.717619,-0.340297,-1.31494,-0.275814,0.178795,1.26813,-0.43114,-0.498827,-0.401577,-0.0721951,1.38902,-0.415955,-0.931628,1.06638,0.564748,0.651928,0.0805966,0.964059,-0.825971,0.131277,0.84784,-1.04335,-0.881049,0.0894337,-0.581913,-1.13125,0.202492,1.21421,-0.0634312,
45,-0.872551,-1.22839,1.71676,1.63655,0.164694,-0.543913,0.104701,-0.70704,0.692838,0.908783,-1.28754,0.177869,0.602042,-1.26469,1.46565,-0.475727,-0.975871,-1.02408,1.5001,-0.137165,-1.65636,-0.146367,1.13342,1.19854,0.0525159,-0.21013,0.850428,0.160271,-2.44718,-1.97277,0.692962,1.1316,-1.52677,-0.619122,1.47349,-0.903792,-0.856236,-0.0229414,-0.71943,-0.340297,-1.32429,-0.275814,0.179812,1.27126,-0.43114,-0.498827,-0.402748,-0.0721951,1.39868,-0.415955,-0.935479,1.06629,0.564748,0.651928,0.0835778,0.964059,-0.833178,0.131603,0.850928,-1.04318,-0.883744,0.0864484,-0.583283,-1.13403,0.202626,1.21673,-0.0660808,
46,-0.880844,-1.22553,1.72167,1.64945,0.165116,-0.544313,0.105041,-0.70742,0.695978,0.908338,-1.29181,0.171517,0.601863,-1.26688,1.46827,-0.475264,-0.978896,-1.02328,1.50249,-0.132168,-1.65984,-0.144755,1.13456,1.20354,0.0505907,-0.210054,0.851396,0.162627,-2.45033,-1.97182,0.695151,1.13666,-1.52706,-0.619122,1.47626,-0.906765,-0.856236,-0.0229414,-0.7212,-0.340297,-1.33337,-0.275814,0.180789,1.27429,-0.43114,-0.498827,-0.403891,-0.0721951,1.40805,-0.415955,-0.939229,1.06623,0.564748,0.651928,0.0864913,0.964059,-0.840356,0.131926,0.853992,-1.04301,-0.88641,0.0834937,-0.58465,-1.13678,0.202755,1.21922,-0.068702,
47,-0.88889,-1.22274,1.72637,1.66213,0.165524,-0.544701,0.105379,-0.707793,0.699004,0.907902,-1.29595,0.165287,0.601684,-1.26903,1.47084,-0.474826,-0.981807,-1.0225,1.50478,-0.127286,-1.6632,-0.143191,1.13563,1.20843,0.0487106,-0.209984,0.852325,0.164946,-2.45336,-1.97089,0.697254,1.14161,-1.52735,-0.619122,1.47898,-0.909673,-0.856236,-0.0229414,-0.722932,-0.340297,-1.34219,-0.275814,0.181731,1.27723,-0.43114,-0.498827,-0.405009,-0.0721951,1.41715,-0.415955,-0.942885,1.0662,0.564748,0.651928,0.0893409,0.964059,-0.847506,0.132246,0.857034,-1.04282,-0.889047,0.0805681,-0.586012,-1.1395,0.202881,1.22169,-0.0712963,
48,-0.896701,-1.22002,1.73088,1.6746,0.16592,-0.545078,0.105714,-0.708157,0.701923,0.907478,-1.29997,0.159175,0.601504,-1.27114,1.47335,-0.474411,-0.984613,-1.02175,1.50699,-0.122513,-1.66645,-0.141674,1.13663,1.21321,0.0468732,-0.209919,0.853217,0.167229,-2.45628,-1.97,0.699273,1.14644,-1.52762,-0.619122,1.48163,-0.912517,-0.856236,-0.0229414,-0.724626,-0.340297,-1.35076,-0.275814,0.182642,1.28008,-0.43114,-0.498827,-0.406103,-0.0721951,1.42599,-0.415955,-0.946453,1.06619,0.564748,0.651928,0.0921301,0.964059,-0.854631,0.132564,0.860054,-1.04262,-0.891657,0.07767,-0.587371,-1.1422,0.203002,1.22414,-0.073865,
49,-0.904292,-1.21736,1.73522,1.68687,0.166303,-0.545444,0.106046,-0.708514,0.70474,0.907066,-1.30387,0.153176,0.601325,-1.2732,1.47581,-0.474019,-0.987318,-1.02103,1.50912,-0.117843,-1.66958,-0.140205,1.13757,1.21788,0.0450763,-0.209859,0.854074,0.169477,-2.45909,-1.96913,0.701214,1.15117,-1.52788,-0.619122,1.48424,-0.915302,-0.856236,-0.0229414,-0.726286,-0.340297,-1.35909,-0.275814,0.183526,1.28284,-0.43114,-0.498827,-0.407175,-0.0721951,1.43458,-0.415955,-0.949939,1.06622,0.564748,0.651928,0.0948619,0.964059,-0.861731,0.13288,0.863054,-1.04242,-0.894241,0.0747978,-0.588727,-1.14487,0.20312,1.22656,-0.0764096,
50,-0.911667,-1.21477,1.73938,1.69894,0.166675,-0.545799,0.106376,-0.708863,0.707459,0.906668,-1.30767,0.147284,0.601144,-1.27522,1.47822,-0.473647,-0.989928,-1.02033,1.51117,-0.113273,-1.6726,-0.138782,1.13846,1.22246,0.0433191,-0.209806,0.854897,0.171692,-2.46181,-1.96829,0.703082,1.1558,-1.52814,-0.619122,1.48679,-0.91803,-0.856236,-0.0229414,-0.727912,-0.340297,-1.3672,-0.275814,0.184384,1.28551,-0.43114,-0.498827,-0.408227,-0.0721951,1.44295,-0.415955,-0.953348,1.06627,0.564748,0.651928,0.09754,0.964059,-0.868809,0.133195,0.866034,-1.0422,-0.8968,0.0719507,-0.59008,-1.14751,0.203234,1.22897,-0.078931,
51,-0.918835,-1.21225,1.74338,1.71082,0.167035,-0.546144,0.106703,-0.709205,0.710083,0.906283,-1.31137,0.141496,0.600963,-1.2772,1.48058,-0.473294,-0.992446,-1.01966,1.51315,-0.108797,-1.67553,-0.137404,1.13929,1.22694,0.0415999,-0.20976,0.855688,0.173875,-2.46444,-1.96748,0.704881,1.16033,-1.52838,-0.619122,1.48929,-0.920704,-0.856236,-0.0229414,-0.729506,-0.340297,-1.37509,-0.275814,0.185222,1.2881,-0.43114,-0.498827,-0.409261,-0.0721951,1.45109,-0.415955,-0.956686,1.06636,0.564748,0.651928,0.100168,0.964059,-0.875864,0.133507,0.868996,-1.04198,-0.899336,0.0691274,-0.59143,-1.15013,0.203345,1.23136,-0.0814303,
52,-0.925804,-1.20981,1.74723,1.72253,0.167386,-0.546479,0.107028,-0.70954,0.712618,0.905914,-1.31497,0.135807,0.600781,-1.27914,1.48289,-0.472959,-0.994877,-1.01901,1.51506,-0.104413,-1.67836,-0.136072,1.14008,1.23133,0.0399175,-0.209721,0.856449,0.176027,-2.46697,-1.96671,0.706615,1.16477,-1.52862,-0.619122,1.49174,-0.923325,-0.856236,-0.0229414,-0.73107,-0.340297,-1.38278,-0.275814,0.18604,1.2906,-0.43114,-0.498827,-0.410278,-0.0721951,1.45902,-0.415955,-0.959957,1.06648,0.564748,0.651928,0.102748,0.964059,-0.882898,0.133817,0.87194,-1.04174,-0.90185,0.0663267,-0.592777,-1.15273,0.203453,1.23373,-0.0839085,
53,-0.932581,-1.20743,1.75094,1.73405,0.167726,-0.546804,0.10735,-0.709869,0.715066,0.905561,-1.31848,0.130214,0.600598,-1.28104,1.48516,-0.472641,-0.997225,-1.01839,1.51691,-0.100115,-1.6811,-0.134784,1.14082,1.23563,0.0382704,-0.20969,0.857182,0.178149,-2.46942,-1.96596,0.708287,1.16912,-1.52886,-0.619122,1.49415,-0.925897,-0.856236,-0.0229414,-0.732604,-0.340297,-1.39027,-0.275814,0.186841,1.29302,-0.43114,-0.498827,-0.411279,-0.0721951,1.46674,-0.415955,-0.963165,1.06664,0.564748,0.651928,0.105283,0.964059,-0.889913,0.134126,0.874868,-1.0415,-0.904342,0.0635477,-0.594122,-1.1553,0.203557,1.23608,-0.0863666,
54,-0.939174,-1.20513,1.7545,1.74541,0.168057,-0.54712,0.10767,-0.710192,0.717431,0.905225,-1.3219,0.124713,0.600413,-1.2829,1.48739,-0.472338,-0.999494,-1.0178,1.5187,-0.0959015,-1.68374,-0.133539,1.14152,1.23985,0.0366576,-0.209666,0.857887,0.180242,-2.47178,-1.96524,0.709901,1.17339,-1.52908,-0.619122,1.49651,-0.928421,-0.856236,-0.0229414,-0.734109,-0.340297,-1.39757,-0.275814,0.187627,1.29535,-0.43114,-0.498827,-0.412265,-0.0721951,1.47427,-0.415955,-0.966315,1.06683,0.564748,0.651928,0.107775,0.964059,-0.896909,0.134433,0.877779,-1.04126,-0.906814,0.0607894,-0.595465,-1.15786,0.203658,1.23842,-0.0888054,
55,-0.945589,-1.2029,1.75793,1.7566,0.168378,-0.547427,0.107987,-0.710508,0.719716,0.904906,-1.32523,0.119301,0.600226,-1.28473,1.48958,-0.472049,-1.00169,-1.01723,1.52043,-0.0917682,-1.68631,-0.132338,1.14217,1.24399,0.0350778,-0.209651,0.858565,0.182307,-2.47407,-1.96455,0.71146,1.17758,-1.5293,-0.619122,1.49883,-0.930899,-0.856236,-0.0229414,-0.735588,-0.340297,-1.4047,-0.275814,0.1884,1.29761,-0.43114,-0.498827,-0.413237,-0.0721951,1.48161,-0.415955,-0.969408,1.06705,0.564748,0.651928,0.110226,0.964059,-0.903887,0.134738,0.880676,-1.041,-0.909267,0.058051,-0.596806,-1.16039,0.203757,1.24074,-0.0912257,
56,-0.951832,-1.20074,1.76124,1.76763,0.168691,-0.547724,0.108302,-0.710819,0.721925,0.904605,-1.32849,0.113975,0.600038,-1.28653,1.49172,-0.471774,-1.00381,-1.01668,1.52211,-0.0877123,-1.6888,-0.131178,1.14279,1.24805,0.03353,-0.209643,0.859218,0.184345,-2.47628,-1.96388,0.712966,1.18169,-1.52952,-0.619122,1.50111,-0.933334,-0.856236,-0.0229414,-0.73704,-0.340297,-1.41165,-0.275814,0.18916,1.29978,-0.43114,-0.498827,-0.414197,-0.0721951,1.48878,-0.415955,-0.972449,1.06731,0.564748,0.651928,0.112638,0.964059,-0.910848,0.135042,0.883558,-1.04074,-0.9117,0.0553318,-0.598145,-1.16291,0.203852,1.24305,-0.0936283,
57,-0.95791,-1.19866,1.76442,1.7785,0.168996,-0.548013,0.108615,-0.711123,0.724061,0.904322,-1.33167,0.10873,0.599848,-1.28829,1.49384,-0.471511,-1.00586,-1.01616,1.52373,-0.0837304,-1.6912,-0.13006,1.14336,1.25204,0.0320128,-0.209645,0.859847,0.186356,-2.47842,-1.96325,0.714422,1.18572,-1.52973,-0.619122,1.50335,-0.935726,-0.856236,-0.0229414,-0.738468,-0.340297,-1.41843,-0.275814,0.18991,1.30188,-0.43114,-0.498827,-0.415144,-0.0721951,1.49577,-0.415955,-0.97544,1.0676,0.564748,0.651928,0.115012,0.964059,-0.917792,0.135345,0.886426,-1.04047,-0.914115,0.052631,-0.599482,-1.1654,0.203945,1.24534,-0.0960137,
58,-0.963831,-1.19665,1.7675,1.78923,0.169293,-0.548294,0.108925,-0.711423,0.726128,0.904056,-1.33478,0.103565,0.599656,-1.29001,1.49591,-0.47126,-1.00785,-1.01567,1.52531,-0.0798195,-1.69354,-0.128981,1.14391,1.25596,0.030525,-0.209654,0.860454,0.188343,-2.4805,-1.96264,0.71583,1.18968,-1.52993,-0.619122,1.50556,-0.938077,-0.856236,-0.0229414,-0.739872,-0.340297,-1.42505,-0.275814,0.190651,1.3039,-0.43114,-0.498827,-0.41608,-0.0721951,1.50259,-0.415955,-0.978384,1.06793,0.564748,0.651928,0.117352,0.964059,-0.92472,0.135646,0.88928,-1.0402,-0.916513,0.0499478,-0.600818,-1.16788,0.204036,1.24762,-0.0983828,
59,-0.9696,-1.19471,1.77046,1.79981,0.169582,-0.548567,0.109233,-0.711718,0.728128,0.903809,-1.33781,0.0984751,0.599461,-1.29171,1.49796,-0.471019,-1.00977,-1.0152,1.52683,-0.0759768,-1.69581,-0.127941,1.14442,1.25981,0.0290656,-0.209673,0.861038,0.190306,-2.48251,-1.96206,0.717194,1.19357,-1.53013,-0.619122,1.50772,-0.94039,-0.856236,-0.0229414,-0.741252,-0.340297,-1.43152,-0.275814,0.191384,1.30586,-0.43114,-0.498827,-0.417006,-0.0721951,1.50926,-0.415955,-0.981285,1.06829,0.564748,0.651928,0.119659,0.964059,-0.931633,0.135945,0.892123,-1.03992,-0.918894,0.0472815,-0.602152,-1.17034,0.204124,1.24989,-0.100736,
60,-0.975224,-1.19285,1.77332,1.81025,0.169864,-0.548831,0.109538,-0.712007,0.730064,0.903579,-1.34078,0.0934586,0.599265,-1.29338,1.49997,-0.470789,-1.01163,-1.01475,1.52832,-0.0721998,-1.69801,-0.12694,1.1449,1.26359,0.0276333,-0.2097,0.861601,0.192245,-2.48445,-1.96151,0.718515,1.1974,-1.53032,-0.619122,1.50986,-0.942665,-0.856236,-0.0229414,-0.74261,-0.340297,-1.43784,-0.275814,0.192112,1.30773,-0.43114,-0.498827,-0.417923,-0.0721951,1.51577,-0.415955,-0.984146,1.06869,0.564748,0.651928,0.121933,0.964059,-0.938533,0.136243,0.894953,-1.03964,-0.921259,0.0446313,-0.603485,-1.17279,0.20421,1.25214,-0.103075,
61,-0.980723,-1.19106,1.77607,1.82056,0.17014,-0.549088,0.109842,-0.712291,0.731944,0.903372,-1.34369,0.0885138,0.599068,-1.29501,1.50195,-0.470568,-1.01344,-1.01433,1.52975,-0.0684869,-1.70015,-0.125979,1.14535,1.26731,0.0262246,-0.209737,0.862142,0.19416,-2.48635,-1.96099,0.719792,1.20116,-1.5305,-0.619122,1.51196,-0.944904,-0.856236,-0.0229414,-0.743947,-0.340297,-1.44402,-0.275814,0.192837,1.30955,-0.43114,-0.498827,-0.418828,-0.0721951,1.52213,-0.415955,-0.98697,1.06911,0.564748,0.651928,0.124175,0.964059,-0.945422,0.136541,0.897774,-1.03935,-0.92361,0.0419954,-0.604818,-1.17522,0.204293,1.25438,-0.1054,
62,-0.986089,-1.18934,1.77872,1.83074,0.170409,-0.549337,0.110144,-0.712571,0.733767,0.903182,-1.34653,0.0836363,0.598869,-1.29662,1.5039,-0.470356,-1.0152,-1.01393,1.53115,-0.0648343,-1.70224,-0.125055,1.14576,1.27097,0.024841,-0.209783,0.862665,0.196054,-2.48819,-1.96049,0.72103,1.20486,-1.53069,-0.619122,1.51402,-0.947109,-0.856236,-0.0229414,-0.745263,-0.340297,-1.45006,-0.275814,0.19356,1.31129,-0.43114,-0.498827,-0.419726,-0.0721951,1.52836,-0.415955,-0.989759,1.06957,0.564748,0.651928,0.126389,0.964059,-0.952299,0.136837,0.900584,-1.03906,-0.925947,0.0393744,-0.606149,-1.17764,0.204374,1.25661,-0.107711,
63,-0.991325,-1.1877,1.78129,1.84079,0.170673,-0.549579,0.110443,-0.712847,0.735533,0.903011,-1.34932,0.0788232,0.598668,-1.2982,1.50582,-0.470152,-1.01691,-1.01355,1.53251,-0.0612393,-1.70426,-0.124166,1.14616,1.27457,0.0234817,-0.209838,0.863169,0.197928,-2.48997,-1.96001,0.722233,1.2085,-1.53086,-0.619122,1.51606,-0.949281,-0.856236,-0.0229414,-0.746559,-0.340297,-1.45597,-0.275814,0.19428,1.31297,-0.43114,-0.498827,-0.420618,-0.0721951,1.53445,-0.415955,-0.992516,1.07007,0.564748,0.651928,0.128577,0.964059,-0.959165,0.137131,0.903384,-1.03877,-0.928269,0.0367674,-0.607481,-1.18004,0.204454,1.25883,-0.110009,
64,-0.996438,-1.18612,1.78377,1.85073,0.17093,-0.549814,0.11074,-0.713118,0.737244,0.902857,-1.35205,0.074072,0.598466,-1.29975,1.50771,-0.469956,-1.01856,-1.0132,1.53384,-0.0576998,-1.70623,-0.123312,1.14653,1.27812,0.022146,-0.209902,0.863656,0.199782,-2.4917,-1.95956,0.723402,1.21208,-1.53104,-0.619122,1.51806,-0.95142,-0.856236,-0.0229414,-0.747836,-0.340297,-1.46175,-0.275814,0.195001,1.31459,-0.43114,-0.498827,-0.421503,-0.0721951,1.5404,-0.415955,-0.995242,1.07059,0.564748,0.651928,0.130739,0.964059,-0.966019,0.137425,0.906174,-1.03847,-0.930578,0.034174,-0.608811,-1.18243,0.204531,1.26104,-0.112295,
65,-1.00143,-1.1846,1.78617,1.86055,0.171182,-0.550042,0.111035,-0.713386,0.738904,0.902721,-1.35473,0.0693803,0.598262,-1.30127,1.50957,-0.469768,-1.02017,-1.01286,1.53513,-0.0542134,-1.70815,-0.122492,1.14688,1.28161,0.0208327,-0.209973,0.864127,0.201616,-2.49339,-1.95914,0.724538,1.21561,-1.53121,-0.619122,1.52004,-0.953529,-0.856236,-0.0229414,-0.749094,-0.340297,-1.46742,-0.275814,0.195722,1.31614,-0.43114,-0.498827,-0.422383,-0.0721951,1.54624,-0.415955,-0.99794,1.07115,0.564748,0.651928,0.132878,0.964059,-0.972864,0.137718,0.908956,-1.03816,-0.932874,0.0315938,-0.610141,-1.18481,0.204606,1.26324,-0.114568,
66,-1.00631,-1.18316,1.7885,1.87025,0.171429,-0.550264,0.111327,-0.713649,0.740515,0.902602,-1.35735,0.0647458,0.598057,-1.30277,1.51141,-0.469586,-1.02173,-1.01255,1.53638,-0.0507782,-1.71002,-0.121704,1.1472,1.28506,0.019541,-0.210054,0.864583,0.203432,-2.49502,-1.95874,0.725644,1.21909,-1.53137,-0.619122,1.52199,-0.955608,-0.856236,-0.0229414,-0.750335,-0.340297,-1.47296,-0.275814,0.196445,1.31762,-0.43114,-0.498827,-0.423259,-0.0721951,1.55195,-0.415955,-1.00061,1.07174,0.564748,0.651928,0.134994,0.964059,-0.979698,0.13801,0.911728,-1.03786,-0.935158,0.0290262,-0.611471,-1.18717,0.204679,1.26542,-0.11683,
67,-1.01108,-1.18178,1.79076,1.87986,0.17167,-0.550479,0.111618,-0.713909,0.742079,0.9025,-1.35994,0.0601664,0.597849,-1.30425,1.51322,-0.46941,-1.02325,-1.01226,1.53761,-0.0473922,-1.71184,-0.120947,1.14751,1.28845,0.0182698,-0.210143,0.865023,0.205231,-2.49662,-1.95836,0.726721,1.22252,-1.53153,-0.619122,1.52391,-0.957658,-0.856236,-0.0229414,-0.751558,-0.340297,-1.4784,-0.275814,0.197171,1.31905,-0.43114,-0.498827,-0.424131,-0.0721951,1.55754,-0.415955,-1.00326,1.07236,0.564748,0.651928,0.137089,0.964059,-0.986523,0.138301,0.914493,-1.03755,-0.937429,0.0264708,-0.612801,-1.18952,0.204751,1.2676,-0.11908,
68,-1.01575,-1.18046,1.79295,1.88935,0.171907,-0.550689,0.111906,-0.714166,0.743598,0.902414,-1.36247,0.05564,0.597641,-1.3057,1.51501,-0.469241,-1.02473,-1.01198,1.53881,-0.0440537,-1.71362,-0.120221,1.1478,1.29179,0.0170185,-0.210239,0.86545,0.207012,-2.49817,-1.958,0.727771,1.22591,-1.53169,-0.619122,1.52581,-0.95968,-0.856236,-0.0229414,-0.752764,-0.340297,-1.48372,-0.275814,0.1979,1.32042,-0.43114,-0.498827,-0.425,-0.0721951,1.56302,-0.415955,-1.00588,1.07302,0.564748,0.651928,0.139164,0.964059,-0.993339,0.13859,0.91725,-1.03724,-0.939689,0.0239272,-0.614131,-1.19186,0.204821,1.26977,-0.121319,
69,-1.02032,-1.1792,1.79507,1.89875,0.172139,-0.550892,0.112192,-0.714419,0.745074,0.902344,-1.36497,0.0511649,0.59743,-1.30712,1.51677,-0.469077,-1.02616,-1.01173,1.53998,-0.0407609,-1.71535,-0.119525,1.14807,1.29509,0.0157863,-0.210344,0.865864,0.208778,-2.49967,-1.95766,0.728795,1.22924,-1.53184,-0.619122,1.52767,-0.961675,-0.856236,-0.0229414,-0.753953,-0.340297,-1.48894,-0.275814,0.198633,1.32173,-0.43114,-0.498827,-0.425866,-0.0721951,1.56839,-0.415955,-1.00848,1.0737,0.564748,0.651928,0.14122,0.964059,-1.00015,0.138879,0.92,-1.03692,-0.941937,0.0213948,-0.61546,-1.19419,0.204889,1.27193,-0.123548,
70,-1.02479,-1.178,1.79714,1.90805,0.172367,-0.55109,0.112475,-0.714668,0.746509,0.90229,-1.36742,0.046739,0.597218,-1.30853,1.51851,-0.468918,-1.02756,-1.01149,1.54113,-0.0375123,-1.71704,-0.118857,1.14833,1.29835,0.0145724,-0.210456,0.866264,0.210527,-2.50114,-1.95734,0.729794,1.23253,-1.53199,-0.619122,1.52952,-0.963645,-0.856236,-0.0229414,-0.755127,-0.340297,-1.49406,-0.275814,0.199371,1.32299,-0.43114,-0.498827,-0.42673,-0.0721951,1.57366,-0.415955,-1.01107,1.07441,0.564748,0.651928,0.143258,0.964059,-1.00695,0.139167,0.922744,-1.0366,-0.944175,0.0188734,-0.61679,-1.1965,0.204955,1.27409,-0.125766,
71,-1.02917,-1.17685,1.79914,1.91726,0.17259,-0.551282,0.112757,-0.714915,0.747905,0.902252,-1.36983,0.0423607,0.597003,-1.30991,1.52023,-0.468764,-1.02893,-1.01127,1.54225,-0.0343062,-1.7187,-0.118216,1.14857,1.30156,0.0133761,-0.210576,0.866653,0.212261,-2.50258,-1.95704,0.73077,1.23578,-1.53214,-0.619122,1.53134,-0.965589,-0.856236,-0.0229414,-0.756286,-0.340297,-1.49907,-0.275814,0.200114,1.3242,-0.43114,-0.498827,-0.427592,-0.0721951,1.57882,-0.415955,-1.01363,1.07515,0.564748,0.651928,0.145278,0.964059,-1.01374,0.139455,0.92548,-1.03628,-0.946402,0.0163627,-0.618121,-1.19881,0.20502,1.27623,-0.127975,
72,-1.03346,-1.17577,1.80109,1.92638,0.17281,-0.551469,0.113036,-0.715158,0.749262,0.902229,-1.3722,0.0380283,0.596787,-1.31127,1.52192,-0.468614,-1.03026,-1.01107,1.54334,-0.0311412,-1.72031,-0.117603,1.1488,1.30474,0.0121968,-0.210704,0.86703,0.21398,-2.50397,-1.95677,0.731723,1.23898,-1.53228,-0.619122,1.53314,-0.967509,-0.856236,-0.0229414,-0.75743,-0.340297,-1.504,-0.275814,0.200862,1.32535,-0.43114,-0.498827,-0.428452,-0.0721951,1.58389,-0.415955,-1.01618,1.07592,0.564748,0.651928,0.147282,0.964059,-1.02052,0.139741,0.928211,-1.03596,-0.948619,0.0138622,-0.619451,-1.20111,0.205084,1.27837,-0.130174,
73,-1.03766,-1.17474,1.80299,1.93541,0.173025,-0.551651,0.113313,-0.715399,0.750584,0.902221,-1.37454,0.0337404,0.596569,-1.31261,1.52359,-0.468469,-1.03155,-1.01088,1.54442,-0.0280161,-1.72189,-0.117015,1.14901,1.30787,0.0110338,-0.210839,0.867396,0.215686,-2.50534,-1.95651,0.732655,1.24215,-1.53242,-0.619122,1.53492,-0.969405,-0.856236,-0.0229414,-0.758559,-0.340297,-1.50882,-0.275814,0.201617,1.32645,-0.43114,-0.498827,-0.429311,-0.0721951,1.58885,-0.415955,-1.01871,1.07672,0.564748,0.651928,0.14927,0.964059,-1.0273,0.140027,0.930936,-1.03564,-0.950826,0.0113717,-0.620782,-1.20339,0.205146,1.28049,-0.132364,
74,-1.04178,-1.17377,1.80484,1.94435,0.173237,-0.551828,0.113588,-0.715637,0.751871,0.902227,-1.37684,0.0294954,0.596348,-1.31393,1.52525,-0.468327,-1.03282,-1.01072,1.54547,-0.0249295,-1.72343,-0.116453,1.14921,1.31096,0.0098866,-0.210982,0.867751,0.217377,-2.50667,-1.95626,0.733567,1.24528,-1.53255,-0.619122,1.53667,-0.971279,-0.856236,-0.0229414,-0.759674,-0.340297,-1.51356,-0.275814,0.202378,1.3275,-0.43114,-0.498827,-0.43017,-0.0721951,1.59372,-0.415955,-1.02123,1.07754,0.564748,0.651928,0.151244,0.964059,-1.03407,0.140311,0.933656,-1.03532,-0.953024,0.00889087,-0.622114,-1.20567,0.205206,1.28261,-0.134545,
75,-1.04582,-1.17284,1.80664,1.95321,0.173444,-0.552,0.113861,-0.715871,0.753125,0.902248,-1.37911,0.0252918,0.596125,-1.31523,1.52688,-0.468189,-1.03405,-1.01056,1.5465,-0.02188,-1.72494,-0.115915,1.1494,1.31402,0.00875459,-0.211131,0.868097,0.219055,-2.50797,-1.95604,0.73446,1.24837,-1.53268,-0.619122,1.53841,-0.97313,-0.856236,-0.0229414,-0.760775,-0.340297,-1.51821,-0.275814,0.203145,1.3285,-0.43114,-0.498827,-0.431028,-0.0721951,1.5985,-0.415955,-1.02373,1.07839,0.564748,0.651928,0.153203,0.964059,-1.04084,0.140596,0.936371,-1.03499,-0.955213,0.00641934,-0.623447,-1.20794,0.205266,1.28473,-0.136717,
76,-1.04979,-1.17197,1.8084,1.962,0.173649,-0.552168,0.114132,-0.716104,0.754348,0.902283,-1.38135,0.021128,0.595901,-1.31651,1.52849,-0.468054,-1.03526,-1.01043,1.54751,-0.0188664,-1.72641,-0.115401,1.14958,1.31704,0.00763705,-0.211288,0.868433,0.220721,-2.50924,-1.95583,0.735335,1.25142,-1.53281,-0.619122,1.54012,-0.97496,-0.856236,-0.0229414,-0.761863,-0.340297,-1.52277,-0.275814,0.203921,1.32945,-0.43114,-0.498827,-0.431886,-0.0721951,1.6032,-0.415955,-1.02622,1.07927,0.564748,0.651928,0.15515,0.964059,-1.0476,0.140879,0.939081,-1.03467,-0.957393,0.00395677,-0.62478,-1.21019,0.205324,1.28683,-0.138881,
77,-1.05369,-1.17115,1.81011,1.9707,0.17385,-0.552331,0.1144,-0.716333,0.75554,0.902331,-1.38356,0.0170022,0.595674,-1.31778,1.53008,-0.467923,-1.03643,-1.0103,1.54851,-0.0158871,-1.72786,-0.114909,1.14975,1.32003,0.00653325,-0.211451,0.86876,0.222375,-2.51048,-1.95564,0.736193,1.25444,-1.53294,-0.619122,1.54182,-0.97677,-0.856236,-0.0229414,-0.762938,-0.340297,-1.52725,-0.275814,0.204705,1.33036,-0.43114,-0.498827,-0.432745,-0.0721951,1.6078,-0.415955,-1.0287,1.08017,0.564748,0.651928,0.157084,0.964059,-1.05435,0.141162,0.941787,-1.03434,-0.959564,0.00150249,-0.626114,-1.21244,0.205381,1.28893,-0.141038,
78,-1.05751,-1.17038,1.81179,1.97933,0.174049,-0.552489,0.114667,-0.716561,0.756704,0.902393,-1.38574,0.0129126,0.595447,-1.31903,1.53165,-0.467794,-1.03759,-1.01019,1.54948,-0.0129406,-1.72928,-0.11444,1.14991,1.32299,0.00544259,-0.211621,0.869078,0.224017,-2.51169,-1.95547,0.737034,1.25742,-1.53307,-0.619122,1.5435,-0.97856,-0.856236,-0.0229414,-0.764001,-0.340297,-1.53165,-0.275814,0.205499,1.33122,-0.43114,-0.498827,-0.433606,-0.0721951,1.61233,-0.415955,-1.03117,1.08109,0.564748,0.651928,0.159007,0.964059,-1.0611,0.141444,0.94449,-1.03401,-0.961728,-0.000943936,-0.62745,-1.21469,0.205436,1.29102,-0.143187,
79,-1.06127,-1.16966,1.81343,1.98789,0.174244,-0.552644,0.114931,-0.716786,0.757841,0.902468,-1.38789,0.00885814,0.595217,-1.32026,1.53321,-0.467667,-1.03871,-1.0101,1.55044,-0.0100261,-1.73067,-0.113992,1.15006,1.32591,0.00436435,-0.211798,0.869389,0.225648,-2.51288,-1.95531,0.737861,1.26038,-1.53319,-0.619122,1.54516,-0.98033,-0.856236,-0.0229414,-0.765051,-0.340297,-1.53597,-0.275814,0.206303,1.33204,-0.43114,-0.498827,-0.434468,-0.0721951,1.61677,-0.415955,-1.03363,1.08205,0.564748,0.651928,0.16092,0.964059,-1.06785,0.141725,0.947189,-1.03368,-0.963884,-0.00338278,-0.628787,-1.21692,0.205491,1.29311,-0.145329,
80,-1.06497,-1.16899,1.81503,1.99638,0.174437,-0.552794,0.115194,-0.717009,0.758953,0.902556,-1.39001,0.00483755,0.594987,-1.32147,1.53475,-0.467543,-1.03982,-1.01002,1.55139,-0.00714231,-1.73203,-0.113566,1.1502,1.3288,0.00329777,-0.211981,0.869692,0.227269,-2.51404,-1.95517,0.738673,1.2633,-1.53331,-0.619122,1.5468,-0.982082,-0.856236,-0.0229414,-0.76609,-0.340297,-1.54022,-0.275814,0.207118,1.33282,-0.43114,-0.498827,-0.435332,-0.0721951,1.62113,-0.415955,-1.03609,1.08302,0.564748,0.651928,0.162822,0.964059,-1.0746,0.142006,0.949886,-1.03336,-0.966033,-0.00581436,-0.630125,-1.21915,0.205544,1.29519,-0.147464,
81,-1.06862,-1.16836,1.8166,2.00481,0.174627,-0.55294,0.115455,-0.717229,0.76004,0.902657,-1.39211,0.00084928,0.594755,-1.32267,1.53627,-0.467421,-1.0409,-1.00995,1.55232,-0.00428813,-1.73337,-0.113161,1.15034,1.33167,0.00224264,-0.212171,0.869987,0.228879,-2.51518,-1.95504,0.739471,1.26619,-1.53342,-0.619122,1.54842,-0.983815,-0.856236,-0.0229414,-0.767117,-0.340297,-1.54439,-0.275814,0.207944,1.33355,-0.43114,-0.498827,-0.436198,-0.0721951,1.62542,-0.415955,-1.03854,1.08402,0.564748,0.651928,0.164716,0.964059,-1.08134,0.142286,0.95258,-1.03303,-0.968175,-0.00823888,-0.631465,-1.22137,0.205596,1.29727,-0.149592,
82,-1.0722,-1.16778,1.81814,2.01317,0.174815,-0.553083,0.115713,-0.717448,0.761104,0.90277,-1.39418,-0.00310821,0.594521,-1.32385,1.53777,-0.467301,-1.04196,-1.0099,1.55323,-0.00146225,-1.73469,-0.112775,1.15046,1.3345,0.00119832,-0.212367,0.870277,0.230481,-2.5163,-1.95492,0.740257,1.26905,-1.53353,-0.619122,1.55003,-0.985531,-0.856236,-0.0229414,-0.768133,-0.340297,-1.54849,-0.275814,0.208782,1.33425,-0.43114,-0.498827,-0.437068,-0.0721951,1.62964,-0.415955,-1.04099,1.08504,0.564748,0.651928,0.166601,0.964059,-1.08808,0.142566,0.955273,-1.0327,-0.97031,-0.0106567,-0.632807,-1.22358,0.205648,1.29934,-0.151714,
83,-1.07573,-1.16724,1.81965,2.02147,0.175,-0.553221,0.115969,-0.717665,0.762146,0.902895,-1.39624,-0.00703615,0.594286,-1.32502,1.53925,-0.467183,-1.04299,-1.00986,1.55414,0.00133634,-1.73598,-0.112408,1.15059,1.33731,0.000164374,-0.212569,0.87056,0.232073,-2.5174,-1.95482,0.741031,1.27189,-1.53365,-0.619122,1.55162,-0.98723,-0.856236,-0.0229414,-0.769138,-0.340297,-1.55253,-0.275814,0.209633,1.3349,-0.43114,-0.498827,-0.437941,-0.0721951,1.63379,-0.415955,-1.04343,1.08609,0.564748,0.651928,0.168479,0.964059,-1.09482,0.142845,0.957963,-1.03237,-0.972439,-0.0130679,-0.63415,-1.22578,0.205698,1.30141,-0.15383,
84,-1.07921,-1.16674,1.82114,2.02972,0.175183,-0.553357,0.116224,-0.71788,0.763168,0.903031,-1.39827,-0.0109358,0.594049,-1.32617,1.54072,-0.467067,-1.04401,-1.00983,1.55503,0.0041087,-1.73725,-0.112059,1.15071,1.3401,-0.000859668,-0.212777,0.870837,0.233657,-2.51848,-1.95473,0.741794,1.2747,-1.53375,-0.619122,1.5532,-0.988912,-0.856236,-0.0229414,-0.770132,-0.340297,-1.5565,-0.275814,0.210496,1.33551,-0.43114,-0.498827,-0.438818,-0.0721951,1.63786,-0.415955,-1.04587,1.08716,0.564748,0.651928,0.17035,0.964059,-1.10156,0.143124,0.960652,-1.03204,-0.974562,-0.0154728,-0.635496,-1.22798,0.205747,1.30347,-0.155941,
85,-1.08264,-1.16628,1.8226,2.03791,0.175363,-0.553488,0.116476,-0.718093,0.764169,0.90318,-1.40028,-0.0148083,0.593811,-1.32731,1.54218,-0.466953,-1.04501,-1.00981,1.55591,0.00685567,-1.73851,-0.111729,1.15082,1.34286,-0.00187423,-0.212991,0.871109,0.235232,-2.51954,-1.95466,0.742547,1.27748,-1.53386,-0.619122,1.55476,-0.990578,-0.856236,-0.0229414,-0.771116,-0.340297,-1.5604,-0.275814,0.211373,1.33609,-0.43114,-0.498827,-0.439698,-0.0721951,1.64187,-0.415955,-1.04831,1.08825,0.564748,0.651928,0.172214,0.964059,-1.10829,0.143403,0.963339,-1.03171,-0.976678,-0.0178715,-0.636843,-1.23018,0.205795,1.30552,-0.158045,
86,-1.08603,-1.16587,1.82404,2.04604,0.175542,-0.553617,0.116726,-0.718304,0.765151,0.90334,-1.40227,-0.0186545,0.593571,-1.32844,1.54362,-0.46684,-1.046,-1.0098,1.55678,0.0095781,-1.73974,-0.111417,1.15093,1.34559,-0.00287973,-0.213211,0.871376,0.2368,-2.52058,-1.9546,0.74329,1.28024,-1.53396,-0.619122,1.55631,-0.992228,-0.856236,-0.0229414,-0.772089,-0.340297,-1.56424,-0.275814,0.212263,1.33663,-0.43114,-0.498827,-0.440584,-0.0721951,1.64581,-0.415955,-1.05075,1.08936,0.564748,0.651928,0.174073,0.964059,-1.11502,0.14368,0.966026,-1.03139,-0.978788,-0.0202642,-0.638193,-1.23237,0.205843,1.30758,-0.160144,
87,-1.08937,-1.1655,1.82546,2.05412,0.175719,-0.553742,0.116974,-0.718514,0.766116,0.903511,-1.40424,-0.0224755,0.593329,-1.32955,1.54504,-0.466728,-1.04696,-1.00981,1.55764,0.0122768,-1.74095,-0.111122,1.15104,1.3483,-0.00387658,-0.213437,0.871638,0.238361,-2.5216,-1.95455,0.744024,1.28297,-1.53407,-0.619122,1.55785,-0.993863,-0.856236,-0.0229414,-0.773052,-0.340297,-1.56801,-0.275814,0.213167,1.33713,-0.43114,-0.498827,-0.441473,-0.0721951,1.64969,-0.415955,-1.05319,1.09049,0.564748,0.651928,0.175926,0.964059,-1.12176,0.143958,0.968711,-1.03106,-0.980893,-0.022651,-0.639544,-1.23455,0.205889,1.30962,-0.162237,
88,-1.09266,-1.16516,1.82686,2.06215,0.175893,-0.553863,0.117221,-0.718722,0.767063,0.903694,-1.4062,-0.0262723,0.593086,-1.33065,1.54645,-0.466617,-1.04791,-1.00983,1.55848,0.0149525,-1.74215,-0.110843,1.15114,1.35099,-0.00486514,-0.213668,0.871895,0.239914,-2.5226,-1.95451,0.744749,1.28568,-1.53417,-0.619122,1.55937,-0.995483,-0.856236,-0.0229414,-0.774006,-0.340297,-1.57173,-0.275814,0.214085,1.33759,-0.43114,-0.498827,-0.442368,-0.0721951,1.65351,-0.415955,-1.05563,1.09165,0.564748,0.651928,0.177774,0.964059,-1.12849,0.144235,0.971396,-1.03073,-0.982992,-0.025032,-0.640898,-1.23672,0.205935,1.31166,-0.164325,
89,-1.09591,-1.16487,1.82824,2.07014,0.176066,-0.553982,0.117465,-0.718929,0.767994,0.903888,-1.40813,-0.0300459,0.592841,-1.33174,1.54784,-0.466507,-1.04884,-1.00985,1.55932,0.017606,-1.74332,-0.110581,1.15124,1.35365,-0.00584577,-0.213906,0.872148,0.241461,-2.52359,-1.95449,0.745466,1.28837,-1.53426,-0.619122,1.56088,-0.997089,-0.856236,-0.0229414,-0.77495,-0.340297,-1.57538,-0.275814,0.215018,1.33802,-0.43114,-0.498827,-0.443267,-0.0721951,1.65726,-0.415955,-1.05807,1.09283,0.564748,0.651928,0.179618,0.964059,-1.13522,0.144511,0.97408,-1.03041,-0.985085,-0.0274075,-0.642253,-1.23889,0.20598,1.3137,-0.166408,
90,-1.09913,-1.16461,1.8296,2.07807,0.176237,-0.554097,0.117707,-0.719134,0.768909,0.904093,-1.41005,-0.0337971,0.592594,-1.33281,1.54922,-0.466399,-1.04976,-1.00989,1.56015,0.0202381,-1.74449,-0.110335,1.15134,1.3563,-0.00681891,-0.214149,0.872398,0.243001,-2.52457,-1.95448,0.746176,1.29104,-1.53436,-0.619122,1.56237,-0.998681,-0.856236,-0.0229414,-0.775885,-0.340297,-1.57898,-0.275814,0.215965,1.33842,-0.43114,-0.498827,-0.444172,-0.0721951,1.66095,-0.415955,-1.06051,1.09402,0.564748,0.651928,0.181458,0.964059,-1.14194,0.144787,0.976764,-1.03008,-0.987173,-0.0297774,-0.643611,-1.24106,0.206024,1.31574,-0.168486,
91,-1.1023,-1.16439,1.83095,2.08596,0.176406,-0.55421,0.117947,-0.719338,0.76981,0.904308,-1.41196,-0.0375268,0.592345,-1.33387,1.55059,-0.466291,-1.05067,-1.00994,1.56098,0.0228495,-1.74563,-0.110105,1.15144,1.35892,-0.00778493,-0.214397,0.872644,0.244536,-2.52553,-1.95448,0.746878,1.29369,-1.53445,-0.619122,1.56385,-1.00026,-0.856236,-0.0229414,-0.776811,-0.340297,-1.58252,-0.275814,0.216926,1.33878,-0.43114,-0.498827,-0.445082,-0.0721951,1.66458,-0.415955,-1.06296,1.09524,0.564748,0.651928,0.183294,0.964059,-1.14867,0.145063,0.979447,-1.02976,-0.989256,-0.032142,-0.644972,-1.24322,0.206068,1.31777,-0.170559,
92,-1.10544,-1.16421,1.83229,2.09381,0.176573,-0.55432,0.118186,-0.719541,0.770698,0.904534,-1.41385,-0.041236,0.592094,-1.33493,1.55194,-0.466183,-1.05156,-1.01,1.56179,0.0254408,-1.74676,-0.109889,1.15153,1.36153,-0.00874419,-0.214651,0.872886,0.246065,-2.52647,-1.95449,0.747574,1.29631,-1.53455,-0.619122,1.56533,-1.00182,-0.856236,-0.0229414,-0.777728,-0.340297,-1.586,-0.275814,0.217903,1.33911,-0.43114,-0.498827,-0.445998,-0.0721951,1.66816,-0.415955,-1.06541,1.09647,0.564748,0.651928,0.185126,0.964059,-1.1554,0.145338,0.982131,-1.02944,-0.991333,-0.0345013,-0.646334,-1.24537,0.206111,1.31979,-0.172627,
93,-1.10855,-1.16406,1.83361,2.10161,0.176739,-0.554427,0.118422,-0.719742,0.771573,0.904771,-1.41573,-0.0449258,0.591841,-1.33597,1.55327,-0.466076,-1.05244,-1.01007,1.5626,0.0280129,-1.74788,-0.109689,1.15163,1.36412,-0.00969703,-0.21491,0.873126,0.247588,-2.5274,-1.95451,0.748263,1.29892,-1.53464,-0.619122,1.56679,-1.00338,-0.856236,-0.0229414,-0.778637,-0.340297,-1.58943,-0.275814,0.218894,1.3394,-0.43114,-0.498827,-0.446919,-0.0721951,1.67168,-0.415955,-1.06786,1.09773,0.564748,0.651928,0.186956,0.964059,-1.16212,0.145613,0.984815,-1.02912,-0.993406,-0.0368556,-0.647699,-1.24752,0.206153,1.32181,-0.17469,
94,-1.11162,-1.16395,1.83492,2.10937,0.176903,-0.554532,0.118657,-0.719943,0.772435,0.905019,-1.41759,-0.0485969,0.591586,-1.337,1.5546,-0.46597,-1.0533,-1.01015,1.5634,0.0305665,-1.74898,-0.109502,1.15172,1.36669,-0.0106438,-0.215174,0.873362,0.249107,-2.52832,-1.95454,0.748947,1.30151,-1.53472,-0.619122,1.56824,-1.00491,-0.856236,-0.0229414,-0.779536,-0.340297,-1.5928,-0.275814,0.219901,1.33967,-0.43114,-0.498827,-0.447847,-0.0721951,1.67514,-0.415955,-1.07031,1.099,0.564748,0.651928,0.188784,0.964059,-1.16885,0.145887,0.9875,-1.0288,-0.995474,-0.0392049,-0.649067,-1.24967,0.206194,1.32383,-0.176749,
95,-1.11467,-1.16387,1.83622,2.1171,0.177066,-0.554633,0.118889,-0.720142,0.773287,0.905276,-1.41944,-0.0522503,0.591328,-1.33802,1.55591,-0.465864,-1.05416,-1.01024,1.5642,0.0331023,-1.75007,-0.10933,1.15181,1.36924,-0.0115848,-0.215444,0.873596,0.250621,-2.52923,-1.95458,0.749625,1.30408,-1.53481,-0.619122,1.56967,-1.00644,-0.856236,-0.0229414,-0.780428,-0.340297,-1.59612,-0.275814,0.220924,1.3399,-0.43114,-0.498827,-0.448781,-0.0721951,1.67855,-0.415955,-1.07278,1.1003,0.564748,0.651928,0.190609,0.964059,-1.17557,0.146161,0.990185,-1.02849,-0.997537,-0.0415494,-0.650437,-1.25181,0.206235,1.32584,-0.178803,
96,-1.11768,-1.16383,1.83751,2.12479,0.177227,-0.554733,0.11912,-0.72034,0.774128,0.905543,-1.42128,-0.0558867,0.591069,-1.33904,1.55721,-0.465759,-1.055,-1.01033,1.56499,0.0356208,-1.75114,-0.10917,1.15191,1.37177,-0.0125204,-0.215718,0.873828,0.25213,-2.53013,-1.95463,0.750298,1.30663,-1.53489,-0.619122,1.5711,-1.00796,-0.856236,-0.0229414,-0.781311,-0.340297,-1.59939,-0.275814,0.221962,1.34011,-0.43114,-0.498827,-0.449721,-0.0721951,1.6819,-0.415955,-1.07524,1.10161,0.564748,0.651928,0.192433,0.964059,-1.1823,0.146434,0.992871,-1.02817,-0.999596,-0.0438892,-0.65181,-1.25394,0.206275,1.32785,-0.180853,
97,-1.12066,-1.16382,1.83879,2.13244,0.177387,-0.55483,0.119348,-0.720536,0.774958,0.905821,-1.42311,-0.0595071,0.590807,-1.34004,1.55849,-0.465653,-1.05583,-1.01044,1.56577,0.0381227,-1.75221,-0.109024,1.152,1.37429,-0.0134509,-0.215998,0.874058,0.253636,-2.53101,-1.95469,0.750967,1.30917,-1.53498,-0.619122,1.57252,-1.00946,-0.856236,-0.0229414,-0.782187,-0.340297,-1.60261,-0.275814,0.223016,1.34028,-0.43114,-0.498827,-0.450668,-0.0721951,1.6852,-0.415955,-1.07771,1.10294,0.564748,0.651928,0.194255,0.964059,-1.18902,0.146707,0.995558,-1.02786,-1.00165,-0.0462243,-0.653186,-1.25607,0.206315,1.32986,-0.182899,
98,-1.12362,-1.16383,1.84007,2.14006,0.177546,-0.554925,0.119575,-0.720732,0.77578,0.906107,-1.42493,-0.063112,0.590544,-1.34104,1.55977,-0.465548,-1.05666,-1.01055,1.56655,0.0406086,-1.75326,-0.108891,1.15209,1.37679,-0.0143767,-0.216283,0.874285,0.255138,-2.53189,-1.95477,0.751632,1.31169,-1.53506,-0.619122,1.57393,-1.01095,-0.856236,-0.0229414,-0.783054,-0.340297,-1.60577,-0.275814,0.224086,1.34043,-0.43114,-0.498827,-0.451622,-0.0721951,1.68845,-0.415955,-1.08019,1.10428,0.564748,0.651928,0.196076,0.964059,-1.19574,0.14698,0.998247,-1.02755,-1.0037,-0.048555,-0.654564,-1.2582,0.206354,1.33186,-0.18494,
99,-1.12656,-1.16388,1.84133,2.14764,0.177703,-0.555017,0.1198,-0.720927,0.776594,0.906403,-1.42674,-0.0667031,0.590279,-1.34202,1.56103,-0.465442,-1.05747,-1.01068,1.56732,0.0430796,-1.75431,-0.10877,1.15218,1.37928,-0.0152982,-0.216572,0.874512,0.256637,-2.53275,-1.95485,0.752293,1.31419,-1.53514,-0.619122,1.57533,-1.01243,-0.856236,-0.0229414,-0.783914,-0.340297,-1.60889,-0.275814,0.225173,1.34055,-0.43114,-0.498827,-0.452583,-0.0721951,1.69164,-0.415955,-1.08268,1.10564,0.564748,0.651928,0.197897,0.964059,-1.20246,0.147252,1.00094,-1.02724,-1.00575,-0.0508815,-0.655946,-1.26032,0.206393,1.33386,-0.186978,
100,-1.12947,-1.16396,1.8426,2.1552,0.17786,-0.555107,0.120023,-0.721122,0.7774,0.906708,-1.42853,-0.0702822,0.590012,-1.343,1.56228,-0.465337,-1.05828,-1.01081,1.56809,0.0455371,-1.75534,-0.10866,1.15228,1.38176,-0.016216,-0.216866,0.874737,0.258134,-2.53361,-1.95494,0.75295,1.31669,-1.53522,-0.619122,1.57672,-1.0139,-0.856236,-0.0229414,-0.784766,-0.340297,-1.61196,-0.275814,0.226278,1.34064,-0.43114,-0.498827,-0.453552,-0.0721951,1.69479,-0.415955,-1.08518,1.10702,0.564748,0.651928,0.199719,0.964059,-1.20919,0.147524,1.00363,-1.02694,-1.00779,-0.0532041,-0.65733,-1.26244,0.206431,1.33586,-0.189012,
101,-1.13237,-1.16407,1.84386,2.16274,0.178015,-0.555195,0.120244,-0.721316,0.7782,0.907022,-1.43032,-0.0738503,0.589743,-1.34397,1.56352,-0.465232,-1.05907,-1.01094,1.56886,0.0479817,-1.75637,-0.108562,1.15237,1.38422,-0.0171305,-0.217164,0.87496,0.259629,-2.53446,-1.95503,0.753605,1.31916,-1.53529,-0.619122,1.5781,-1.01536,-0.856236,-0.0229414,-0.785611,-0.340297,-1.61499,-0.275814,0.227401,1.3407,-0.43114,-0.498827,-0.454529,-0.0721951,1.69789,-0.415955,-1.08768,1.10841,0.564748,0.651928,0.201541,0.964059,-1.21591,0.147796,1.00632,-1.02664,-1.00983,-0.0555233,-0.658718,-1.26455,0.206469,1.33785,-0.191043,
102,-1.13525,-1.16421,1.84512,2.17025,0.17817,-0.555281,0.120463,-0.721509,0.778996,0.907345,-1.43211,-0.0774078,0.589473,-1.34493,1.56474,-0.465127,-1.05987,-1.01109,1.56962,0.0504139,-1.75739,-0.108476,1.15247,1.38668,-0.0180423,-0.217467,0.875183,0.261123,-2.5353,-1.95514,0.754257,1.32163,-1.53537,-0.619122,1.57948,-1.01681,-0.856236,-0.0229414,-0.786449,-0.340297,-1.61797,-0.275814,0.228544,1.34074,-0.43114,-0.498827,-0.455515,-0.0721951,1.70095,-0.415955,-1.0902,1.10982,0.564748,0.651928,0.203364,0.964059,-1.22264,0.148067,1.00902,-1.02634,-1.01186,-0.0578392,-0.660109,-1.26666,0.206506,1.33984,-0.193071,
103,-1.13811,-1.16438,1.84637,2.17774,0.178324,-0.555365,0.120681,-0.721701,0.779786,0.907676,-1.43388,-0.0809557,0.589201,-1.34588,1.56596,-0.465022,-1.06065,-1.01125,1.57038,0.0528343,-1.7584,-0.108401,1.15257,1.38912,-0.0189513,-0.217775,0.875406,0.262615,-2.53614,-1.95525,0.754907,1.32408,-1.53544,-0.619122,1.58084,-1.01825,-0.856236,-0.0229414,-0.78728,-0.340297,-1.62091,-0.275814,0.229705,1.34076,-0.43114,-0.498827,-0.456509,-0.0721951,1.70396,-0.415955,-1.09272,1.11125,0.564748,0.651928,0.205189,0.964059,-1.22937,0.148338,1.01172,-1.02604,-1.01389,-0.0601518,-0.661504,-1.26877,0.206543,1.34183,-0.195096,
104,-1.14096,-1.16457,1.84763,2.1852,0.178477,-0.555447,0.120897,-0.721893,0.780571,0.908016,-1.43565,-0.0844946,0.588928,-1.34683,1.56717,-0.464916,-1.06143,-1.01141,1.57114,0.0552433,-1.7594,-0.108336,1.15267,1.39155,-0.0198577,-0.218086,0.875628,0.264107,-2.53697,-1.95538,0.755555,1.32653,-1.53551,-0.619122,1.5822,-1.01968,-0.856236,-0.0229414,-0.788104,-0.340297,-1.6238,-0.275814,0.230885,1.34075,-0.43114,-0.498827,-0.457512,-0.0721951,1.70693,-0.415955,-1.09526,1.11269,0.564748,0.651928,0.207017,0.964059,-1.2361,0.148609,1.01442,-1.02574,-1.01592,-0.0624612,-0.662902,-1.27088,0.206579,1.34381,-0.197117,
105,-1.14379,-1.16479,1.84889,2.19265,0.178629,-0.555527,0.12111,-0.722085,0.781353,0.908364,-1.43741,-0.0880253,0.588652,-1.34777,1.56836,-0.464811,-1.0622,-1.01157,1.57189,0.0576415,-1.7604,-0.108281,1.15278,1.39397,-0.0207619,-0.218402,0.87585,0.265598,-2.53779,-1.95551,0.756202,1.32896,-1.53558,-0.619122,1.58355,-1.0211,-0.856236,-0.0229414,-0.788921,-0.340297,-1.62666,-0.275814,0.232084,1.34072,-0.43114,-0.498827,-0.458525,-0.0721951,1.70985,-0.415955,-1.09781,1.11414,0.564748,0.651928,0.208846,0.964059,-1.24284,0.14888,1.01713,-1.02545,-1.01795,-0.0647674,-0.664304,-1.27298,0.206615,1.3458,-0.199136,
106,-1.14661,-1.16503,1.85015,2.20008,0.178781,-0.555605,0.121322,-0.722276,0.782131,0.90872,-1.43917,-0.0915484,0.588375,-1.3487,1.56955,-0.464704,-1.06297,-1.01175,1.57264,0.0600293,-1.76139,-0.108237,1.15288,1.39638,-0.0216641,-0.218723,0.876073,0.267088,-2.53861,-1.95564,0.756848,1.33138,-1.53565,-0.619122,1.58489,-1.02251,-0.856236,-0.0229414,-0.789732,-0.340297,-1.62947,-0.275814,0.233303,1.34066,-0.43114,-0.498827,-0.459546,-0.0721951,1.71273,-0.415955,-1.10037,1.11561,0.564748,0.651928,0.210678,0.964059,-1.24957,0.14915,1.01984,-1.02516,-1.01997,-0.0670706,-0.66571,-1.27508,0.20665,1.34778,-0.201152,
107,-1.14943,-1.1653,1.85141,2.20749,0.178932,-0.555682,0.121532,-0.722467,0.782906,0.909084,-1.44092,-0.0950648,0.588097,-1.34963,1.57072,-0.464598,-1.06373,-1.01193,1.57339,0.0624074,-1.76238,-0.108202,1.15299,1.39878,-0.0225648,-0.219047,0.876296,0.268579,-2.53942,-1.95579,0.757494,1.33379,-1.53572,-0.619122,1.58623,-1.02392,-0.856236,-0.0229414,-0.790536,-0.340297,-1.63224,-0.275814,0.234542,1.34058,-0.43114,-0.498827,-0.460578,-0.0721951,1.71557,-0.415955,-1.10295,1.1171,0.564748,0.651928,0.212514,0.964059,-1.25631,0.14942,1.02255,-1.02487,-1.02199,-0.0693709,-0.667119,-1.27717,0.206685,1.34976,-0.203166,
108,-1.15223,-1.16559,1.85268,2.21488,0.179082,-0.555757,0.121741,-0.722657,0.78368,0.909456,-1.44267,-0.098575,0.587816,-1.35055,1.57189,-0.464491,-1.06449,-1.01212,1.57414,0.0647761,-1.76336,-0.108176,1.15311,1.40118,-0.0234643,-0.219375,0.876519,0.270069,-2.54023,-1.95594,0.758139,1.3362,-1.53579,-0.619122,1.58756,-1.02531,-0.856236,-0.0229414,-0.791333,-0.340297,-1.63496,-0.275814,0.235802,1.34047,-0.43114,-0.498827,-0.461619,-0.0721951,1.71836,-0.415955,-1.10554,1.1186,0.564748,0.651928,0.214353,0.964059,-1.26305,0.14969,1.02527,-1.02459,-1.02401,-0.0716683,-0.668532,-1.27927,0.20672,1.35173,-0.205177,
109,-1.15502,-1.16591,1.85395,2.22226,0.179232,-0.55583,0.121947,-0.722847,0.784454,0.909836,-1.44441,-0.10208,0.587535,-1.35147,1.57304,-0.464383,-1.06525,-1.01231,1.57489,0.0671357,-1.76434,-0.10816,1.15323,1.40357,-0.0243637,-0.219708,0.876743,0.27156,-2.54103,-1.9561,0.758784,1.33859,-1.53585,-0.619122,1.58888,-1.0267,-0.856236,-0.0229414,-0.792125,-0.340297,-1.63765,-0.275814,0.237083,1.34034,-0.43114,-0.498827,-0.462669,-0.0721951,1.72111,-0.415955,-1.10814,1.12011,0.564748,0.651928,0.216195,0.964059,-1.2698,0.14996,1.02799,-1.02431,-1.02602,-0.0739631,-0.669949,-1.28136,0.206754,1.35371,-0.207185,
110,-1.15781,-1.16626,1.85523,2.22963,0.179382,-0.555901,0.122152,-0.723037,0.785228,0.910224,-1.44615,-0.10558,0.587251,-1.35238,1.57419,-0.464275,-1.066,-1.01252,1.57564,0.069487,-1.76531,-0.108153,1.15335,1.40594,-0.0252627,-0.220044,0.876969,0.273052,-2.54184,-1.95627,0.759429,1.34098,-1.53592,-0.619122,1.5902,-1.02807,-0.856236,-0.0229414,-0.79291,-0.340297,-1.6403,-0.275814,0.238385,1.3402,-0.43114,-0.498827,-0.46373,-0.0721951,1.72383,-0.415955,-1.11076,1.12163,0.564748,0.651928,0.218041,0.964059,-1.27654,0.150229,1.03072,-1.02403,-1.02804,-0.0762552,-0.67137,-1.28344,0.206788,1.35568,-0.209191,
111,-1.1606,-1.16662,1.85651,2.23698,0.179531,-0.555971,0.122355,-0.723227,0.786002,0.910619,-1.44789,-0.109076,0.586966,-1.35328,1.57533,-0.464166,-1.06675,-1.01272,1.57639,0.0718305,-1.76628,-0.108155,1.15347,1.40832,-0.0261614,-0.220384,0.877195,0.274546,-2.54264,-1.95644,0.760074,1.34335,-1.53598,-0.619122,1.59151,-1.02944,-0.856236,-0.0229414,-0.793689,-0.340297,-1.64291,-0.275814,0.239709,1.34003,-0.43114,-0.498827,-0.464802,-0.0721951,1.7265,-0.415955,-1.11339,1.12317,0.564748,0.651928,0.219892,0.964059,-1.28329,0.150499,1.03345,-1.02375,-1.03004,-0.0785447,-0.672795,-1.28553,0.206822,1.35765,-0.211194,
112,-1.16338,-1.16701,1.8578,2.24432,0.17968,-0.556039,0.122556,-0.723416,0.786776,0.911021,-1.44962,-0.112569,0.58668,-1.35418,1.57645,-0.464056,-1.0675,-1.01293,1.57714,0.0741665,-1.76725,-0.108164,1.1536,1.41068,-0.02706,-0.220728,0.877424,0.27604,-2.54343,-1.95662,0.760721,1.34573,-1.53604,-0.619122,1.59281,-1.03081,-0.856236,-0.0229414,-0.794463,-0.340297,-1.64548,-0.275814,0.241055,1.33984,-0.43114,-0.498827,-0.465884,-0.0721951,1.72913,-0.415955,-1.11604,1.12473,0.564748,0.651928,0.221748,0.964059,-1.29004,0.150768,1.03618,-1.02348,-1.03205,-0.0808315,-0.674224,-1.28761,0.206855,1.35961,-0.213195,
113,-1.16616,-1.16741,1.85911,2.25166,0.179828,-0.556106,0.122755,-0.723605,0.787551,0.91143,-1.45136,-0.116059,0.586392,-1.35507,1.57757,-0.463946,-1.06825,-1.01315,1.57789,0.0764955,-1.76822,-0.108182,1.15374,1.41304,-0.0279588,-0.221075,0.877654,0.277537,-2.54423,-1.9568,0.761369,1.34809,-1.5361,-0.619122,1.59411,-1.03216,-0.856236,-0.0229414,-0.79523,-0.340297,-1.64801,-0.275814,0.242422,1.33962,-0.43114,-0.498827,-0.466977,-0.0721951,1.73172,-0.415955,-1.11871,1.12629,0.564748,0.651928,0.223608,0.964059,-1.2968,0.151036,1.03892,-1.02321,-1.03406,-0.0831157,-0.675658,-1.28969,0.206888,1.36158,-0.215194,
114,-1.16894,-1.16784,1.86042,2.25898,0.179976,-0.556172,0.122952,-0.723794,0.788327,0.911846,-1.45309,-0.119547,0.586102,-1.35596,1.57868,-0.463834,-1.06899,-1.01338,1.57864,0.0788179,-1.76918,-0.108208,1.15388,1.41539,-0.0288579,-0.221426,0.877886,0.279035,-2.54502,-1.95699,0.762019,1.35045,-1.53616,-0.619122,1.5954,-1.03351,-0.856236,-0.0229414,-0.795992,-0.340297,-1.6505,-0.275814,0.243812,1.33939,-0.43114,-0.498827,-0.468082,-0.0721951,1.73428,-0.415955,-1.12139,1.12787,0.564748,0.651928,0.225474,0.964059,-1.30355,0.151305,1.04166,-1.02295,-1.03606,-0.0853976,-0.677095,-1.29177,0.206921,1.36354,-0.21719,
115,-1.17171,-1.16829,1.86174,2.2663,0.180124,-0.556236,0.123148,-0.723984,0.789104,0.91227,-1.45483,-0.123034,0.585811,-1.35684,1.57978,-0.463722,-1.06974,-1.01361,1.57939,0.0811344,-1.77015,-0.108242,1.15402,1.41774,-0.0297576,-0.221781,0.87812,0.280536,-2.54581,-1.95719,0.76267,1.3528,-1.53622,-0.619122,1.59669,-1.03485,-0.856236,-0.0229414,-0.796749,-0.340297,-1.65296,-0.275814,0.245224,1.33914,-0.43114,-0.498827,-0.469197,-0.0721951,1.73679,-0.415955,-1.12409,1.12946,0.564748,0.651928,0.227346,0.964059,-1.31031,0.151573,1.04441,-1.02269,-1.03806,-0.0876772,-0.678537,-1.29385,0.206953,1.36551,-0.219185,
116,-1.17449,-1.16877,1.86307,2.27361,0.180272,-0.556298,0.123342,-0.724173,0.789884,0.912701,-1.45656,-0.126521,0.585518,-1.35772,1.58087,-0.463609,-1.07048,-1.01384,1.58014,0.0834453,-1.77111,-0.108285,1.15417,1.42009,-0.0306581,-0.22214,0.878356,0.28204,-2.5466,-1.95739,0.763323,1.35514,-1.53627,-0.619122,1.59797,-1.03618,-0.856236,-0.0229414,-0.7975,-0.340297,-1.65538,-0.275814,0.24666,1.33887,-0.43114,-0.498827,-0.470324,-0.0721951,1.73927,-0.415955,-1.12681,1.13107,0.564748,0.651928,0.229224,0.964059,-1.31707,0.151841,1.04716,-1.02243,-1.04006,-0.0899546,-0.679983,-1.29592,0.206985,1.36747,-0.221177,
117,-1.17726,-1.16926,1.86441,2.28091,0.180419,-0.55636,0.123534,-0.724362,0.790666,0.913139,-1.45829,-0.130008,0.585224,-1.35859,1.58196,-0.463495,-1.07122,-1.01408,1.5809,0.0857511,-1.77207,-0.108335,1.15433,1.42243,-0.0315596,-0.222503,0.878594,0.283547,-2.54739,-1.9576,0.763978,1.35748,-1.53633,-0.619122,1.59925,-1.0375,-0.856236,-0.0229414,-0.798245,-0.340297,-1.65776,-0.275814,0.248118,1.33857,-0.43114,-0.498827,-0.471462,-0.0721951,1.7417,-0.415955,-1.12954,1.13269,0.564748,0.651928,0.231108,0.964059,-1.32384,0.152109,1.04992,-1.02218,-1.04205,-0.0922299,-0.681434,-1.29799,0.207017,1.36942,-0.223167,
118,-1.18004,-1.16978,1.86577,2.28822,0.180567,-0.556419,0.123724,-0.724551,0.791451,0.913585,-1.46002,-0.133496,0.584928,-1.35946,1.58303,-0.46338,-1.07196,-1.01433,1.58165,0.088052,-1.77302,-0.108393,1.15449,1.42476,-0.0324623,-0.222869,0.878836,0.285057,-2.54818,-1.95782,0.764636,1.35982,-1.53639,-0.619122,1.60052,-1.03882,-0.856236,-0.0229414,-0.798985,-0.340297,-1.66011,-0.275814,0.249601,1.33826,-0.43114,-0.498827,-0.472613,-0.0721951,1.7441,-0.415955,-1.1323,1.13432,0.564748,0.651928,0.232998,0.964059,-1.3306,0.152377,1.05269,-1.02193,-1.04405,-0.094503,-0.682889,-1.30006,0.207049,1.37138,-0.225156,
119,-1.18281,-1.17031,1.86713,2.29552,0.180714,-0.556478,0.123912,-0.724741,0.792239,0.914037,-1.46176,-0.136985,0.58463,-1.36033,1.5841,-0.463263,-1.07269,-1.01458,1.58241,0.0903485,-1.77398,-0.108458,1.15466,1.42709,-0.0333665,-0.223239,0.87908,0.28657,-2.54897,-1.95804,0.765296,1.36215,-1.53644,-0.619122,1.60179,-1.04013,-0.856236,-0.0229414,-0.79972,-0.340297,-1.66241,-0.275814,0.251107,1.33793,-0.43114,-0.498827,-0.473775,-0.0721951,1.74647,-0.415955,-1.13507,1.13596,0.564748,0.651928,0.234896,0.964059,-1.33738,0.152645,1.05546,-1.02168,-1.04604,-0.0967742,-0.684349,-1.30213,0.20708,1.37334,-0.227142,
120,-1.18559,-1.17087,1.86852,2.30282,0.180861,-0.556535,0.124099,-0.72493,0.793031,0.914497,-1.46349,-0.140476,0.584331,-1.36119,1.58516,-0.463146,-1.07343,-1.01484,1.58317,0.0926409,-1.77494,-0.108531,1.15483,1.42942,-0.0342723,-0.223613,0.879326,0.288088,-2.54976,-1.95827,0.765958,1.36448,-1.53649,-0.619122,1.60305,-1.04144,-0.856236,-0.0229414,-0.80045,-0.340297,-1.66468,-0.275814,0.252636,1.33758,-0.43114,-0.498827,-0.474949,-0.0721951,1.74879,-0.415955,-1.13786,1.13762,0.564748,0.651928,0.2368,0.964059,-1.34415,0.152912,1.05823,-1.02144,-1.04803,-0.0990434,-0.685813,-1.30419,0.207111,1.37529,-0.229127,
121,-1.18838,-1.17144,1.86991,2.31011,0.181008,-0.556591,0.124284,-0.72512,0.793827,0.914964,-1.46523,-0.14397,0.58403,-1.36204,1.58621,-0.463027,-1.07417,-1.0151,1.58393,0.0949296,-1.7759,-0.108611,1.15501,1.43175,-0.03518,-0.223991,0.879576,0.289609,-2.55054,-1.9585,0.766624,1.3668,-1.53654,-0.619122,1.60431,-1.04274,-0.856236,-0.0229414,-0.801175,-0.340297,-1.66692,-0.275814,0.25419,1.33721,-0.43114,-0.498827,-0.476136,-0.0721951,1.75107,-0.415955,-1.14068,1.13929,0.564748,0.651928,0.238712,0.964059,-1.35093,0.15318,1.06101,-1.0212,-1.05001,-0.101311,-0.687282,-1.30625,0.207142,1.37724,-0.23111,
122,-1.19117,-1.17204,1.87132,2.31741,0.181155,-0.556646,0.124467,-0.72531,0.794627,0.915439,-1.46697,-0.147467,0.583727,-1.3629,1.58725,-0.462907,-1.07491,-1.01537,1.58469,0.0972149,-1.77685,-0.108698,1.15519,1.43408,-0.0360897,-0.224372,0.879829,0.291135,-2.55133,-1.95874,0.767292,1.36912,-1.53659,-0.619122,1.60556,-1.04403,-0.856236,-0.0229414,-0.801896,-0.340297,-1.66912,-0.275814,0.255769,1.33682,-0.43114,-0.498827,-0.477335,-0.0721951,1.75332,-0.415955,-1.14351,1.14097,0.564748,0.651928,0.240631,0.964059,-1.35771,0.153447,1.0638,-1.02096,-1.052,-0.103576,-0.688756,-1.30832,0.207173,1.37919,-0.233092,
123,-1.19396,-1.17266,1.87274,2.32471,0.181303,-0.556699,0.124648,-0.7255,0.795432,0.915921,-1.46871,-0.150968,0.583423,-1.36375,1.58829,-0.462785,-1.07565,-1.01564,1.58546,0.0994973,-1.77781,-0.108793,1.15538,1.4364,-0.0370016,-0.224757,0.880086,0.292666,-2.55212,-1.95898,0.767964,1.37144,-1.53664,-0.619122,1.60681,-1.04532,-0.856236,-0.0229414,-0.802611,-0.340297,-1.67128,-0.275814,0.257371,1.33642,-0.43114,-0.498827,-0.478546,-0.0721951,1.75553,-0.415955,-1.14636,1.14266,0.564748,0.651928,0.242558,0.964059,-1.36449,0.153714,1.06659,-1.02073,-1.05399,-0.10584,-0.690235,-1.31037,0.207203,1.38114,-0.235071,
124,-1.19676,-1.17329,1.87418,2.33201,0.18145,-0.556752,0.124828,-0.725691,0.796242,0.91641,-1.47046,-0.154474,0.583117,-1.36459,1.58932,-0.462662,-1.07639,-1.01592,1.58622,0.101777,-1.77877,-0.108895,1.15558,1.43872,-0.037916,-0.225146,0.880345,0.294201,-2.55291,-1.95923,0.768638,1.37376,-1.53669,-0.619122,1.60806,-1.0466,-0.856236,-0.0229414,-0.803322,-0.340297,-1.6734,-0.275814,0.258999,1.33599,-0.43114,-0.498827,-0.479771,-0.0721951,1.75771,-0.415955,-1.14924,1.14437,0.564748,0.651928,0.244493,0.964059,-1.37128,0.153981,1.06939,-1.0205,-1.05597,-0.108102,-0.691719,-1.31243,0.207233,1.38309,-0.23705,
125,-1.19956,-1.17395,1.87563,2.33932,0.181597,-0.556803,0.125006,-0.725882,0.797058,0.916906,-1.4722,-0.157984,0.582809,-1.36543,1.59034,-0.462538,-1.07713,-1.0162,1.58699,0.104054,-1.77973,-0.109003,1.15578,1.44104,-0.038833,-0.225539,0.880609,0.295742,-2.5537,-1.95949,0.769317,1.37607,-1.53674,-0.619122,1.6093,-1.04788,-0.856236,-0.0229414,-0.804028,-0.340297,-1.67549,-0.275814,0.260652,1.33555,-0.43114,-0.498827,-0.481008,-0.0721951,1.75984,-0.415955,-1.15213,1.14608,0.564748,0.651928,0.246436,0.964059,-1.37807,0.154248,1.0722,-1.02028,-1.05795,-0.110363,-0.693208,-1.31449,0.207263,1.38504,-0.239027,
126,-1.20238,-1.17462,1.8771,2.34663,0.181744,-0.556852,0.125182,-0.726073,0.797879,0.91741,-1.47395,-0.1615,0.582499,-1.36627,1.59136,-0.462412,-1.07787,-1.01649,1.58777,0.10633,-1.78069,-0.10912,1.156,1.44336,-0.0397529,-0.225936,0.880876,0.297288,-2.55449,-1.95975,0.769999,1.37838,-1.53679,-0.619122,1.61054,-1.04915,-0.856236,-0.0229414,-0.804729,-0.340297,-1.67754,-0.275814,0.262332,1.33509,-0.43114,-0.498827,-0.482259,-0.0721951,1.76194,-0.415955,-1.15505,1.14782,0.564748,0.651928,0.248388,0.964059,-1.38486,0.154514,1.07501,-1.02006,-1.05993,-0.112623,-0.694703,-1.31654,0.207293,1.38698,-0.241002,
127,-1.2052,-1.17532,1.87859,2.35394,0.181892,-0.556901,0.125357,-0.726264,0.798707,0.917922,-1.47571,-0.165023,0.582188,-1.36711,1.59237,-0.462284,-1.07862,-1.01678,1.58855,0.108605,-1.78165,-0.109243,1.15621,1.44568,-0.040676,-0.226337,0.881147,0.298841,-2.55528,-1.96001,0.770685,1.3807,-1.53683,-0.619122,1.61178,-1.05041,-0.856236,-0.0229414,-0.805426,-0.340297,-1.67956,-0.275814,0.264037,1.33461,-0.43114,-0.498827,-0.483523,-0.0721951,1.764,-0.415955,-1.15799,1.14956,0.564748,0.651928,0.250349,0.964059,-1.39166,0.154781,1.07783,-1.01985,-1.06191,-0.114881,-0.696203,-1.3186,0.207322,1.38893,-0.242977,
128,-1.20803,-1.17604,1.8801,2.36126,0.18204,-0.556949,0.12553,-0.726457,0.799542,0.918442,-1.47747,-0.168553,0.581874,-1.36794,1.59337,-0.462155,-1.07936,-1.01708,1.58933,0.110878,-1.78262,-0.109373,1.15644,1.448,-0.0416024,-0.226742,0.881423,0.300399,-2.55608,-1.96029,0.771376,1.38301,-1.53688,-0.619122,1.61301,-1.05167,-0.856236,-0.0229414,-0.806119,-0.340297,-1.68154,-0.275814,0.265769,1.33411,-0.43114,-0.498827,-0.484801,-0.0721951,1.76603,-0.415955,-1.16096,1.15132,0.564748,0.651928,0.25232,0.964059,-1.39846,0.155047,1.08066,-1.01964,-1.06389,-0.117138,-0.697708,-1.32065,0.207352,1.39087,-0.244951,
129,-1.21087,-1.17677,1.88162,2.3686,0.182187,-0.556995,0.125701,-0.726649,0.800384,0.91897,-1.47923,-0.172091,0.581558,-1.36877,1.59437,-0.462023,-1.08011,-1.01738,1.59011,0.113151,-1.78358,-0.109511,1.15667,1.45032,-0.0425322,-0.227151,0.881702,0.301964,-2.55687,-1.96056,0.77207,1.38532,-1.53692,-0.619122,1.61424,-1.05293,-0.856236,-0.0229414,-0.806808,-0.340297,-1.68348,-0.275814,0.267529,1.3336,-0.43114,-0.498827,-0.486093,-0.0721951,1.76802,-0.415955,-1.16395,1.15309,0.564748,0.651928,0.254301,0.964059,-1.40527,0.155314,1.0835,-1.01943,-1.06586,-0.119394,-0.699219,-1.3227,0.207381,1.39282,-0.246923,
130,-1.21372,-1.17753,1.88316,2.37594,0.182336,-0.55704,0.125871,-0.726842,0.801233,0.919506,-1.481,-0.175638,0.581241,-1.3696,1.59536,-0.46189,-1.08086,-1.01769,1.5909,0.115423,-1.78455,-0.109656,1.15691,1.45264,-0.0434657,-0.227564,0.881986,0.303536,-2.55767,-1.96085,0.772769,1.38763,-1.53697,-0.619122,1.61547,-1.05418,-0.856236,-0.0229414,-0.807492,-0.340297,-1.68539,-0.275814,0.269315,1.33307,-0.43114,-0.498827,-0.487399,-0.0721951,1.76997,-0.415955,-1.16696,1.15487,0.564748,0.651928,0.256291,0.964059,-1.41208,0.15558,1.08634,-1.01923,-1.06784,-0.121649,-0.700736,-1.32476,0.20741,1.39476,-0.248895,
131,-1.21658,-1.17831,1.88472,2.38329,0.182484,-0.557084,0.126038,-0.727036,0.80209,0.92005,-1.48278,-0.179194,0.580921,-1.37043,1.59634,-0.461756,-1.08161,-1.01801,1.59169,0.117696,-1.78552,-0.109807,1.15715,1.45497,-0.0444031,-0.227982,0.882275,0.305115,-2.55847,-1.96114,0.773473,1.38994,-1.53701,-0.619122,1.61669,-1.05542,-0.856236,-0.0229414,-0.808172,-0.340297,-1.68726,-0.275814,0.271129,1.33252,-0.43114,-0.498827,-0.48872,-0.0721951,1.77188,-0.415955,-1.17,1.15666,0.564748,0.651928,0.258292,0.964059,-1.4189,0.155846,1.0892,-1.01903,-1.06982,-0.123904,-0.702258,-1.32681,0.207439,1.3967,-0.250866,
132,-1.21945,-1.1791,1.8863,2.39065,0.182632,-0.557128,0.126204,-0.72723,0.802955,0.920601,-1.48456,-0.182759,0.580599,-1.37125,1.59732,-0.461619,-1.08237,-1.01833,1.59249,0.119968,-1.7865,-0.109965,1.1574,1.45729,-0.045345,-0.228403,0.882568,0.306702,-2.55928,-1.96143,0.774181,1.39225,-1.53705,-0.619122,1.61791,-1.05666,-0.856236,-0.0229414,-0.808848,-0.340297,-1.6891,-0.275814,0.272971,1.33195,-0.43114,-0.498827,-0.490055,-0.0721951,1.77376,-0.415955,-1.17306,1.15847,0.564748,0.651928,0.260303,0.964059,-1.42572,0.156113,1.09206,-1.01884,-1.07179,-0.126158,-0.703787,-1.32886,0.207468,1.39864,-0.252837,
133,-1.22234,-1.17991,1.8879,2.39802,0.182781,-0.55717,0.126369,-0.727425,0.803831,0.921159,-1.48634,-0.186335,0.580275,-1.37207,1.59829,-0.46148,-1.08313,-1.01865,1.59329,0.122242,-1.78748,-0.110128,1.15766,1.45962,-0.0462916,-0.228828,0.882867,0.308296,-2.56008,-1.96173,0.774895,1.39456,-1.53709,-0.619122,1.61913,-1.0579,-0.856236,-0.0229414,-0.80952,-0.340297,-1.6909,-0.275814,0.274841,1.33137,-0.43114,-0.498827,-0.491405,-0.0721951,1.7756,-0.415955,-1.17615,1.16029,0.564748,0.651928,0.262325,0.964059,-1.43255,0.156379,1.09493,-1.01865,-1.07376,-0.128411,-0.705321,-1.3309,0.207496,1.40058,-0.254806,
134,-1.22524,-1.18074,1.88952,2.40541,0.182931,-0.557211,0.126531,-0.72762,0.804716,0.921723,-1.48814,-0.189921,0.579949,-1.37289,1.59926,-0.461339,-1.08389,-1.01898,1.59409,0.124516,-1.78846,-0.110297,1.15793,1.46195,-0.0472432,-0.229256,0.88317,0.309898,-2.56089,-1.96203,0.775614,1.39687,-1.53713,-0.619122,1.62035,-1.05913,-0.856236,-0.0229414,-0.810188,-0.340297,-1.69266,-0.275814,0.276739,1.33077,-0.43114,-0.498827,-0.49277,-0.0721951,1.77741,-0.415955,-1.17926,1.16211,0.564748,0.651928,0.264359,0.964059,-1.43938,0.156645,1.0978,-1.01847,-1.07574,-0.130663,-0.706862,-1.33295,0.207525,1.40253,-0.256776,
135,-1.22815,-1.18159,1.89117,2.41281,0.18308,-0.557251,0.126692,-0.727816,0.80561,0.922296,-1.48994,-0.193519,0.57962,-1.37371,1.60022,-0.461196,-1.08466,-1.01931,1.5949,0.126792,-1.78944,-0.110472,1.15821,1.46428,-0.0481996,-0.229689,0.883479,0.311509,-2.56171,-1.96234,0.776338,1.39919,-1.53717,-0.619122,1.62156,-1.06035,-0.856236,-0.0229414,-0.810852,-0.340297,-1.69439,-0.275814,0.278667,1.33015,-0.43114,-0.498827,-0.494151,-0.0721951,1.77917,-0.415955,-1.18241,1.16396,0.564748,0.651928,0.266404,0.964059,-1.44622,0.156911,1.10069,-1.01829,-1.07771,-0.132915,-0.708409,-1.335,0.207553,1.40447,-0.258744,
136,-1.23109,-1.18245,1.89284,2.42022,0.18323,-0.557291,0.126852,-0.728013,0.806515,0.922876,-1.49175,-0.197129,0.57929,-1.37452,1.60117,-0.461051,-1.08543,-1.01965,1.59572,0.129069,-1.79043,-0.110654,1.15849,1.46662,-0.0491611,-0.230126,0.883794,0.313128,-2.56253,-1.96266,0.777068,1.4015,-1.53721,-0.619122,1.62278,-1.06157,-0.856236,-0.0229414,-0.811513,-0.340297,-1.69608,-0.275814,0.280624,1.32952,-0.43114,-0.498827,-0.495547,-0.0721951,1.7809,-0.415955,-1.18558,1.16581,0.564748,0.651928,0.26846,0.964059,-1.45306,0.157177,1.10359,-1.01811,-1.07968,-0.135167,-0.709962,-1.33705,0.207582,1.40641,-0.260713,
137,-1.23403,-1.18334,1.89452,2.42765,0.183381,-0.557329,0.127009,-0.728211,0.807429,0.923465,-1.49356,-0.200752,0.578957,-1.37534,1.60212,-0.460903,-1.0862,-1.01999,1.59654,0.131348,-1.79143,-0.110843,1.15879,1.46895,-0.050128,-0.230567,0.884114,0.314756,-2.56335,-1.96297,0.777803,1.40382,-1.53725,-0.619122,1.62399,-1.06279,-0.856236,-0.0229414,-0.81217,-0.340297,-1.69773,-0.275814,0.282611,1.32887,-0.43114,-0.498827,-0.496959,-0.0721951,1.78259,-0.415955,-1.18878,1.16768,0.564748,0.651928,0.270529,0.964059,-1.45991,0.157443,1.1065,-1.01794,-1.08165,-0.137418,-0.711522,-1.33909,0.20761,1.40835,-0.262681,
138,-1.237,-1.18424,1.89624,2.43509,0.183532,-0.557366,0.127165,-0.728409,0.808355,0.924062,-1.49539,-0.204388,0.578621,-1.37615,1.60307,-0.460753,-1.08698,-1.02034,1.59737,0.133629,-1.79242,-0.111038,1.15909,1.47129,-0.0511005,-0.231012,0.88444,0.316392,-2.56418,-1.9633,0.778545,1.40614,-1.53729,-0.619122,1.6252,-1.06401,-0.856236,-0.0229414,-0.812823,-0.340297,-1.69934,-0.275814,0.284629,1.32821,-0.43114,-0.498827,-0.498387,-0.0721951,1.78425,-0.415955,-1.192,1.16956,0.564748,0.651928,0.27261,0.964059,-1.46676,0.15771,1.10941,-1.01778,-1.08363,-0.139669,-0.713088,-1.34114,0.207638,1.41029,-0.264648,
139,-1.23998,-1.18516,1.89798,2.44255,0.183683,-0.557403,0.127319,-0.728608,0.809293,0.924667,-1.49722,-0.208037,0.578283,-1.37696,1.60401,-0.460601,-1.08776,-1.02069,1.5982,0.135912,-1.79343,-0.111239,1.1594,1.47364,-0.0520789,-0.231462,0.884773,0.318038,-2.56501,-1.96363,0.779293,1.40846,-1.53733,-0.619122,1.6264,-1.06522,-0.856236,-0.0229414,-0.813472,-0.340297,-1.70092,-0.275814,0.286678,1.32752,-0.43114,-0.498827,-0.499831,-0.0721951,1.78586,-0.415955,-1.19526,1.17145,0.564748,0.651928,0.274704,0.964059,-1.47362,0.157976,1.11234,-1.01762,-1.0856,-0.14192,-0.714661,-1.34319,0.207666,1.41222,-0.266616,
140,-1.24298,-1.1861,1.89974,2.45003,0.183835,-0.557438,0.127472,-0.728808,0.810242,0.925281,-1.49906,-0.2117,0.577943,-1.37777,1.60494,-0.460445,-1.08855,-1.02105,1.59903,0.138197,-1.79443,-0.111447,1.15972,1.47599,-0.0530635,-0.231916,0.885111,0.319694,-2.56585,-1.96396,0.780047,1.41079,-1.53736,-0.619122,1.62761,-1.06642,-0.856236,-0.0229414,-0.814118,-0.340297,-1.70246,-0.275814,0.288757,1.32682,-0.43114,-0.498827,-0.501292,-0.0721951,1.78744,-0.415955,-1.19854,1.17336,0.564748,0.651928,0.27681,0.964059,-1.48049,0.158242,1.11527,-1.01746,-1.08757,-0.14417,-0.71624,-1.34523,0.207694,1.41416,-0.268583,
141,-1.24599,-1.18706,1.90153,2.45752,0.183988,-0.557473,0.127622,-0.729008,0.811202,0.925903,-1.50092,-0.215377,0.5776,-1.37858,1.60587,-0.460287,-1.08934,-1.02141,1.59988,0.140485,-1.79545,-0.111661,1.16005,1.47834,-0.0540541,-0.232375,0.885456,0.321359,-2.56669,-1.96431,0.780808,1.41312,-1.5374,-0.619122,1.62881,-1.06762,-0.856236,-0.0229414,-0.814761,-0.340297,-1.70396,-0.275814,0.290868,1.3261,-0.43114,-0.498827,-0.502769,-0.0721951,1.78897,-0.415955,-1.20186,1.17528,0.564748,0.651928,0.27893,0.964059,-1.48736,0.158508,1.11822,-1.01731,-1.08954,-0.14642,-0.717827,-1.34728,0.207722,1.4161,-0.27055,
142,-1.24903,-1.18804,1.90334,2.46503,0.18414,-0.557506,0.127771,-0.72921,0.812175,0.926535,-1.50278,-0.219069,0.577254,-1.37938,1.60679,-0.460126,-1.09013,-1.02178,1.60073,0.142776,-1.79646,-0.111882,1.16038,1.4807,-0.055051,-0.232838,0.885808,0.323034,-2.56753,-1.96465,0.781576,1.41545,-1.53743,-0.619122,1.63002,-1.06882,-0.856236,-0.0229414,-0.8154,-0.340297,-1.70543,-0.275814,0.293011,1.32537,-0.43114,-0.498827,-0.504263,-0.0721951,1.79047,-0.415955,-1.20521,1.17721,0.564748,0.651928,0.281063,0.964059,-1.49423,0.158774,1.12118,-1.01717,-1.09151,-0.148671,-0.71942,-1.34932,0.20775,1.41804,-0.272517,
143,-1.25208,-1.18904,1.90518,2.47256,0.184294,-0.557539,0.127919,-0.729412,0.81316,0.927175,-1.50465,-0.222777,0.576905,-1.38019,1.60772,-0.459962,-1.09093,-1.02216,1.60158,0.14507,-1.79749,-0.11211,1.16073,1.48306,-0.0560543,-0.233307,0.886166,0.324719,-2.56838,-1.965,0.782349,1.41778,-1.53747,-0.619122,1.63122,-1.07002,-0.856236,-0.0229414,-0.816035,-0.340297,-1.70685,-0.275814,0.295186,1.32461,-0.43114,-0.498827,-0.505774,-0.0721951,1.79193,-0.415955,-1.20858,1.17916,0.564748,0.651928,0.28321,0.964059,-1.50112,0.15904,1.12414,-1.01703,-1.09348,-0.150921,-0.721021,-1.35137,0.207777,1.41998,-0.274484,
144,-1.25516,-1.19006,1.90704,2.48011,0.184448,-0.55757,0.128065,-0.729615,0.81416,0.927826,-1.50653,-0.226501,0.576553,-1.38099,1.60863,-0.459795,-1.09174,-1.02254,1.60244,0.147366,-1.79852,-0.112344,1.16108,1.48542,-0.0570655,-0.233781,0.88653,0.326415,-2.56924,-1.96536,0.783129,1.42012,-1.5375,-0.619122,1.63242,-1.07121,-0.856236,-0.0229414,-0.816668,-0.340297,-1.70823,-0.275814,0.297394,1.32385,-0.43114,-0.498827,-0.507302,-0.0721951,1.79334,-0.415955,-1.21199,1.18112,0.564748,0.651928,0.28537,0.964059,-1.50801,0.159306,1.12712,-1.0169,-1.09545,-0.153172,-0.722629,-1.35342,0.207805,1.42192,-0.276452,
145,-1.25827,-1.19111,1.90892,2.48767,0.184603,-0.557601,0.128209,-0.729819,0.815179,0.928488,-1.50842,-0.23024,0.576199,-1.3818,1.60954,-0.459625,-1.09256,-1.02292,1.60331,0.149666,-1.79956,-0.112587,1.16144,1.48779,-0.0580869,-0.23426,0.8869,0.32812,-2.57011,-1.96573,0.783914,1.42246,-1.53753,-0.619122,1.63362,-1.0724,-0.856236,-0.0229414,-0.817297,-0.340297,-1.70957,-0.275814,0.299637,1.32306,-0.43114,-0.498827,-0.508846,-0.0721951,1.79472,-0.415955,-1.21544,1.18309,0.564748,0.651928,0.287543,0.964059,-1.5149,0.159573,1.13011,-1.01677,-1.09742,-0.155424,-0.724244,-1.35546,0.207833,1.42386,-0.27842,
146,-1.26141,-1.19218,1.91082,2.49526,0.184759,-0.557631,0.128352,-0.730023,0.816212,0.929159,-1.51032,-0.233995,0.575842,-1.3826,1.61045,-0.459451,-1.09338,-1.02331,1.60418,0.151968,-1.8006,-0.112837,1.16181,1.49017,-0.0591158,-0.234745,0.887277,0.329837,-2.57098,-1.9661,0.784706,1.4248,-1.53757,-0.619122,1.63482,-1.07358,-0.856236,-0.0229414,-0.817923,-0.340297,-1.71087,-0.275814,0.301913,1.32226,-0.43114,-0.498827,-0.510408,-0.0721951,1.79605,-0.415955,-1.21891,1.18508,0.564748,0.651928,0.289731,0.964059,-1.5218,0.159839,1.13312,-1.01664,-1.0994,-0.157676,-0.725868,-1.35751,0.20786,1.4258,-0.280389,
147,-1.26456,-1.19326,1.91276,2.50286,0.184916,-0.557659,0.128493,-0.730229,0.81726,0.929839,-1.51224,-0.237769,0.575481,-1.3834,1.61135,-0.459274,-1.09421,-1.02371,1.60506,0.154275,-1.80166,-0.113092,1.16219,1.49255,-0.0601525,-0.235234,0.887662,0.331564,-2.57186,-1.96647,0.785506,1.42715,-1.5376,-0.619122,1.63602,-1.07476,-0.856236,-0.0229414,-0.818546,-0.340297,-1.71213,-0.275814,0.304222,1.32144,-0.43114,-0.498827,-0.511987,-0.0721951,1.79734,-0.415955,-1.22242,1.18708,0.564748,0.651928,0.291934,0.964059,-1.52871,0.160105,1.13613,-1.01653,-1.10137,-0.159928,-0.727498,-1.35956,0.207888,1.42774,-0.282357,
148,-1.26774,-1.19436,1.91473,2.51049,0.185073,-0.557687,0.128632,-0.730435,0.818323,0.930528,-1.51416,-0.24156,0.575117,-1.38421,1.61225,-0.459094,-1.09504,-1.02411,1.60594,0.156586,-1.80272,-0.113353,1.16258,1.49493,-0.0611971,-0.235728,0.888054,0.333303,-2.57274,-1.96686,0.786313,1.42951,-1.53763,-0.619122,1.63722,-1.07594,-0.856236,-0.0229414,-0.819166,-0.340297,-1.71335,-0.275814,0.306566,1.32061,-0.43114,-0.498827,-0.513585,-0.0721951,1.79859,-0.415955,-1.22597,1.18909,0.564748,0.651928,0.294151,0.964059,-1.53563,0.160372,1.13916,-1.01642,-1.10334,-0.162181,-0.729137,-1.36161,0.207916,1.42969,-0.284326,
149,-1.27094,-1.19548,1.91672,2.51813,0.185231,-0.557715,0.128769,-0.730643,0.819401,0.931226,-1.5161,-0.245371,0.574749,-1.38501,1.61315,-0.45891,-1.09588,-1.02452,1.60683,0.158901,-1.80378,-0.11362,1.16299,1.49732,-0.0622498,-0.236227,0.888455,0.335055,-2.57364,-1.96724,0.787128,1.43186,-1.53766,-0.619122,1.63842,-1.07712,-0.856236,-0.0229414,-0.819782,-0.340297,-1.71452,-0.275814,0.308944,1.31976,-0.43114,-0.498827,-0.515201,-0.0721951,1.7998,-0.415955,-1.22954,1.19112,0.564748,0.651928,0.296384,0.964059,-1.54255,0.160638,1.14219,-1.01631,-1.10531,-0.164434,-0.730783,-1.36365,0.207943,1.43163,-0.286295,
150,-1.27417,-1.19662,1.91875,2.5258,0.185389,-0.557741,0.128905,-0.730851,0.820495,0.931933,-1.51805,-0.2492,0.574377,-1.38581,1.61404,-0.458722,-1.09673,-1.02493,1.60773,0.161221,-1.80485,-0.113893,1.1634,1.49972,-0.0633109,-0.236731,0.888863,0.336818,-2.57453,-1.96763,0.787951,1.43423,-1.53769,-0.619122,1.63962,-1.07829,-0.856236,-0.0229414,-0.820396,-0.340297,-1.71565,-0.275814,0.311355,1.31889,-0.43114,-0.498827,-0.516836,-0.0721951,1.80096,-0.415955,-1.23316,1.19316,0.564748,0.651928,0.298632,0.964059,-1.54947,0.160905,1.14524,-1.01621,-1.10729,-0.166687,-0.732437,-1.3657,0.207971,1.43357,-0.288265,
151,-1.27742,-1.19778,1.9208,2.53349,0.185549,-0.557767,0.129039,-0.73106,0.821605,0.932649,-1.52002,-0.25305,0.574002,-1.38662,1.61493,-0.45853,-1.09758,-1.02535,1.60864,0.163545,-1.80593,-0.114172,1.16382,1.50212,-0.0643803,-0.237239,0.889279,0.338593,-2.57544,-1.96803,0.788782,1.43659,-1.53772,-0.619122,1.64082,-1.07946,-0.856236,-0.0229414,-0.821007,-0.340297,-1.71674,-0.275814,0.313801,1.31801,-0.43114,-0.498827,-0.518489,-0.0721951,1.80207,-0.415955,-1.2368,1.19522,0.564748,0.651928,0.300896,0.964059,-1.5564,0.161171,1.14831,-1.01611,-1.10926,-0.16894,-0.734098,-1.36775,0.207998,1.43551,-0.290234,
152,-1.28069,-1.19895,1.92289,2.54121,0.185708,-0.557792,0.129171,-0.731271,0.822731,0.933374,-1.522,-0.25692,0.573622,-1.38742,1.61581,-0.458335,-1.09844,-1.02577,1.60956,0.165875,-1.80702,-0.114456,1.16425,1.50453,-0.0654586,-0.237752,0.889704,0.340381,-2.57635,-1.96843,0.789621,1.43897,-1.53775,-0.619122,1.64202,-1.08063,-0.856236,-0.0229414,-0.821615,-0.340297,-1.71778,-0.275814,0.316282,1.3171,-0.43114,-0.498827,-0.52016,-0.0721951,1.80314,-0.415955,-1.24048,1.19728,0.564748,0.651928,0.303175,0.964059,-1.56334,0.161438,1.15138,-1.01603,-1.11123,-0.171194,-0.735768,-1.3698,0.208026,1.43745,-0.292204,
153,-1.28399,-1.20014,1.925,2.54895,0.185869,-0.557816,0.129302,-0.731482,0.823875,0.934109,-1.52399,-0.260811,0.573238,-1.38822,1.61669,-0.458136,-1.09931,-1.02619,1.61048,0.168209,-1.80812,-0.114746,1.16469,1.50695,-0.0665461,-0.23827,0.890137,0.342182,-2.57727,-1.96884,0.790469,1.44135,-1.53778,-0.619122,1.64322,-1.08179,-0.856236,-0.0229414,-0.82222,-0.340297,-1.71878,-0.275814,0.318798,1.31619,-0.43114,-0.498827,-0.521851,-0.0721951,1.80417,-0.415955,-1.2442,1.19936,0.564748,0.651928,0.305471,0.964059,-1.57028,0.161705,1.15447,-1.01594,-1.11321,-0.173448,-0.737445,-1.37185,0.208054,1.4394,-0.294174,
154,-1.28732,-1.20134,1.92715,2.55671,0.18603,-0.55784,0.129431,-0.731695,0.825037,0.93485,-1.526,-0.264724,0.57285,-1.38903,1.61757,-0.457932,-1.10018,-1.02662,1.61141,0.17055,-1.80922,-0.115039,1.16514,1.50938,-0.0676434,-0.238792,0.89058,0.343997,-2.5782,-1.96925,0.791325,1.44373,-1.5378,-0.619122,1.64442,-1.08296,-0.856236,-0.0229414,-0.822823,-0.340297,-1.71973,-0.275814,0.32135,1.31526,-0.43114,-0.498827,-0.523561,-0.0721951,1.80515,-0.415955,-1.24795,1.20146,0.564748,0.651928,0.307783,0.964059,-1.57723,0.161971,1.15757,-1.01587,-1.11518,-0.175703,-0.739131,-1.3739,0.208082,1.44134,-0.296145,
155,-1.29067,-1.20256,1.92933,2.56451,0.186192,-0.557863,0.129558,-0.731908,0.826217,0.9356,-1.52802,-0.268659,0.572457,-1.38984,1.61844,-0.457724,-1.10106,-1.02705,1.61235,0.172896,-1.81033,-0.115338,1.1656,1.51181,-0.068751,-0.239318,0.891031,0.345825,-2.57913,-1.96966,0.79219,1.44612,-1.53783,-0.619122,1.64563,-1.08412,-0.856236,-0.0229414,-0.823422,-0.340297,-1.72063,-0.275814,0.323938,1.31431,-0.43114,-0.498827,-0.52529,-0.0721951,1.80608,-0.415955,-1.25174,1.20356,0.564748,0.651928,0.310113,0.964059,-1.58418,0.162238,1.16068,-1.0158,-1.11716,-0.177958,-0.740826,-1.37595,0.208109,1.44328,-0.298116,
156,-1.29406,-1.20379,1.93155,2.57232,0.186355,-0.557886,0.129683,-0.732123,0.827418,0.936357,-1.53006,-0.272618,0.572059,-1.39064,1.61931,-0.457513,-1.10196,-1.02749,1.6133,0.175249,-1.81145,-0.11564,1.16608,1.51425,-0.0698692,-0.239848,0.891492,0.347667,-2.58007,-1.97008,0.793065,1.44852,-1.53786,-0.619122,1.64683,-1.08527,-0.856236,-0.0229414,-0.824019,-0.340297,-1.72149,-0.275814,0.326563,1.31335,-0.43114,-0.498827,-0.52704,-0.0721951,1.80696,-0.415955,-1.25557,1.20568,0.564748,0.651928,0.31246,0.964059,-1.59114,0.162505,1.16381,-1.01573,-1.11913,-0.180214,-0.742529,-1.378,0.208137,1.44523,-0.300089,
157,-1.29748,-1.20502,1.9338,2.58017,0.186519,-0.557909,0.129806,-0.732339,0.82864,0.937119,-1.53212,-0.276602,0.571657,-1.39145,1.62018,-0.457297,-1.10286,-1.02793,1.61425,0.177608,-1.81258,-0.115944,1.16657,1.51669,-0.0709989,-0.240381,0.891963,0.349525,-2.58103,-1.9705,0.793949,1.45093,-1.53788,-0.619122,1.64803,-1.08643,-0.856236,-0.0229414,-0.824614,-0.340297,-1.7223,-0.275814,0.329224,1.31238,-0.43114,-0.498827,-0.52881,-0.0721951,1.8078,-0.415955,-1.25943,1.20781,0.564748,0.651928,0.314824,0.964059,-1.5981,0.162772,1.16696,-1.01568,-1.12111,-0.182472,-0.744241,-1.38005,0.208165,1.44717,-0.302062,
158,-1.30093,-1.20626,1.93608,2.58805,0.186684,-0.557931,0.129927,-0.732557,0.829883,0.937884,-1.53419,-0.280612,0.571249,-1.39226,1.62104,-0.457076,-1.10377,-1.02837,1.61522,0.179975,-1.81372,-0.116249,1.16706,1.51915,-0.0721403,-0.240916,0.892444,0.351397,-2.58199,-1.97092,0.794842,1.45334,-1.53791,-0.619122,1.64924,-1.08758,-0.856236,-0.0229414,-0.825205,-0.340297,-1.72306,-0.275814,0.331921,1.31139,-0.43114,-0.498827,-0.530601,-0.0721951,1.80858,-0.415955,-1.26333,1.20995,0.564748,0.651928,0.317206,0.964059,-1.60508,0.163039,1.17011,-1.01563,-1.12309,-0.184731,-0.745962,-1.38211,0.208194,1.44912,-0.304036,
159,-1.30442,-1.20751,1.9384,2.59596,0.18685,-0.557953,0.130047,-0.732775,0.831149,0.938654,-1.53628,-0.284648,0.570835,-1.39308,1.6219,-0.456852,-1.10469,-1.02881,1.61619,0.18235,-1.81487,-0.116555,1.16757,1.52162,-0.0732934,-0.241452,0.892934,0.353286,-2.58296,-1.97134,0.795745,1.45576,-1.53794,-0.619122,1.65044,-1.08873,-0.856236,-0.0229414,-0.825795,-0.340297,-1.72377,-0.275814,0.334654,1.3104,-0.43114,-0.498827,-0.532411,-0.0721951,1.80932,-0.415955,-1.26727,1.21209,0.564748,0.651928,0.319606,0.964059,-1.61206,0.163306,1.17329,-1.01558,-1.12507,-0.186991,-0.747692,-1.38416,0.208222,1.45106,-0.306012,
160,-1.30794,-1.20875,1.94075,2.6039,0.187017,-0.557976,0.130165,-0.732995,0.832437,0.939425,-1.53839,-0.28871,0.570416,-1.39389,1.62276,-0.456623,-1.10562,-1.02925,1.61718,0.184732,-1.81603,-0.116861,1.1681,1.52409,-0.0744592,-0.24199,0.893434,0.355189,-2.58395,-1.97176,0.796657,1.45819,-1.53796,-0.619122,1.65165,-1.08988,-0.856236,-0.0229414,-0.826381,-0.340297,-1.72443,-0.275814,0.337423,1.30939,-0.43114,-0.498827,-0.534242,-0.0721951,1.81,-0.415955,-1.27125,1.21424,0.564748,0.651928,0.322024,0.964059,-1.61905,0.163573,1.17647,-1.01554,-1.12705,-0.189252,-0.749432,-1.38622,0.20825,1.45301,-0.307989,
161,-1.31149,-1.20999,1.94314,2.61187,0.187185,-0.557999,0.130281,-0.733216,0.833749,0.940198,-1.54052,-0.2928,0.569991,-1.39471,1.62361,-0.456389,-1.10656,-1.02969,1.61817,0.187121,-1.8172,-0.117166,1.16863,1.52658,-0.0756377,-0.242529,0.893945,0.357109,-2.58494,-1.97218,0.797579,1.46062,-1.53799,-0.619122,1.65286,-1.09102,-0.856236,-0.0229414,-0.826966,-0.340297,-1.72504,-0.275814,0.340228,1.30838,-0.43114,-0.498827,-0.536094,-0.0721951,1.81064,-0.415955,-1.27526,1.2164,0.564748,0.651928,0.32446,0.964059,-1.62604,0.163841,1.17968,-1.01551,-1.12903,-0.191516,-0.751182,-1.38827,0.208279,1.45496,-0.309968,
