1,0.16209,0.0871693,-0.140106,-0.0275828,0.0402582,0.190919,-0.173836,0.219769,0.130009,-0.151595,0.155938,-0.0213126,-0.218727,-0.0727634,0.217671,0.127503,-0.180337,0.0531185,0.0314671,0.198061,0.0809895,-0.0230102,-0.090945,-0.092878,-0.0788575,0.0573195,0.0694558,0.255729,0.069577,-0.153537,-0.0319958,0.186116,0.203763,0.194711,-0.0354829,0.132825,-0.240981,-0.0775708,0.000977562,-0.138286,-0.183489,0.233955,-0.102724,-0.00196318,0.189769,-0.237078,0.0719891,-0.0189696,0.0486791,0.00819338,-0.199837,-0.236188,0.171538,-0.0384251,-0.0607557,-0.0329992,-0.230826,-0.0668832,-0.225279,-0.130073,-0.00622289,-0.209052,0.217461,-0.071562,0.0115613,0.0902356,-0.0564472,0.190087,-0.168837,0.0613628,-0.253453,-0.194932,0.214735,0.00068029,0.250932,0.233754,-0.187381,-0.0280872,0.0223828,0.0769089,0.0281723,0.0422912,-0.0116031,0.245843,0.237632,0.211494,-0.245033,-0.0893014,0.242311,-0.119009,-0.0199254,-0.0679288,-0.109112,0.169653,0.204773,0.242264,-0.1418,0.139854,-0.181578,0.180704,0.147542,-0.11537,0.140433,-0.106784,-0.119444,0.119181,-0.0330236,0.11361,-0.113442,-0.21112,-0.113224,0.18999,0.0384171,-0.122386,0.172616,-0.00509476,-0.106278,-0.171691,-0.0177893,0.0358532,0.230287,0.235926,0.177781,0.145943,0.186702,0.166047,-0.249855,0.0725579,0.246617,0.192997,-0.033898,-0.122751,0.0794327,0.121467,0.019954,-0.0553838,-0.165554,-0.120434,0.093323,-0.114526,0.0284908,0.0293154,0.18604,0.168253,-0.0520661,-0.073053,-0.192022,0.0383915,0.171306,0.105979,0.14268,0.0829925,0.238298,0.0287718,0.00984298,0.144494,0.0352122,-0.17745,0.13126,-0.0316415,0.0449472,-0.251342,-0.21206,-0.0934367,0.0249078,-0.0111483,-0.0026957,0.160769,-0.177676,0.139074,-0.0705911,0.107935,0.065262,-0.162189,-0.203983,0.248504,-0.0979157,0.0907042,0.15996,-0.251787,0.0402191,0.0849307,0.126161,-0.191798,-0.166015,0.00986669,0.0987717,-0.088108,-0.119662,-0.193659,0.212197,-0.115646,-0.150361,-0.142029,0.164619,0.0938482,0.110633,0.0645995,0.171529,-0.0110826,0.249366,0.018675,-0.206609,-0.173612,0.0700499,-0.218894,-0.0161701,-0.100035,0.196423,-0.0125999,-0.0254901,-0.189802,0.169636,0.0397013,-0.0988275,-0.0796547,-0.120684,0.0700539,0.0576729,-0.0573533,0.0230936,0.199016,0.049275,0.138054,0.104479,-0.116034,-0.0104702,-0.0900789,-0.203661,0.235437,-0.0998701,0.072003,-0.23033,-0.0164925,-0.117104,-0.192234,0.224327,0.0398505,-0.254968,-0.0474301,-0.0194158,0.0238109,0.000831995,-0.235896,0.184948,0.181142,-0.0966154,-0.00117959,-0.0173666,0.105996,-0.234268,-0.0745319,-0.100911,0.163751,-0.226235,0.0430204,-0.102901,-0.0563491,0.0993237,-0.123646,0.103746,-0.0848548,-0.0940108,-0.168929,0.0580058,-0.0262805,-0.200783,-0.158325,-0.021284,0.0117513,0.220978,-0.218907,-0.0656972,0.243968,0.224928,-0.141815,-0.109906,-0.0335107,0.0997057,0.254977,-0.00889135,-0.232086,-0.103193,-0.1024,-0.199434,0.198714,0.0535866,0.00310425,0.0407782,0.188828,-0.15041,0.21481,-0.162442,-0.0604512,0.0155567,0.0701641,-0.00234758,0.116118,-0.208379,-0.247856,-0.430424,-0.368308,0.404923,0.434517,-0.432542,-0.280903,-0.206668,-0.0370842,0.341508,-0.212408,0.367621,0.0493799,-0.240729,-0.427032,-0.0534559,0.285434,0.0223194,-0.443174,0.155929,0.202327,0.328082,-0.933314,-0.252306,0.101232,-0.774476,0.563647,-0.823269,0.347411,0.733834,0.167739,0.874537,0.833639,
2,0.165168,0.090283,-0.136882,-0.0244132,0.0433948,0.193982,-0.170595,0.222818,0.133102,-0.148365,0.159018,-0.018146,-0.215465,-0.0695718,0.220721,0.130597,-0.177093,0.0562488,0.034608,0.201121,0.0841063,-0.0198428,-0.0877445,-0.0896766,-0.0756629,0.0604477,0.0725782,0.258761,0.0726993,-0.150306,-0.0303246,0.187681,0.205319,0.196272,-0.03381,0.134416,-0.239208,-0.0758774,0.00263272,-0.136563,-0.181744,0.235496,-0.101018,-0.000306593,0.191332,-0.235307,0.0736097,-0.0173047,0.050311,0.00984502,-0.198084,-0.234417,0.17311,-0.0367507,-0.0590704,-0.0313275,-0.229058,-0.065195,-0.223514,-0.128354,-0.00877187,-0.211502,0.214803,-0.0740792,0.00900369,0.0876396,-0.0589717,0.187442,-0.171307,0.0587809,-0.255881,-0.19739,0.212079,-0.00187205,0.248258,0.231088,-0.189841,-0.0306256,0.0198199,0.0743195,0.0256066,0.0397186,-0.0141495,0.243172,0.234964,0.208839,-0.247465,-0.09181,0.239641,-0.121504,-0.0233352,-0.0713152,-0.112478,0.166151,0.201254,0.238727,-0.14515,0.136367,-0.18491,0.177196,0.144051,-0.118734,0.136945,-0.110151,-0.122805,0.115704,-0.036427,0.110135,-0.116806,-0.214437,-0.116588,0.186478,0.0349789,-0.125746,0.169113,-0.00851176,-0.109646,-0.175027,-0.0212001,0.0324162,0.231689,0.237326,0.179208,0.147386,0.188125,0.167481,-0.248219,0.074037,0.248011,0.194418,-0.0323671,-0.121177,0.0809085,0.122922,0.0214587,-0.0538424,-0.163959,-0.118861,0.094792,-0.112956,0.0299914,0.0308156,0.187463,0.169686,-0.0505264,-0.071503,-0.190414,0.0398872,0.172737,0.107442,0.144825,0.0851664,0.240397,0.0309721,0.0120525,0.146638,0.0374094,-0.175149,0.133411,-0.0294117,0.0471396,-0.249005,-0.209742,-0.0911769,0.02711,-0.00892849,-0.00048005,0.162905,-0.175375,0.14122,-0.0683424,0.110096,0.0674446,-0.159895,-0.201669,0.250598,-0.0956537,0.0928744,0.162096,-0.24945,0.0411072,0.085797,0.127008,-0.190797,-0.165027,0.0107696,0.0996312,-0.0871574,-0.118696,-0.192657,0.213001,-0.114682,-0.14938,-0.141052,0.165447,0.0947101,0.111487,0.0654757,0.172354,-0.0101695,0.250152,0.0195736,-0.205601,-0.17262,0.0709234,-0.21788,-0.0152545,-0.0990784,0.197235,-0.0116861,-0.0271131,-0.191345,0.167918,0.0380465,-0.100415,-0.0812513,-0.122261,0.0683844,0.0560094,-0.0589608,0.0214469,0.197284,0.0476156,0.136351,0.102792,-0.117613,-0.0121005,-0.0916705,-0.205198,0.233687,-0.101457,0.0703326,-0.231853,-0.0181199,-0.118682,-0.193776,0.222582,0.0381957,-0.25648,-0.0490424,-0.0201961,0.0230095,4.1822e-05,-0.236571,0.184068,0.180264,-0.0973581,-0.00196879,-0.0181479,0.105155,-0.234943,-0.0752854,-0.101651,0.162882,-0.226915,0.0422097,-0.10364,-0.0571114,0.0984856,-0.124375,0.102905,-0.0856033,-0.0947548,-0.169636,0.0571878,-0.0270574,-0.201475,-0.159038,-0.0220634,0.0109558,0.222503,-0.217167,-0.0640323,0.245483,0.226452,-0.140113,-0.10822,-0.0318614,0.10129,0.256485,-0.00725406,-0.23034,-0.10151,-0.100717,-0.197704,0.20025,0.0551935,0.0047357,0.0423913,0.190369,-0.148703,0.216339,-0.16073,-0.0587888,0.0171821,0.0717629,-0.000713481,0.117695,-0.206645,-0.246102,-0.428677,-0.368129,0.402937,0.435483,-0.435353,-0.273383,-0.206568,-0.0306961,0.35471,-0.209656,0.365905,0.0493559,-0.238823,-0.428001,-0.0504082,0.277912,0.0223085,-0.449328,0.142485,0.199579,0.316759,-0.939252,-0.243152,0.113497,-0.779907,0.5557,-0.826525,0.353274,0.736661,0.16188,0.888758,0.819418,
3,0.167807,0.0929586,-0.134096,-0.0216818,0.0460933,0.196607,-0.167792,0.225429,0.135757,-0.145573,0.161661,-0.0154176,-0.21264,-0.0668184,0.223333,0.133253,-0.174288,0.058941,0.0373107,0.203742,0.0867849,-0.0171136,-0.0849823,-0.0869133,-0.0729065,0.0631379,0.0752624,0.261354,0.0753834,-0.147513,-0.0288779,0.189021,0.206651,0.197608,-0.0323616,0.135782,-0.23766,-0.0744086,0.00406335,-0.135065,-0.180224,0.236814,-0.0995371,0.00112547,0.192671,-0.23376,0.0750058,-0.0158644,0.0517184,0.0112721,-0.196555,-0.232871,0.174458,-0.0353009,-0.0576098,-0.0298804,-0.227515,-0.0637313,-0.221973,-0.12686,-0.0109641,-0.213596,0.212502,-0.0762396,0.00680281,0.0854005,-0.0611395,0.185154,-0.17342,0.0565558,-0.257953,-0.19949,0.209779,-0.00406763,0.245941,0.228779,-0.191946,-0.0328071,0.0176138,0.0720868,0.0233976,0.0375028,-0.0163391,0.240857,0.232653,0.206541,-0.249541,-0.0939618,0.237328,-0.123641,-0.0262912,-0.0742479,-0.115391,0.163103,0.198189,0.235643,-0.148047,0.133333,-0.187787,0.174143,0.141013,-0.121643,0.133911,-0.113065,-0.125713,0.11268,-0.0393767,0.107114,-0.119717,-0.2173,-0.119499,0.18342,0.0319944,-0.128652,0.166063,-0.011475,-0.11256,-0.177909,-0.0241572,0.029433,0.232906,0.23854,0.180451,0.148644,0.189363,0.168729,-0.246768,0.0753305,0.24922,0.195653,-0.0310217,-0.119788,0.0821987,0.124192,0.0227779,-0.0524866,-0.16255,-0.117474,0.0960755,-0.111571,0.0313064,0.0321301,0.188702,0.170933,-0.0491722,-0.0701386,-0.188992,0.0411974,0.173983,0.108719,0.14662,0.0869905,0.242145,0.0328226,0.0139122,0.148432,0.0392568,-0.173199,0.135211,-0.0275318,0.0489823,-0.247018,-0.207774,-0.0892669,0.0289624,-0.00705856,0.00138577,0.164691,-0.173424,0.143017,-0.0664435,0.111908,0.0692774,-0.157952,-0.199705,0.252341,-0.0937416,0.0946948,0.163883,-0.247463,0.0418722,0.0865402,0.127731,-0.189919,-0.164161,0.0115493,0.100368,-0.08633,-0.117853,-0.191778,0.213682,-0.113841,-0.148522,-0.140198,0.166151,0.095449,0.112217,0.0662288,0.173055,-0.00937957,0.250815,0.0203491,-0.204716,-0.171751,0.0716739,-0.216989,-0.0144621,-0.0982452,0.197924,-0.0108954,-0.0285576,-0.192709,0.166378,0.0365703,-0.101824,-0.0826695,-0.123659,0.0668934,0.0545244,-0.0603899,0.0199788,0.19573,0.0461347,0.134827,0.101285,-0.119013,-0.0135524,-0.0930836,-0.206555,0.232115,-0.102865,0.0688406,-0.233198,-0.0195688,-0.120082,-0.19514,0.221016,0.0367194,-0.257812,-0.0504763,-0.0209596,0.022225,-0.000731521,-0.237229,0.183205,0.179403,-0.098084,-0.00274115,-0.0189124,0.10433,-0.235602,-0.0760221,-0.102375,0.162029,-0.227577,0.0414158,-0.104363,-0.0578569,0.0976643,-0.125088,0.102082,-0.0863349,-0.095482,-0.170327,0.0563867,-0.0278176,-0.202151,-0.159734,-0.022826,0.0101772,0.22379,-0.215666,-0.0626059,0.246758,0.227737,-0.138649,-0.106772,-0.0304507,0.102636,0.257756,-0.00585533,-0.228832,-0.100066,-0.0992726,-0.196212,0.201548,0.0565618,0.00612859,0.0437658,0.191671,-0.147236,0.217628,-0.159257,-0.057365,0.0185689,0.0731231,0.00068206,0.119033,-0.205149,-0.244587,-0.427049,-0.36795,0.401408,0.436972,-0.437881,-0.26623,-0.206467,-0.0244715,0.367405,-0.207219,0.364307,0.0493318,-0.237374,-0.429493,-0.0476437,0.270757,0.0222976,-0.455319,0.129548,0.197147,0.305657,-0.945097,-0.234185,0.125609,-0.785333,0.54808,-0.829729,0.359221,0.73981,0.156184,0.902762,0.805414,
4,0.170241,0.0954294,-0.131514,-0.0191551,0.0485869,0.199028,-0.165194,0.227835,0.138207,-0.142986,0.164098,-0.012894,-0.21002,-0.0642698,0.22574,0.135704,-0.171687,0.0614284,0.0398086,0.206159,0.0892587,-0.0145892,-0.0824248,-0.084355,-0.0703549,0.0656232,0.0777418,0.263743,0.0778628,-0.144925,-0.0275349,0.190258,0.207879,0.198841,-0.0310168,0.137045,-0.236215,-0.0730433,0.00539041,-0.13367,-0.178807,0.238027,-0.0981596,0.00245396,0.193906,-0.232317,0.0762983,-0.0145276,0.0530223,0.0125957,-0.195131,-0.231429,0.175702,-0.0339547,-0.0562527,-0.0285368,-0.226075,-0.0623713,-0.220536,-0.125469,-0.0129898,-0.215523,0.210367,-0.0782335,0.00476845,0.0833278,-0.0631408,0.183033,-0.175366,0.0544972,-0.259859,-0.201424,0.207646,-0.0060967,0.24379,0.226637,-0.193883,-0.0348222,0.0155741,0.0700207,0.0213551,0.0354535,-0.0183622,0.238709,0.230509,0.204409,-0.251451,-0.0959471,0.235181,-0.125612,-0.0290448,-0.0769781,-0.118101,0.160257,0.195326,0.232762,-0.150741,0.130501,-0.190462,0.171291,0.138178,-0.12435,0.13108,-0.115776,-0.128418,0.109859,-0.0421239,0.104295,-0.122425,-0.219961,-0.122207,0.180564,0.0292125,-0.131356,0.163216,-0.0142358,-0.115271,-0.180589,-0.0269118,0.0266524,0.234044,0.239675,0.181614,0.149823,0.190522,0.169898,-0.245397,0.076545,0.25035,0.196809,-0.0297554,-0.118479,0.0834099,0.125383,0.024018,-0.0512099,-0.161219,-0.116165,0.0972799,-0.110266,0.0325424,0.0333657,0.189861,0.172101,-0.047897,-0.0688532,-0.187649,0.0424286,0.175149,0.109918,0.148237,0.0886363,0.243715,0.0344948,0.0155936,0.150048,0.0409258,-0.171426,0.136834,-0.0258303,0.0506465,-0.24521,-0.205985,-0.0875354,0.0306364,-0.00536701,0.00307321,0.166299,-0.171652,0.144635,-0.0647231,0.113542,0.0709317,-0.156187,-0.19792,0.253907,-0.0920078,0.0963368,0.165491,-0.245655,0.0425804,0.0872267,0.128397,-0.189098,-0.163353,0.0122723,0.101047,-0.0855593,-0.117067,-0.190956,0.214307,-0.113057,-0.147721,-0.139402,0.166799,0.0961312,0.112891,0.0669252,0.173699,-0.00864639,0.251422,0.0210678,-0.203888,-0.170938,0.0723676,-0.216154,-0.0137264,-0.0974687,0.198556,-0.0101615,-0.029936,-0.194008,0.164905,0.0351602,-0.103166,-0.0840214,-0.124991,0.0654685,0.0531056,-0.0617527,0.0185768,0.194243,0.04472,0.133369,0.099843,-0.120347,-0.014938,-0.0944305,-0.207847,0.23061,-0.104207,0.0674148,-0.234477,-0.0209515,-0.121416,-0.196437,0.219516,0.0353092,-0.259079,-0.0518439,-0.021748,0.0214156,-0.00152976,-0.237912,0.182318,0.178517,-0.0988349,-0.00353841,-0.0197018,0.103481,-0.236286,-0.0767836,-0.103124,0.161152,-0.228265,0.040597,-0.105111,-0.0586273,0.0968182,-0.125826,0.101234,-0.0870915,-0.0962341,-0.171042,0.0555606,-0.0286026,-0.202851,-0.160455,-0.0236135,0.00937364,0.224962,-0.21428,-0.0612945,0.247919,0.228907,-0.137301,-0.105439,-0.0291549,0.103867,0.258911,-0.00457155,-0.22744,-0.098736,-0.0979433,-0.194836,0.202731,0.0578152,0.00740653,0.0450254,0.192859,-0.145883,0.218803,-0.157898,-0.0560561,0.0198408,0.0743685,0.00196266,0.120256,-0.203768,-0.243187,-0.425759,-0.36777,0.400149,0.438835,-0.440316,-0.259568,-0.206367,-0.0184117,0.379608,-0.205071,0.363047,0.0493078,-0.236195,-0.43136,-0.0449726,0.264093,0.0222868,-0.461145,0.117103,0.195004,0.29498,-0.950736,-0.225567,0.137344,-0.790641,0.540913,-0.832821,0.365124,0.743189,0.150748,0.916278,0.791898,
5,0.17257,0.0977949,-0.129039,-0.0167339,0.0509751,0.201343,-0.162702,0.230136,0.140552,-0.140504,0.16643,-0.0104759,-0.207506,-0.0618266,0.228042,0.13805,-0.169191,0.0638104,0.0422011,0.208471,0.0916271,-0.0121702,-0.0799728,-0.081902,-0.0679088,0.0680031,0.0801159,0.266027,0.0802368,-0.142443,-0.0262446,0.191442,0.209055,0.200021,-0.0297249,0.138255,-0.234824,-0.0717309,0.0066646,-0.132328,-0.177443,0.239188,-0.096835,0.00372959,0.195088,-0.230927,0.077538,-0.0132437,0.0542733,0.0138664,-0.193759,-0.230039,0.176893,-0.0326613,-0.0549485,-0.0272461,-0.224688,-0.0610641,-0.219152,-0.124131,-0.0149288,-0.217363,0.20832,-0.0801408,0.00282076,0.0813419,-0.0650554,0.180999,-0.177226,0.0525253,-0.261678,-0.203271,0.205599,-0.0080391,0.241726,0.224581,-0.195734,-0.0367506,0.0136212,0.0680412,0.0193994,0.0334909,-0.0202986,0.236647,0.228451,0.202364,-0.253274,-0.0978457,0.233122,-0.127496,-0.0317018,-0.0796118,-0.120715,0.157508,0.192559,0.229978,-0.153339,0.127767,-0.19304,0.168537,0.13544,-0.126961,0.128345,-0.118391,-0.131026,0.107134,-0.0447745,0.101573,-0.125036,-0.222525,-0.124819,0.177805,0.0265271,-0.133963,0.160465,-0.0169001,-0.117886,-0.183172,-0.0295699,0.0239682,0.235148,0.240776,0.182744,0.150968,0.191648,0.171033,-0.244059,0.077726,0.251447,0.197931,-0.0285226,-0.117203,0.0845875,0.12654,0.0252246,-0.0499667,-0.159923,-0.11489,0.0984508,-0.108994,0.0337448,0.0345678,0.190987,0.173235,-0.0466554,-0.0676014,-0.186339,0.0436262,0.176282,0.111083,0.149748,0.0901765,0.24518,0.0360613,0.0171693,0.151559,0.0424892,-0.169759,0.13835,-0.0242344,0.0522052,-0.243507,-0.204302,-0.0859094,0.0322048,-0.00378104,0.00465507,0.167802,-0.169985,0.146148,-0.0631082,0.11507,0.0724806,-0.154528,-0.19624,0.255366,-0.0903796,0.0978732,0.166994,-0.243952,0.0432597,0.0878842,0.129035,-0.188306,-0.162573,0.0129663,0.101698,-0.0848177,-0.11631,-0.190163,0.214903,-0.112302,-0.14695,-0.138634,0.167418,0.0967844,0.113536,0.0675926,0.174314,-0.0079422,0.251999,0.0217575,-0.203089,-0.170155,0.0730324,-0.215349,-0.0130198,-0.0967213,0.19916,-0.00945658,-0.0312955,-0.195287,0.16345,0.033769,-0.10449,-0.0853547,-0.126304,0.0640625,0.0517056,-0.0630968,0.0171936,0.192774,0.0433241,0.13193,0.0984202,-0.121663,-0.0163049,-0.0957587,-0.20912,0.229123,-0.105531,0.0660079,-0.235737,-0.0223155,-0.122731,-0.197715,0.218035,0.0339179,-0.260327,-0.0531928,-0.0225791,0.0205634,-0.00237073,-0.238638,0.181387,0.177588,-0.0996285,-0.00437841,-0.0205339,0.102589,-0.237013,-0.077588,-0.103915,0.160231,-0.228996,0.0397355,-0.105902,-0.0594405,0.0959293,-0.126606,0.100343,-0.0878908,-0.0970289,-0.171801,0.0546919,-0.0294304,-0.203594,-0.161218,-0.0244437,0.00852736,0.226071,-0.212957,-0.0600458,0.249017,0.230014,-0.136015,-0.104169,-0.0279218,0.105035,0.260004,-0.00335042,-0.22611,-0.097469,-0.0966767,-0.193522,0.203851,0.059006,0.00862183,0.0462224,0.193984,-0.144593,0.219916,-0.156603,-0.0548099,0.02105,0.0755512,0.00318061,0.121416,-0.20245,-0.24185,-0.424888,-0.367591,0.39909,0.440909,-0.442742,-0.253432,-0.206266,-0.0125155,0.39134,-0.203196,0.362207,0.0492838,-0.235216,-0.433438,-0.0423105,0.257954,0.0222759,-0.466808,0.10513,0.193134,0.284788,-0.956131,-0.217347,0.148629,-0.795786,0.534218,-0.835778,0.370925,0.746736,0.145596,0.929216,0.77896,
6,0.174832,0.100093,-0.12663,-0.0143799,0.0532962,0.20359,-0.160277,0.23237,0.142829,-0.13809,0.168695,-0.00812489,-0.205059,-0.0594506,0.230277,0.140329,-0.166763,0.0661252,0.0445265,0.210715,0.0939284,-0.00981839,-0.077588,-0.0795162,-0.0655298,0.0703159,0.0824228,0.268243,0.0825436,-0.140028,-0.0249886,0.192592,0.210197,0.201167,-0.0284672,0.139431,-0.233466,-0.0704527,0.00790464,-0.131021,-0.176114,0.240315,-0.0955445,0.00497106,0.196237,-0.229572,0.0787435,-0.011994,0.0554902,0.0151029,-0.192421,-0.228684,0.17805,-0.0314022,-0.0536784,-0.0259895,-0.223335,-0.0597911,-0.217802,-0.122827,-0.0168112,-0.219147,0.206328,-0.0819914,0.000929768,0.0794127,-0.0669133,0.179021,-0.17903,0.0506101,-0.26344,-0.205062,0.20361,-0.0099248,0.239719,0.222582,-0.197528,-0.0386224,0.0117249,0.0661185,0.0175003,0.0315849,-0.0221784,0.234642,0.22645,0.200376,-0.25504,-0.0996877,0.231118,-0.129323,-0.0343013,-0.082188,-0.123271,0.154816,0.189851,0.227251,-0.155879,0.12509,-0.195561,0.16584,0.132759,-0.129514,0.125667,-0.120948,-0.133578,0.104467,-0.0473677,0.0989091,-0.12759,-0.225031,-0.127373,0.175104,0.0238993,-0.136513,0.157772,-0.0195068,-0.120444,-0.185698,-0.0321704,0.0213416,0.236236,0.241861,0.183857,0.152097,0.192756,0.172152,-0.242738,0.0788903,0.252526,0.199037,-0.0273066,-0.115944,0.0857484,0.127681,0.0264144,-0.0487402,-0.158643,-0.113632,0.099605,-0.107739,0.0349304,0.035753,0.192096,0.174353,-0.0454306,-0.0663664,-0.185046,0.044807,0.177399,0.112231,0.151183,0.0916401,0.246568,0.0375513,0.0186685,0.152992,0.043976,-0.168169,0.139791,-0.0227151,0.0536873,-0.241881,-0.202695,-0.0843601,0.0336966,-0.0022717,0.00616031,0.169228,-0.168395,0.147585,-0.06157,0.116521,0.0739528,-0.152945,-0.194637,0.256749,-0.0888281,0.0993331,0.16842,-0.242326,0.0439202,0.088523,0.129653,-0.187533,-0.161813,0.0136416,0.10233,-0.0840948,-0.115572,-0.189389,0.21548,-0.111566,-0.146196,-0.137885,0.168018,0.0974188,0.114163,0.0682413,0.174911,-0.00725673,0.252558,0.0224285,-0.202308,-0.169391,0.0736784,-0.214563,-0.0123318,-0.0959926,0.199744,-0.00877037,-0.032653,-0.196565,0.161998,0.0323798,-0.105812,-0.0866858,-0.127615,0.0626586,0.0503077,-0.0644387,0.0158125,0.191307,0.0419303,0.130493,0.0969996,-0.122976,-0.0176696,-0.0970847,-0.210391,0.227639,-0.106852,0.064603,-0.236995,-0.0236773,-0.124044,-0.198992,0.216556,0.0325287,-0.261573,-0.0545396,-0.0234575,0.0196641,-0.0032589,-0.239411,0.180409,0.176613,-0.100469,-0.0052656,-0.0214133,0.101649,-0.237787,-0.0784395,-0.104754,0.159264,-0.229774,0.0388269,-0.106739,-0.0603009,0.0949933,-0.127434,0.0994044,-0.0887373,-0.097871,-0.172607,0.0537759,-0.0303054,-0.204384,-0.162029,-0.0253211,0.00763388,0.227138,-0.211676,-0.0588395,0.250073,0.231079,-0.134772,-0.102941,-0.0267312,0.106161,0.261054,-0.00217171,-0.224823,-0.0962445,-0.0954526,-0.192251,0.204929,0.0601543,0.00979471,0.047377,0.195067,-0.143346,0.220986,-0.155349,-0.0536062,0.0222168,0.0766915,0.00435614,0.122534,-0.201175,-0.240555,-0.424443,-0.367412,0.398203,0.443056,-0.445189,-0.24781,-0.206166,-0.00678024,0.402623,-0.201574,0.361793,0.0492598,-0.234408,-0.435588,-0.039627,0.252329,0.0222651,-0.47231,0.0936046,0.191517,0.275077,-0.961277,-0.209525,0.159451,-0.800761,0.527974,-0.8386,0.376603,0.750409,0.140723,0.941564,0.766612,
7,0.177031,0.102329,-0.124284,-0.0120885,0.0555547,0.205776,-0.157915,0.234541,0.145044,-0.135738,0.170897,-0.00583651,-0.202675,-0.0571372,0.232449,0.142545,-0.164397,0.0683774,0.0467892,0.212897,0.0961671,-0.00752919,-0.0752658,-0.0771931,-0.0632135,0.0725661,0.084667,0.270397,0.0847878,-0.137675,-0.0237656,0.193709,0.211305,0.20228,-0.0272425,0.140574,-0.232141,-0.0692076,0.00911161,-0.129746,-0.174817,0.241409,-0.0942872,0.00617945,0.197352,-0.228249,0.079916,-0.0107773,0.056674,0.0163064,-0.191117,-0.227362,0.179174,-0.0301761,-0.0524415,-0.024766,-0.222016,-0.0585511,-0.216485,-0.121557,-0.0186397,-0.220877,0.204391,-0.0837882,-0.000907384,0.0775373,-0.0687175,0.177097,-0.180779,0.0487488,-0.265148,-0.206799,0.201674,-0.0117567,0.237765,0.220637,-0.199269,-0.0404403,0.00988252,0.0642496,0.0156551,0.0297329,-0.0240043,0.232691,0.224504,0.198442,-0.256753,-0.101476,0.229169,-0.131097,-0.0368452,-0.0847085,-0.125771,0.15218,0.187198,0.224579,-0.158364,0.122468,-0.198027,0.163199,0.130134,-0.132012,0.123046,-0.12345,-0.136073,0.101856,-0.0499051,0.0963004,-0.130089,-0.227482,-0.129871,0.172458,0.0213271,-0.139007,0.155135,-0.0220578,-0.122946,-0.188168,-0.0347153,0.0187707,0.237307,0.24293,0.184954,0.153209,0.193849,0.173255,-0.241434,0.0800381,0.25359,0.200126,-0.0261071,-0.114701,0.0868929,0.128805,0.0275877,-0.0475303,-0.157379,-0.112391,0.100743,-0.1065,0.0360997,0.0369218,0.193189,0.175454,-0.0442222,-0.0651479,-0.18377,0.0459714,0.178498,0.113362,0.152547,0.093033,0.247886,0.0389706,0.020097,0.154355,0.0453922,-0.16665,0.14116,-0.0212664,0.0550988,-0.240325,-0.201158,-0.0828814,0.0351178,-0.000833001,0.0075949,0.170583,-0.166875,0.14895,-0.0601024,0.117902,0.0753544,-0.151433,-0.193105,0.258062,-0.0873473,0.100722,0.169776,-0.24077,0.0445626,0.0891437,0.130254,-0.186778,-0.16107,0.0142988,0.102944,-0.08339,-0.114852,-0.188633,0.216038,-0.110848,-0.145461,-0.137154,0.1686,0.0980352,0.114771,0.0688718,0.17549,-0.0065894,0.253099,0.0230814,-0.201546,-0.168644,0.0743063,-0.213794,-0.011662,-0.0952821,0.200311,-0.0081023,-0.0340068,-0.197839,0.16055,0.0309944,-0.10713,-0.0880133,-0.128923,0.0612585,0.0489136,-0.0657771,0.0144352,0.189845,0.0405402,0.12906,0.0955827,-0.124286,-0.0190307,-0.0984071,-0.211658,0.226159,-0.10817,0.0632019,-0.238249,-0.0250354,-0.125353,-0.200265,0.215081,0.0311432,-0.262815,-0.0558828,-0.0243776,0.018723,-0.00418884,-0.240226,0.17939,0.175595,-0.101352,-0.00619456,-0.0223344,0.100668,-0.238602,-0.0793328,-0.105635,0.158255,-0.230593,0.0378764,-0.107619,-0.0612031,0.0940155,-0.128303,0.0984245,-0.0896256,-0.0987549,-0.173454,0.0528182,-0.0312222,-0.205216,-0.162882,-0.0262403,0.00669865,0.228166,-0.210435,-0.0576726,0.25109,0.232105,-0.133568,-0.101753,-0.02558,0.107248,0.262066,-0.00103248,-0.223576,-0.0950594,-0.0942679,-0.191019,0.205967,0.0612632,0.0109281,0.0484921,0.19611,-0.142138,0.222016,-0.154135,-0.0524419,0.0233442,0.0777923,0.00549219,0.123612,-0.199938,-0.2393,-0.424384,-0.367233,0.397474,0.44526,-0.447654,-0.242658,-0.206065,-0.0012027,0.413481,-0.200183,0.361765,0.0492358,-0.233759,-0.437796,-0.0369256,0.247176,0.0222542,-0.477654,0.0825058,0.190131,0.265811,-0.966188,-0.202075,0.169835,-0.80557,0.522139,-0.841292,0.382154,0.75418,0.136105,0.953353,0.754823,
8,0.179172,0.104506,-0.121997,-0.00985592,0.0577543,0.207902,-0.155611,0.236654,0.1472,-0.133446,0.17304,-0.00360701,-0.20035,-0.0548827,0.234563,0.144702,-0.162091,0.0705708,0.0489931,0.21502,0.0983469,-0.00529886,-0.0730025,-0.0749288,-0.0609561,0.0747574,0.0868525,0.272492,0.0869732,-0.135381,-0.0225748,0.194794,0.212381,0.20336,-0.02605,0.141685,-0.230849,-0.0679947,0.0102864,-0.128504,-0.173553,0.242471,-0.0930621,0.00735565,0.198435,-0.226959,0.0810563,-0.00959287,0.0578256,0.0174776,-0.189845,-0.226072,0.180266,-0.0289822,-0.0512368,-0.0235748,-0.220728,-0.0573434,-0.2152,-0.120318,-0.0204168,-0.222556,0.202506,-0.0855335,-0.00269308,0.0757134,-0.0704701,0.175225,-0.182477,0.0469389,-0.266805,-0.208484,0.199789,-0.0135371,0.235863,0.218743,-0.200958,-0.0422067,0.00809157,0.0624321,0.0138613,0.0279323,-0.0257787,0.230792,0.222608,0.196559,-0.258414,-0.103213,0.227272,-0.132819,-0.0393347,-0.0871748,-0.128218,0.149599,0.184599,0.221963,-0.160794,0.119901,-0.200438,0.160612,0.127563,-0.134455,0.120478,-0.125897,-0.138514,0.0992985,-0.0523884,0.0937459,-0.132533,-0.229879,-0.132316,0.169866,0.0188092,-0.141447,0.152552,-0.0245546,-0.125393,-0.190584,-0.0372059,0.016254,0.238362,0.243982,0.186034,0.154305,0.194925,0.174341,-0.240146,0.0811697,0.254637,0.201199,-0.0249239,-0.113474,0.0880211,0.129912,0.0287448,-0.0463366,-0.156132,-0.111165,0.101864,-0.105278,0.0372526,0.0380744,0.194265,0.17654,-0.0430302,-0.0639457,-0.18251,0.0471196,0.179582,0.114477,0.153845,0.0943606,0.249138,0.0403245,0.02146,0.155653,0.0467429,-0.165196,0.142464,-0.0198832,0.0564448,-0.238836,-0.199688,-0.0814682,0.0364736,0.000540248,0.00896404,0.171873,-0.165421,0.150251,-0.0587003,0.119218,0.0766905,-0.149986,-0.191638,0.259309,-0.0859319,0.102046,0.171066,-0.23928,0.0451874,0.0897468,0.130837,-0.18604,-0.160345,0.0149383,0.103541,-0.082703,-0.114149,-0.187894,0.21658,-0.110147,-0.144744,-0.13644,0.169164,0.098634,0.115361,0.0694848,0.176051,-0.00593972,0.253622,0.0237166,-0.200801,-0.167916,0.0749166,-0.213044,-0.0110099,-0.0945892,0.20086,-0.00745189,-0.0353553,-0.199108,0.159106,0.0296143,-0.108443,-0.0893355,-0.130225,0.0598636,0.0475247,-0.0671101,0.0130631,0.188387,0.0391554,0.127632,0.0941711,-0.125591,-0.0203865,-0.0997243,-0.21292,0.224683,-0.109482,0.0618061,-0.239498,-0.0263883,-0.126657,-0.201532,0.213611,0.029763,-0.264052,-0.0572206,-0.0253343,0.0177452,-0.00515543,-0.241078,0.178334,0.174541,-0.102271,-0.00716017,-0.0232921,0.0996507,-0.239455,-0.0802628,-0.106552,0.157209,-0.23145,0.0368894,-0.108535,-0.0621419,0.0930011,-0.129209,0.0974079,-0.0905506,-0.0996754,-0.174338,0.0518239,-0.0321756,-0.206085,-0.163771,-0.0271962,0.00572676,0.229157,-0.209231,-0.0565428,0.252069,0.233094,-0.132401,-0.100601,-0.0244657,0.108297,0.26304,6.97865e-05,-0.222365,-0.0939114,-0.0931203,-0.189824,0.206968,0.0623351,0.0120246,0.0495703,0.197116,-0.140967,0.22301,-0.152959,-0.0513146,0.0244346,0.0788562,0.00659128,0.124654,-0.198739,-0.238081,-0.424675,-0.367055,0.396894,0.447506,-0.450134,-0.237939,-0.205965,0.00422089,0.423933,-0.199003,0.362086,0.0492119,-0.233258,-0.440046,-0.0342099,0.242455,0.0222434,-0.482845,0.0718121,0.188956,0.256957,-0.970877,-0.194973,0.179803,-0.810223,0.516677,-0.843862,0.387578,0.758024,0.131724,0.964614,0.743562,
9,0.181257,0.106627,-0.119765,-0.0076791,0.0598982,0.209973,-0.153363,0.238711,0.1493,-0.131209,0.175128,-0.00143324,-0.19808,-0.052684,0.236621,0.146804,-0.15984,0.0727084,0.0511412,0.217087,0.100471,-0.00312427,-0.0707949,-0.0727204,-0.0587544,0.076893,0.0889822,0.274531,0.0891029,-0.133143,-0.0214155,0.195848,0.213426,0.20441,-0.024889,0.142764,-0.229588,-0.0668133,0.0114297,-0.127293,-0.17232,0.243501,-0.0918685,0.00850039,0.199487,-0.2257,0.0821651,-0.00843987,0.0589458,0.0186175,-0.188604,-0.224813,0.181327,-0.0278197,-0.0500635,-0.022415,-0.219472,-0.0561672,-0.213947,-0.119111,-0.0221445,-0.224185,0.200669,-0.0872295,-0.00442939,0.0739389,-0.0721734,0.173402,-0.184126,0.0451784,-0.268413,-0.21012,0.197954,-0.0152681,0.234011,0.216899,-0.202598,-0.0439238,0.00635001,0.0606641,0.012117,0.026181,-0.0275038,0.228942,0.220762,0.194726,-0.260026,-0.1049,0.225423,-0.134492,-0.0417712,-0.0895879,-0.130611,0.14707,0.182054,0.219399,-0.163172,0.117387,-0.202796,0.158078,0.125045,-0.136845,0.117964,-0.128292,-0.140902,0.0967946,-0.0548184,0.0912447,-0.134924,-0.232223,-0.134707,0.167328,0.0163444,-0.143833,0.150022,-0.0269982,-0.127788,-0.192947,-0.0396434,0.0137905,0.239401,0.245018,0.187098,0.155384,0.195985,0.175411,-0.238874,0.0822849,0.255667,0.202256,-0.023757,-0.112264,0.089133,0.131004,0.0298856,-0.0451593,-0.154901,-0.109957,0.102969,-0.104072,0.0383892,0.0392106,0.195325,0.177608,-0.0418545,-0.0627598,-0.181267,0.0482514,0.180649,0.115576,0.155083,0.0956273,0.250329,0.0416175,0.0227622,0.15689,0.0480328,-0.163803,0.143708,-0.0185609,0.05773,-0.237407,-0.198278,-0.0801159,0.0377685,0.00185263,0.0102723,0.173101,-0.164028,0.15149,-0.0573591,0.120472,0.0779658,-0.148601,-0.190232,0.260496,-0.0845774,0.103309,0.172295,-0.237851,0.0457949,0.0903326,0.131403,-0.18532,-0.159637,0.0155605,0.10412,-0.0820332,-0.113464,-0.187173,0.217104,-0.109464,-0.144044,-0.135744,0.169711,0.0992155,0.115935,0.0700805,0.176595,-0.00530728,0.254128,0.0243346,-0.200074,-0.167204,0.0755097,-0.212311,-0.010375,-0.0939136,0.201392,-0.00681872,-0.0366969,-0.200369,0.15767,0.028241,-0.109749,-0.0906508,-0.131521,0.0584756,0.0461428,-0.0684362,0.0116979,0.186937,0.0377775,0.126211,0.0927665,-0.126888,-0.0217354,-0.101035,-0.214175,0.223215,-0.110788,0.0604172,-0.24074,-0.0277343,-0.127955,-0.202793,0.212149,0.0283897,-0.265283,-0.0585515,-0.026323,0.0167356,-0.00615388,-0.241962,0.177246,0.173455,-0.103222,-0.00815765,-0.0242817,0.0986012,-0.240339,-0.0812247,-0.107501,0.156132,-0.232338,0.0358704,-0.109483,-0.0631126,0.0919549,-0.130148,0.0963595,-0.0915075,-0.100628,-0.175254,0.0507977,-0.0331609,-0.206985,-0.164692,-0.0281839,0.00472301,0.230112,-0.208061,-0.0554478,0.253014,0.234048,-0.131269,-0.099485,-0.0233863,0.109312,0.263979,0.00113724,-0.221189,-0.0927982,-0.0920075,-0.188664,0.207935,0.0633723,0.0130862,0.0506136,0.198088,-0.139831,0.223969,-0.151817,-0.0502221,0.0254902,0.0798853,0.00765556,0.125661,-0.197575,-0.236898,-0.425281,-0.366876,0.39645,0.449785,-0.452625,-0.233617,-0.205865,0.00949449,0.434,-0.198016,0.362722,0.0491879,-0.232895,-0.442328,-0.0314835,0.23813,0.0222326,-0.487885,0.0615031,0.187973,0.248486,-0.975356,-0.188196,0.18938,-0.814726,0.511554,-0.846318,0.392875,0.761921,0.127559,0.975376,0.7328,
10,0.183288,0.108695,-0.117587,-0.00555538,0.061989,0.211991,-0.151169,0.240714,0.151348,-0.129025,0.177163,0.000687443,-0.195864,-0.0505384,0.238626,0.148852,-0.157642,0.074793,0.0532363,0.219102,0.102542,-0.00100276,-0.0686405,-0.070565,-0.0566058,0.0789756,0.0910589,0.276518,0.0911795,-0.130958,-0.020287,0.196871,0.21444,0.205428,-0.0237588,0.143813,-0.228359,-0.0656627,0.0125422,-0.126113,-0.171118,0.2445,-0.0907056,0.00961434,0.200508,-0.224472,0.0832432,-0.00731767,0.0600351,0.0197265,-0.187394,-0.223586,0.182357,-0.0266881,-0.048921,-0.021286,-0.218248,-0.0550217,-0.212725,-0.117935,-0.0238245,-0.225767,0.198881,-0.0888779,-0.00611809,0.0722121,-0.0738292,0.171627,-0.185727,0.0434656,-0.269973,-0.211709,0.196167,-0.0169515,0.232206,0.215103,-0.20419,-0.0455932,0.00465606,0.0589437,0.0104202,0.0244774,-0.0291812,0.227139,0.218964,0.19294,-0.26159,-0.10654,0.223623,-0.136118,-0.0441552,-0.0919487,-0.132952,0.144594,0.179561,0.216888,-0.165497,0.114926,-0.205101,0.155596,0.12258,-0.139183,0.115502,-0.130633,-0.143238,0.094343,-0.0571961,0.0887959,-0.137263,-0.234514,-0.137046,0.164842,0.0139321,-0.146168,0.147544,-0.0293894,-0.13013,-0.195257,-0.0420285,0.0113794,0.240423,0.246038,0.188146,0.156448,0.197028,0.176464,-0.237619,0.0833838,0.256682,0.203297,-0.0226065,-0.111071,0.0902286,0.132079,0.03101,-0.0439983,-0.153687,-0.108764,0.104058,-0.102882,0.0395095,0.0403305,0.196369,0.178661,-0.0406952,-0.0615902,-0.180039,0.0493669,0.1817,0.116659,0.156264,0.0968372,0.251464,0.0428537,0.0240076,0.15807,0.0492659,-0.162466,0.144894,-0.0172954,0.0589583,-0.236035,-0.196925,-0.0788204,0.0390066,0.00310822,0.0115238,0.174274,-0.162691,0.152673,-0.0560747,0.12167,0.0791843,-0.147272,-0.188883,0.261625,-0.0832798,0.104515,0.173468,-0.236478,0.0463856,0.0909016,0.131952,-0.184617,-0.158947,0.0161659,0.104682,-0.0813802,-0.112796,-0.186469,0.217611,-0.108798,-0.143361,-0.135065,0.170242,0.0997801,0.116491,0.0706593,0.177122,-0.00469173,0.254618,0.0249357,-0.199363,-0.16651,0.0760859,-0.211594,-0.00975694,-0.0932549,0.201906,-0.00620243,-0.03803,-0.201623,0.156242,0.0268763,-0.111047,-0.0919577,-0.132808,0.0570962,0.0447693,-0.0697539,0.0103412,0.185495,0.0364081,0.124799,0.0913703,-0.128178,-0.0230758,-0.102336,-0.215422,0.221756,-0.112085,0.0590368,-0.241974,-0.0290717,-0.129243,-0.204045,0.210694,0.0270248,-0.266505,-0.059874,-0.027339,0.0156987,-0.0071797,-0.242873,0.176131,0.172342,-0.104201,-0.0091825,-0.0252987,0.0975244,-0.241251,-0.082214,-0.108477,0.155027,-0.233254,0.0348242,-0.110459,-0.0641107,0.0908813,-0.131113,0.0952838,-0.0924918,-0.101608,-0.176198,0.0497441,-0.0341736,-0.207913,-0.165641,-0.029199,0.00369188,0.231035,-0.206925,-0.0543857,0.253926,0.234969,-0.13017,-0.0984015,-0.0223399,0.110294,0.264886,0.00217176,-0.220046,-0.0917179,-0.0909276,-0.187537,0.208869,0.0643765,0.0141149,0.051624,0.199026,-0.138728,0.224895,-0.150708,-0.0491626,0.0265129,0.0808815,0.00868691,0.126635,-0.196444,-0.235747,-0.426171,-0.366697,0.396135,0.452083,-0.455122,-0.229658,-0.205764,0.0146223,0.443703,-0.197202,0.363643,0.049164,-0.232659,-0.444631,-0.0287504,0.234169,0.0222218,-0.49278,0.0515594,0.187165,0.240368,-0.979637,-0.181721,0.198585,-0.819086,0.50674,-0.848665,0.398045,0.765855,0.123595,0.985669,0.722507,
11,0.185271,0.110714,-0.115458,-0.00348066,0.0640308,0.21396,-0.149023,0.242669,0.153346,-0.12689,0.179149,0.00275913,-0.193696,-0.0484417,0.240581,0.150852,-0.155493,0.0768286,0.0552824,0.221067,0.104564,0.00106974,-0.066535,-0.0684586,-0.0545062,0.0810092,0.0930865,0.278455,0.0932071,-0.128823,-0.0191877,0.197864,0.215425,0.206418,-0.0226578,0.144832,-0.227158,-0.0645413,0.0136255,-0.124962,-0.169945,0.245471,-0.0895721,0.010699,0.201499,-0.223273,0.0842921,-0.00622472,0.0610953,0.0208063,-0.186213,-0.222388,0.183357,-0.0255857,-0.0478078,-0.0201862,-0.217052,-0.0539056,-0.211532,-0.116788,-0.02546,-0.227304,0.197137,-0.0904817,-0.00776222,0.0705298,-0.0754403,0.169896,-0.187284,0.0417973,-0.271489,-0.213253,0.194425,-0.0185904,0.230446,0.213351,-0.205738,-0.0472182,0.00300669,0.0572679,0.00876803,0.0228184,-0.0308141,0.225382,0.21721,0.191199,-0.26311,-0.108135,0.221867,-0.137699,-0.0464896,-0.0942598,-0.135243,0.142168,0.177117,0.214426,-0.167772,0.112514,-0.207357,0.153165,0.120164,-0.141471,0.11309,-0.132926,-0.145524,0.0919412,-0.0595242,0.0863968,-0.139552,-0.236756,-0.139335,0.162406,0.0115694,-0.148452,0.145117,-0.031731,-0.132423,-0.197518,-0.0443639,0.00901798,0.24143,0.247042,0.189179,0.157495,0.198056,0.177502,-0.236379,0.0844672,0.257681,0.204322,-0.0214715,-0.109893,0.0913086,0.133139,0.0321189,-0.0428529,-0.152488,-0.107587,0.105131,-0.101708,0.0406142,0.0414348,0.197398,0.179698,-0.0395514,-0.0604363,-0.178828,0.0504668,0.182736,0.117726,0.157393,0.0979951,0.252546,0.0440378,0.025201,0.159198,0.0504469,-0.161182,0.146028,-0.016082,0.0601346,-0.234715,-0.195624,-0.077577,0.0401926,0.0043117,0.0127232,0.175394,-0.161407,0.153804,-0.0548424,0.122816,0.0803508,-0.145995,-0.187586,0.262703,-0.0820342,0.105669,0.174588,-0.235158,0.0469603,0.0914546,0.132485,-0.18393,-0.158272,0.0167553,0.105228,-0.0807434,-0.112144,-0.185781,0.218102,-0.108148,-0.142694,-0.134402,0.170756,0.100329,0.117032,0.0712222,0.177633,-0.00409222,0.255091,0.0255208,-0.198669,-0.165832,0.0766461,-0.210894,-0.00915496,-0.0926123,0.202405,-0.00560218,-0.0393543,-0.202868,0.154823,0.0255204,-0.112335,-0.0932557,-0.134086,0.0557255,0.0434047,-0.0710627,0.00899337,0.184061,0.0350476,0.123395,0.089983,-0.129458,-0.0244074,-0.103629,-0.21666,0.220305,-0.113373,0.0576652,-0.243199,-0.0304004,-0.130523,-0.205289,0.209249,0.0256689,-0.267718,-0.0611877,-0.0283791,0.0146376,-0.00822965,-0.243808,0.174992,0.171204,-0.105204,-0.0102315,-0.0263398,0.0964235,-0.242187,-0.0832274,-0.109478,0.153898,-0.234193,0.0337538,-0.111458,-0.0651329,0.0897836,-0.132103,0.094184,-0.0935002,-0.102612,-0.177165,0.0486664,-0.0352104,-0.208865,-0.166614,-0.0302382,0.00263665,0.231928,-0.205819,-0.053354,0.254807,0.23586,-0.129102,-0.0973484,-0.0213238,0.111245,0.265762,0.00317588,-0.218934,-0.0906681,-0.0898781,-0.186441,0.209772,0.0653503,0.0151132,0.0526041,0.199935,-0.137655,0.225791,-0.149629,-0.0481335,0.0275051,0.0818473,0.00968786,0.127578,-0.195343,-0.234628,-0.42732,-0.366519,0.395925,0.454394,-0.457625,-0.226035,-0.205664,0.0196086,0.453058,-0.196549,0.364822,0.04914,-0.232529,-0.446945,-0.0260117,0.230544,0.0222109,-0.497534,0.041963,0.186516,0.232581,-0.983732,-0.175531,0.207438,-0.823309,0.502208,-0.85091,0.403089,0.769808,0.119817,0.995516,0.71266,
12,0.187219,0.112698,-0.113363,-0.0014408,0.0660378,0.215894,-0.146912,0.244589,0.155309,-0.12479,0.1811,0.00479594,-0.191564,-0.04638,0.242502,0.152816,-0.153379,0.0788294,0.0572937,0.222997,0.106551,0.00310738,-0.0644645,-0.0663871,-0.0524415,0.0830079,0.0950794,0.280358,0.0951999,-0.126722,-0.0181108,0.198835,0.216388,0.207385,-0.0215793,0.145829,-0.22598,-0.0634423,0.0146864,-0.123833,-0.168795,0.246419,-0.0884609,0.0117614,0.202469,-0.222097,0.0853186,-0.00515413,0.0621331,0.0218637,-0.185055,-0.221212,0.184336,-0.0245057,-0.046717,-0.0191088,-0.215879,-0.0528118,-0.210361,-0.115664,-0.0270617,-0.228807,0.195427,-0.0920518,-0.00937253,0.0688814,-0.0770177,0.168199,-0.188807,0.0401629,-0.272971,-0.214763,0.192716,-0.0201954,0.22872,0.211633,-0.207252,-0.0488093,0.00139114,0.055626,0.00714968,0.0211932,-0.0324132,0.223658,0.21549,0.189492,-0.264596,-0.109696,0.220145,-0.139246,-0.0487887,-0.0965357,-0.137499,0.139777,0.174709,0.212,-0.170012,0.110137,-0.209578,0.150768,0.117784,-0.143724,0.110713,-0.135183,-0.147775,0.0895747,-0.0618169,0.084033,-0.141805,-0.238962,-0.141589,0.160005,0.00924206,-0.150702,0.142724,-0.0340373,-0.13468,-0.199743,-0.046664,0.00669186,0.242428,0.248037,0.190202,0.158534,0.199075,0.178531,-0.235149,0.0855416,0.258671,0.205338,-0.0203455,-0.108724,0.0923797,0.134189,0.0332188,-0.0417166,-0.151298,-0.106419,0.106196,-0.100543,0.04171,0.0425301,0.198417,0.180726,-0.0384166,-0.0592913,-0.177625,0.0515578,0.183762,0.118785,0.15848,0.099111,0.253587,0.04518,0.0263523,0.160284,0.051586,-0.15994,0.147121,-0.0149105,0.061269,-0.233437,-0.194365,-0.0763756,0.0413366,0.00547326,0.0138807,0.176472,-0.160165,0.154892,-0.053652,0.12392,0.0814753,-0.14476,-0.186331,0.263739,-0.0808306,0.106782,0.175667,-0.23388,0.0475226,0.0919953,0.133006,-0.183255,-0.15761,0.0173324,0.105762,-0.0801188,-0.111504,-0.185106,0.218581,-0.10751,-0.142039,-0.133752,0.171258,0.100865,0.11756,0.0717727,0.178131,-0.00350496,0.255552,0.0260937,-0.197987,-0.165166,0.077194,-0.210206,-0.00856524,-0.0919819,0.202892,-0.00501419,-0.0406764,-0.20411,0.153407,0.0241667,-0.113622,-0.0945515,-0.135362,0.0543572,0.0420423,-0.0723694,0.00764776,0.182631,0.0336893,0.121994,0.088598,-0.130736,-0.0257367,-0.10492,-0.217896,0.218856,-0.114659,0.0562959,-0.244422,-0.0317268,-0.131801,-0.20653,0.207806,0.0243151,-0.268929,-0.0624991,-0.0294459,0.0135498,-0.00930629,-0.24477,0.173826,0.17004,-0.106233,-0.0113071,-0.0274077,0.0952959,-0.24315,-0.0842675,-0.110505,0.152742,-0.23516,0.0326567,-0.112485,-0.0661819,0.0886593,-0.133119,0.0930575,-0.0945353,-0.103642,-0.17816,0.0475621,-0.0362739,-0.209844,-0.167613,-0.0313041,0.00155472,0.232798,-0.204736,-0.0523455,0.255666,0.236727,-0.128056,-0.0963184,-0.0203309,0.112174,0.266615,0.00415691,-0.217845,-0.0896414,-0.0888518,-0.185367,0.210653,0.0663011,0.0160884,0.053561,0.20082,-0.136605,0.226663,-0.148574,-0.0471275,0.0284743,0.08279,0.0106657,0.128499,-0.194265,-0.233531,-0.428727,-0.36634,0.395732,0.45671,-0.460147,-0.222736,-0.205564,0.0244578,0.462084,-0.196047,0.366259,0.0491161,-0.232415,-0.449264,-0.0232543,0.227242,0.0222001,-0.50215,0.0326961,0.186019,0.225112,-0.987644,-0.169616,0.215944,-0.827395,0.497942,-0.853054,0.408001,0.773763,0.116216,1.00493,0.703246,
13,0.189135,0.11465,-0.111301,0.000566983,0.0680127,0.217795,-0.144834,0.246477,0.157241,-0.122722,0.183019,0.00680069,-0.189464,-0.0443503,0.244391,0.154749,-0.151297,0.0807981,0.0592729,0.224896,0.108507,0.00511295,-0.062426,-0.0643477,-0.0504089,0.0849746,0.0970402,0.282228,0.0971606,-0.124653,-0.0170553,0.199785,0.217329,0.208331,-0.0205221,0.146805,-0.224823,-0.0623647,0.015726,-0.122726,-0.167666,0.247345,-0.0873712,0.0128024,0.203417,-0.220942,0.0863237,-0.00410494,0.0631495,0.0228997,-0.183918,-0.220057,0.185293,-0.0234471,-0.0456475,-0.0180528,-0.214727,-0.0517394,-0.209212,-0.114561,-0.0286311,-0.230278,0.193749,-0.0935895,-0.0109505,0.0672653,-0.0785627,0.166535,-0.190298,0.0385608,-0.27442,-0.216241,0.19104,-0.0217681,0.227026,0.209947,-0.208733,-0.050368,-0.000192079,0.0540163,0.00556366,0.0196004,-0.03398,0.221966,0.213803,0.187817,-0.266049,-0.111226,0.218455,-0.14076,-0.0510541,-0.0987778,-0.139721,0.13742,0.172335,0.209608,-0.172218,0.107794,-0.211765,0.148406,0.115437,-0.145943,0.10837,-0.137406,-0.149992,0.087242,-0.064076,0.081703,-0.144025,-0.241135,-0.143809,0.157638,0.00694844,-0.152918,0.140366,-0.0363099,-0.136903,-0.201935,-0.0489304,0.00439948,0.243418,0.249024,0.191217,0.159565,0.200086,0.179552,-0.233927,0.0866075,0.259653,0.206345,-0.019228,-0.107563,0.0934423,0.135232,0.0343102,-0.0405887,-0.150117,-0.10526,0.107252,-0.0993863,0.0427973,0.043617,0.199428,0.181745,-0.0372903,-0.0581549,-0.176431,0.0526402,0.184781,0.119834,0.159528,0.100188,0.254589,0.0462837,0.0274651,0.161332,0.0526865,-0.158737,0.148175,-0.0137776,0.0623648,-0.232198,-0.193145,-0.0752128,0.0424421,0.00659622,0.0149995,0.177512,-0.158961,0.155943,-0.0525002,0.124985,0.0825613,-0.143564,-0.185114,0.264736,-0.0796656,0.107855,0.176707,-0.232641,0.0480733,0.0925244,0.133515,-0.182592,-0.156959,0.0178978,0.106285,-0.079506,-0.110876,-0.184442,0.219049,-0.106884,-0.141396,-0.133113,0.171749,0.10139,0.118077,0.0723116,0.178618,-0.00292943,0.256001,0.0266548,-0.197317,-0.164512,0.0777303,-0.20953,-0.00798725,-0.0913633,0.203367,-0.00443793,-0.0419957,-0.20535,0.151993,0.0228158,-0.114906,-0.0958446,-0.136635,0.0529916,0.0406827,-0.0736733,0.00630489,0.181203,0.0323337,0.120595,0.0872157,-0.132012,-0.0270633,-0.106208,-0.219129,0.217411,-0.115942,0.0549293,-0.245642,-0.0330505,-0.133076,-0.207768,0.206366,0.0229641,-0.270137,-0.0638079,-0.0305369,0.0124379,-0.0104071,-0.245756,0.172636,0.168852,-0.107287,-0.0124069,-0.0284996,0.0941442,-0.244137,-0.0853318,-0.111557,0.151563,-0.236151,0.0315355,-0.113535,-0.0672549,0.0875108,-0.134159,0.0919068,-0.0955946,-0.104697,-0.179178,0.0464336,-0.0373616,-0.210848,-0.168637,-0.0323942,0.000448647,0.233646,-0.203675,-0.0513583,0.256503,0.237574,-0.127032,-0.0953098,-0.0193593,0.113081,0.267447,0.00511657,-0.216777,-0.088636,-0.0878469,-0.184315,0.211512,0.0672305,0.0170423,0.0544967,0.201684,-0.135577,0.227515,-0.14754,-0.0461428,0.0294221,0.0837114,0.0116222,0.129398,-0.193209,-0.232455,-0.430372,-0.366162,0.395539,0.459023,-0.462687,-0.219737,-0.205464,0.0291746,0.470797,-0.195685,0.367935,0.0490922,-0.232302,-0.451581,-0.020479,0.224241,0.0221893,-0.506634,0.0237421,0.185662,0.217941,-0.991384,-0.163961,0.224122,-0.831352,0.493918,-0.855105,0.412783,0.777708,0.112779,1.01393,0.694242,
14,0.191019,0.116571,-0.109271,0.00254283,0.0699558,0.219666,-0.142787,0.248333,0.15914,-0.120686,0.184906,0.0087735,-0.187395,-0.0423526,0.246249,0.15665,-0.149248,0.0827349,0.0612201,0.226763,0.11043,0.00708659,-0.0604195,-0.0623402,-0.0484082,0.0869093,0.0989691,0.284067,0.0990894,-0.122616,-0.0160215,0.200713,0.218249,0.209255,-0.0194866,0.147759,-0.223688,-0.0613089,0.0167438,-0.121641,-0.166559,0.248251,-0.0863031,0.0138216,0.204343,-0.219809,0.0873072,-0.00307746,0.0641443,0.0239141,-0.182803,-0.218925,0.186228,-0.0224102,-0.0445998,-0.0170186,-0.213597,-0.0506887,-0.208085,-0.11348,-0.0301676,-0.231717,0.192104,-0.0950944,-0.0124956,0.0656821,-0.0800749,0.164903,-0.191755,0.0369915,-0.275837,-0.217686,0.189396,-0.023308,0.225365,0.208295,-0.210182,-0.051894,-0.00174245,0.0524396,0.00401049,0.0180403,-0.0355139,0.220308,0.212148,0.186175,-0.26747,-0.112722,0.216798,-0.142242,-0.0532845,-0.100985,-0.141908,0.135098,0.169996,0.207251,-0.17439,0.105487,-0.213917,0.146078,0.113126,-0.148127,0.106062,-0.139594,-0.152175,0.0849443,-0.0663,0.0794079,-0.146211,-0.243273,-0.145994,0.155306,0.00468981,-0.155098,0.138042,-0.0385474,-0.139092,-0.204092,-0.0511618,0.0021421,0.244398,0.250001,0.192223,0.160586,0.201087,0.180563,-0.232714,0.0876642,0.260625,0.207344,-0.0181198,-0.106412,0.0944956,0.136265,0.0353923,-0.0394701,-0.148945,-0.10411,0.108298,-0.0982391,0.0438752,0.0446946,0.20043,0.182756,-0.0361733,-0.0570277,-0.175246,0.0537134,0.185789,0.120875,0.16054,0.101229,0.255554,0.0473504,0.028541,0.162342,0.0537501,-0.15757,0.149192,-0.0126816,0.0634237,-0.230995,-0.191961,-0.0740869,0.0435107,0.00768226,0.0160815,0.178515,-0.157795,0.156956,-0.0513854,0.126014,0.0836103,-0.142405,-0.183935,0.265696,-0.0785376,0.108892,0.17771,-0.231438,0.0486121,0.0930415,0.134012,-0.181941,-0.156321,0.0184513,0.106795,-0.0789051,-0.11026,-0.18379,0.219504,-0.106269,-0.140765,-0.132486,0.172227,0.101903,0.118581,0.0728386,0.179094,-0.00236581,0.256439,0.027204,-0.196659,-0.163869,0.0782546,-0.208866,-0.00742117,-0.0907566,0.20383,-0.00387357,-0.0433103,-0.206585,0.150584,0.0214696,-0.116185,-0.097133,-0.137903,0.0516307,0.0393278,-0.0749725,0.00496677,0.179779,0.030983,0.119202,0.0858382,-0.133283,-0.0283852,-0.107492,-0.220357,0.21597,-0.117221,0.0535675,-0.246857,-0.0343695,-0.134346,-0.209002,0.20493,0.0216179,-0.27134,-0.0651118,-0.0316483,0.0113055,-0.0115283,-0.246762,0.171426,0.167644,-0.108361,-0.0135272,-0.0296121,0.092972,-0.245144,-0.0864166,-0.112629,0.150363,-0.237162,0.0303938,-0.114606,-0.0683485,0.0863419,-0.13522,0.0907358,-0.0966744,-0.105773,-0.180217,0.0452847,-0.0384697,-0.211871,-0.169681,-0.0335047,-0.000677879,0.234474,-0.202635,-0.0503921,0.257319,0.238399,-0.126029,-0.0943222,-0.0184087,0.113967,0.268258,0.00605529,-0.21573,-0.0876517,-0.0868629,-0.183284,0.21235,0.068139,0.0179752,0.0554113,0.202527,-0.13457,0.228345,-0.146527,-0.0451792,0.030349,0.0846118,0.0125578,0.130276,-0.192174,-0.231401,-0.432231,-0.365984,0.395347,0.461329,-0.465241,-0.217014,-0.205364,0.0337635,0.479213,-0.195451,0.369825,0.0490683,-0.232189,-0.45389,-0.0176899,0.221516,0.0221785,-0.510991,0.0150851,0.185434,0.211045,-0.994963,-0.15855,0.231992,-0.835185,0.490115,-0.857067,0.41744,0.781634,0.109494,1.02256,0.685621,
15,0.192871,0.118459,-0.107272,0.00448678,0.0718669,0.221504,-0.140772,0.250158,0.161008,-0.118682,0.186761,0.0107144,-0.185359,-0.0403868,0.248074,0.158519,-0.14723,0.0846398,0.0631355,0.228597,0.112321,0.00902833,-0.0584449,-0.0603647,-0.0464395,0.0888122,0.100866,0.285874,0.100986,-0.120611,-0.0150097,0.20162,0.219147,0.210157,-0.0184731,0.148691,-0.222575,-0.0602751,0.0177396,-0.120578,-0.165474,0.249134,-0.0852571,0.0148188,0.205248,-0.218698,0.0882686,-0.00207199,0.065117,0.0249064,-0.18171,-0.217814,0.187141,-0.0213953,-0.0435741,-0.0160063,-0.212489,-0.04966,-0.20698,-0.112421,-0.0316709,-0.233122,0.190493,-0.096566,-0.0140075,0.0641321,-0.0815539,0.163305,-0.19318,0.0354556,-0.277221,-0.219098,0.187786,-0.0248146,0.223737,0.206675,-0.211598,-0.0533867,-0.00325956,0.0508961,0.00249058,0.0165136,-0.0370146,0.218683,0.210527,0.184567,-0.268858,-0.114185,0.215174,-0.143691,-0.0554787,-0.103156,-0.144059,0.132812,0.167693,0.204929,-0.176525,0.103215,-0.216033,0.143787,0.110851,-0.150275,0.10379,-0.141747,-0.154321,0.0826827,-0.0684879,0.0771491,-0.14836,-0.245375,-0.148143,0.153011,0.00246736,-0.157243,0.135755,-0.0407488,-0.141245,-0.206213,-0.0533571,-7.9113e-05,0.245368,0.250969,0.193219,0.161597,0.202079,0.181565,-0.231511,0.0887108,0.261587,0.208332,-0.0170217,-0.105271,0.0955389,0.137288,0.0364643,-0.0383616,-0.147783,-0.10297,0.109335,-0.097102,0.0449432,0.0457621,0.201421,0.183756,-0.0350664,-0.0559107,-0.174072,0.0547766,0.186788,0.121905,0.161516,0.102234,0.256484,0.0483817,0.0295815,0.163318,0.0547784,-0.156439,0.150174,-0.0116211,0.0644472,-0.229828,-0.190813,-0.0729964,0.0445439,0.00873291,0.017128,0.179482,-0.156664,0.157934,-0.050306,0.127007,0.084624,-0.141281,-0.182791,0.266621,-0.077445,0.109893,0.178678,-0.230271,0.0491389,0.0935466,0.134497,-0.181302,-0.155694,0.0189927,0.107294,-0.0783163,-0.109656,-0.18315,0.219948,-0.105667,-0.140146,-0.131871,0.172694,0.102404,0.119074,0.0733535,0.179557,-0.00181425,0.256864,0.0277412,-0.196013,-0.163239,0.0787669,-0.208214,-0.00686715,-0.090162,0.204282,-0.00332128,-0.0446183,-0.207813,0.149182,0.0201302,-0.117457,-0.0984148,-0.139165,0.0502765,0.0379797,-0.076265,0.00363533,0.178363,0.0296388,0.117815,0.0844673,-0.134547,-0.0297004,-0.108768,-0.221579,0.214535,-0.118493,0.0522124,-0.248066,-0.0356818,-0.13561,-0.21023,0.203501,0.0202784,-0.272537,-0.0664092,-0.0327767,0.0101562,-0.0126665,-0.247786,0.170199,0.166418,-0.109452,-0.0146644,-0.0307415,0.0917829,-0.246169,-0.0875183,-0.113718,0.149146,-0.238191,0.0292352,-0.115694,-0.0694591,0.085156,-0.136298,0.0895478,-0.0977711,-0.106865,-0.181274,0.0441188,-0.0395948,-0.212912,-0.170742,-0.0346322,-0.00182137,0.235281,-0.201615,-0.0494465,0.258115,0.239204,-0.125047,-0.0933552,-0.0174786,0.114833,0.269048,0.00697344,-0.214704,-0.0866879,-0.0858995,-0.182274,0.213168,0.0690269,0.0188875,0.0563054,0.203349,-0.133583,0.229155,-0.145534,-0.0442361,0.0312553,0.0854917,0.0134727,0.131134,-0.191159,-0.230367,-0.434283,-0.365806,0.395154,0.463622,-0.467805,-0.214543,-0.205264,0.038229,0.487347,-0.195335,0.371907,0.0490444,-0.232076,-0.456187,-0.0148912,0.219043,0.0221677,-0.515224,0.00671036,0.185322,0.204405,-0.998391,-0.153367,0.239571,-0.838903,0.486513,-0.858946,0.421975,0.785535,0.106349,1.03082,0.67736,
16,0.194692,0.120316,-0.105306,0.00639883,0.0737461,0.22331,-0.13879,0.25195,0.162844,-0.11671,0.188584,0.0126234,-0.183354,-0.0384529,0.249867,0.160356,-0.145244,0.0865128,0.065019,0.2304,0.114181,0.0109382,-0.0565022,-0.0584211,-0.0445026,0.0906832,0.102731,0.287649,0.102851,-0.118638,-0.0140202,0.202504,0.220022,0.211037,-0.0174819,0.149601,-0.221485,-0.0592635,0.0187132,-0.119537,-0.164411,0.249995,-0.0842334,0.0157939,0.20613,-0.217609,0.0892079,-0.00108873,0.0660676,0.0258765,-0.180639,-0.216726,0.188032,-0.0204026,-0.0425707,-0.0150163,-0.211403,-0.0486536,-0.205897,-0.111384,-0.0331406,-0.234493,0.188915,-0.0980041,-0.0154858,0.0626158,-0.0829993,0.16174,-0.194571,0.0339532,-0.278571,-0.220477,0.186209,-0.0262876,0.222143,0.205089,-0.21298,-0.0548458,-0.00474307,0.0493862,0.00100426,0.0150205,-0.0384816,0.217091,0.208939,0.182992,-0.270212,-0.115614,0.213585,-0.145106,-0.0576357,-0.10529,-0.146173,0.130563,0.165427,0.202646,-0.178623,0.100981,-0.218112,0.141533,0.108613,-0.152386,0.101556,-0.143862,-0.15643,0.0804585,-0.0706386,0.0749275,-0.150471,-0.247439,-0.150255,0.150752,0.000282152,-0.159351,0.133505,-0.042913,-0.14336,-0.208297,-0.0555151,-0.00226308,0.246328,0.251926,0.194203,0.162597,0.203059,0.182555,-0.23032,0.0897465,0.262539,0.209309,-0.0159345,-0.104141,0.0965713,0.1383,0.0375255,-0.037264,-0.146633,-0.101841,0.110361,-0.0959758,0.0460002,0.0468188,0.202402,0.184746,-0.0339704,-0.0548046,-0.172908,0.0558288,0.187776,0.122925,0.162459,0.103205,0.25738,0.0493791,0.0305881,0.164259,0.0557726,-0.155342,0.151122,-0.0105945,0.0654368,-0.228695,-0.1897,-0.07194,0.0455432,0.0097496,0.0181406,0.180416,-0.155566,0.158878,-0.0492606,0.127966,0.0856038,-0.140192,-0.181681,0.267512,-0.0763863,0.110861,0.179612,-0.229138,0.0496534,0.0940396,0.13497,-0.180675,-0.15508,0.0195219,0.10778,-0.0777396,-0.109064,-0.182522,0.220379,-0.105077,-0.13954,-0.131268,0.173148,0.102892,0.119555,0.0738563,0.180008,-0.00127488,0.257278,0.0282662,-0.195379,-0.162621,0.0792671,-0.207574,-0.00632531,-0.0895797,0.204721,-0.00278117,-0.0459177,-0.209033,0.147788,0.0187992,-0.118721,-0.099688,-0.140419,0.0489309,0.03664,-0.0775491,0.00231236,0.176955,0.0283032,0.116436,0.083105,-0.135802,-0.0310071,-0.110036,-0.222792,0.21311,-0.119756,0.0508658,-0.249267,-0.0369856,-0.136865,-0.211448,0.202081,0.0189473,-0.273726,-0.067698,-0.0339188,0.00899322,-0.0138184,-0.248824,0.168958,0.165179,-0.110557,-0.0158153,-0.0318845,0.0905802,-0.247207,-0.0886338,-0.11482,0.147915,-0.239233,0.0280629,-0.116796,-0.0705833,0.0839565,-0.13739,0.0883462,-0.0988816,-0.107971,-0.182343,0.0429393,-0.0407335,-0.213966,-0.171817,-0.0357734,-0.00297853,0.236067,-0.200615,-0.0485211,0.258891,0.239989,-0.124084,-0.0924084,-0.0165688,0.115678,0.269819,0.00787136,-0.213698,-0.0857444,-0.0849563,-0.181284,0.213966,0.0698946,0.0197797,0.0571794,0.204151,-0.132617,0.229945,-0.144562,-0.0433132,0.0321414,0.0863514,0.0143675,0.131971,-0.190165,-0.229354,-0.436507,-0.365627,0.394962,0.465899,-0.470374,-0.212304,-0.205164,0.0425754,0.495213,-0.195325,0.374161,0.0490205,-0.231963,-0.458468,-0.0120868,0.216801,0.0221569,-0.519338,-0.00139607,0.185317,0.198001,-1.00168,-0.148398,0.246877,-0.842512,0.483096,-0.860748,0.426394,0.789405,0.103334,1.03874,0.669436,
17,0.19648,0.12214,-0.103371,0.00827895,0.0755935,0.225085,-0.136839,0.253711,0.164648,-0.11477,0.190375,0.0145005,-0.181382,-0.036551,0.251629,0.162161,-0.14329,0.0883539,0.0668706,0.232171,0.116009,0.0128161,-0.0545914,-0.0565094,-0.0425977,0.0925222,0.104564,0.289392,0.104685,-0.116697,-0.013053,0.203365,0.220876,0.211894,-0.016513,0.150488,-0.220417,-0.0582743,0.0196645,-0.118518,-0.163371,0.250833,-0.083232,0.0167465,0.20699,-0.216543,0.0901248,-0.000127847,0.0669957,0.0268243,-0.179591,-0.21566,0.188901,-0.0194323,-0.0415896,-0.0140486,-0.21034,-0.0476696,-0.204836,-0.110369,-0.0345764,-0.235831,0.187371,-0.0994084,-0.0169303,0.0611333,-0.0844109,0.160209,-0.195928,0.0324847,-0.279887,-0.221821,0.184667,-0.0277268,0.220583,0.203538,-0.214328,-0.0562711,-0.00619277,0.0479102,-0.000448231,0.0135611,-0.0399149,0.215533,0.207386,0.181451,-0.271533,-0.11701,0.212029,-0.146488,-0.0597545,-0.107385,-0.148249,0.128353,0.1632,0.2004,-0.180683,0.0987848,-0.220153,0.139317,0.106413,-0.154459,0.0993594,-0.145938,-0.1585,0.0782724,-0.072751,0.0727442,-0.152545,-0.249466,-0.152329,0.148532,-0.00186487,-0.16142,0.131293,-0.045039,-0.145437,-0.210342,-0.057635,-0.00440887,0.247276,0.252871,0.195177,0.163586,0.204028,0.183534,-0.22914,0.0907706,0.263479,0.210275,-0.0148589,-0.103022,0.0975921,0.1393,0.0385751,-0.036178,-0.145493,-0.100723,0.111375,-0.0948612,0.0470457,0.0478638,0.203372,0.185723,-0.032886,-0.05371,-0.171756,0.0568695,0.188753,0.123933,0.163368,0.104144,0.258244,0.0503439,0.031562,0.165168,0.0567343,-0.154277,0.152037,-0.00960049,0.0663937,-0.227595,-0.188618,-0.0709161,0.0465098,0.0107337,0.0191206,0.181317,-0.154502,0.159789,-0.0482478,0.128892,0.0865509,-0.139134,-0.180604,0.268371,-0.0753603,0.111796,0.180513,-0.228038,0.0501557,0.0945203,0.135431,-0.18006,-0.154478,0.0200389,0.108254,-0.0771753,-0.108484,-0.181907,0.220798,-0.1045,-0.138945,-0.130678,0.17359,0.103369,0.120023,0.0743469,0.180447,-0.000747765,0.257679,0.0287789,-0.194757,-0.162015,0.079755,-0.206946,-0.00579574,-0.0890095,0.205147,-0.00225332,-0.0472071,-0.210243,0.146404,0.0174783,-0.119975,-0.100951,-0.141662,0.0475953,0.0353104,-0.078823,0.000999527,0.175557,0.0269777,0.115068,0.0817529,-0.137048,-0.0323037,-0.111295,-0.223995,0.211694,-0.12101,0.0495293,-0.250457,-0.0382793,-0.13811,-0.212657,0.200671,0.0176264,-0.274904,-0.0689768,-0.0350715,0.00781968,-0.0149808,-0.249872,0.167706,0.16393,-0.111672,-0.0169768,-0.0330382,0.0893669,-0.248256,-0.0897598,-0.115934,0.146674,-0.240285,0.0268801,-0.117908,-0.0717181,0.0827465,-0.138492,0.087134,-0.100003,-0.109087,-0.183424,0.0417493,-0.0418829,-0.215031,-0.172903,-0.0369252,-0.00414624,0.236834,-0.199636,-0.0476156,0.259647,0.240754,-0.123142,-0.0914816,-0.0156788,0.116504,0.270569,0.00874939,-0.212713,-0.0848208,-0.0840331,-0.180314,0.214743,0.0707424,0.0206519,0.0580334,0.204934,-0.13167,0.230715,-0.14361,-0.0424103,0.0330077,0.0871912,0.0152424,0.132789,-0.18919,-0.22836,-0.438883,-0.365449,0.39477,0.468157,-0.472945,-0.210276,-0.205064,0.046807,0.502824,-0.195412,0.376567,0.0489966,-0.23185,-0.46073,-0.00928066,0.214771,0.0221461,-0.523338,-0.00924716,0.185409,0.191817,-1.00483,-0.14363,0.253926,-0.846018,0.479848,-0.862477,0.430699,0.793241,0.100438,1.04635,0.661829,
18,0.198237,0.123933,-0.101469,0.0101271,0.0774088,0.226827,-0.13492,0.255439,0.16642,-0.112862,0.192135,0.0163456,-0.179441,-0.034681,0.253359,0.163934,-0.141368,0.090163,0.0686902,0.23391,0.117804,0.014662,-0.0527127,-0.0546297,-0.0407248,0.0943293,0.106366,0.291103,0.106486,-0.114788,-0.0121083,0.204205,0.221706,0.212729,-0.0155666,0.151353,-0.219371,-0.0573075,0.0205932,-0.117522,-0.162353,0.251649,-0.0822531,0.0176768,0.207828,-0.215499,0.0910193,0.000810577,0.0679015,0.0277496,-0.178565,-0.214617,0.189747,-0.0184845,-0.040631,-0.0131034,-0.209299,-0.046708,-0.203798,-0.109377,-0.0359784,-0.237135,0.185861,-0.100779,-0.0183408,0.0596848,-0.0857885,0.158713,-0.197252,0.0310501,-0.28117,-0.223132,0.183158,-0.0291321,0.219057,0.20202,-0.215643,-0.0576624,-0.0076085,0.0464681,-0.00186676,0.0121358,-0.0413142,0.21401,0.205866,0.179943,-0.272819,-0.118372,0.210507,-0.147835,-0.0618343,-0.109442,-0.150286,0.126181,0.161012,0.198194,-0.182704,0.0966278,-0.222155,0.137141,0.104252,-0.156492,0.0972021,-0.147976,-0.160532,0.0761254,-0.0748246,0.0705998,-0.15458,-0.251453,-0.154363,0.14635,-0.00397289,-0.16345,0.12912,-0.047126,-0.147475,-0.212349,-0.0597159,-0.00651565,0.248211,0.253804,0.196138,0.164562,0.204985,0.184501,-0.227972,0.0917825,0.264407,0.211229,-0.0137956,-0.101916,0.0986007,0.140288,0.0396124,-0.0351043,-0.144366,-0.0996182,0.112377,-0.093759,0.0480788,0.0488966,0.204329,0.186689,-0.031814,-0.0526278,-0.170616,0.0578979,0.189717,0.124929,0.164247,0.105051,0.259076,0.0512773,0.0325045,0.166046,0.0576646,-0.153244,0.152921,-0.00863791,0.0673193,-0.226527,-0.187569,-0.0699237,0.0474451,0.0116864,0.0200692,0.182186,-0.153469,0.16067,-0.0472664,0.129787,0.0874667,-0.138109,-0.179558,0.269198,-0.0743657,0.112699,0.181384,-0.226969,0.0506458,0.0949887,0.135879,-0.179458,-0.153888,0.0205436,0.108716,-0.0766233,-0.107917,-0.181304,0.221205,-0.103934,-0.138363,-0.1301,0.17402,0.103833,0.120479,0.0748251,0.180873,-0.000232967,0.258068,0.0292793,-0.194148,-0.161422,0.0802306,-0.206331,-0.00527848,-0.0884518,0.205562,-0.00173779,-0.0484848,-0.211442,0.145032,0.0161691,-0.121217,-0.102203,-0.142894,0.0462715,0.0339926,-0.0800853,-0.000301626,0.174171,0.0256639,0.113711,0.0804124,-0.138282,-0.0335887,-0.112541,-0.225187,0.210291,-0.122251,0.0482046,-0.251636,-0.0395613,-0.139343,-0.213854,0.199272,0.0163171,-0.276071,-0.0702439,-0.0362318,0.00663849,-0.0161509,-0.250927,0.166447,0.162673,-0.112795,-0.0181459,-0.0341995,0.088146,-0.249312,-0.0908935,-0.117055,0.145425,-0.241346,0.0256896,-0.119028,-0.0728605,0.0815288,-0.139602,0.0859142,-0.101131,-0.110212,-0.184512,0.0405515,-0.0430398,-0.216104,-0.173996,-0.0380846,-0.00532161,0.237582,-0.198676,-0.0467297,0.260383,0.2415,-0.122219,-0.0905743,-0.0148085,0.11731,0.2713,0.00960783,-0.211746,-0.0839168,-0.0831295,-0.179363,0.215501,0.0715707,0.0215045,0.0588678,0.205697,-0.130744,0.231465,-0.142677,-0.0415269,0.0338543,0.0880115,0.0160976,0.133587,-0.188235,-0.227386,-0.441394,-0.365271,0.394578,0.470393,-0.475514,-0.208441,-0.204964,0.0509278,0.510192,-0.195587,0.379108,0.0489728,-0.231737,-0.462969,-0.00647665,0.212935,0.0221353,-0.527226,-0.0168551,0.185589,0.185839,-1.00786,-0.13905,0.260732,-0.849426,0.476755,-0.864137,0.434896,0.797038,0.0976527,1.05366,0.654518,
19,0.199961,0.125694,-0.0995984,0.0119431,0.0791921,0.228538,-0.133033,0.257136,0.16816,-0.110986,0.193862,0.0181587,-0.177533,-0.0328431,0.255056,0.165675,-0.139478,0.0919401,0.0704777,0.235618,0.119568,0.0164758,-0.050866,-0.0527821,-0.038884,0.0961044,0.108135,0.292782,0.108255,-0.112912,-0.0111861,0.205022,0.222515,0.213542,-0.0146427,0.152196,-0.218348,-0.0563633,0.0214995,-0.116549,-0.161357,0.252443,-0.0812968,0.0185845,0.208643,-0.214478,0.0918913,0.00172651,0.0687848,0.0286524,-0.177562,-0.213596,0.190571,-0.0175592,-0.0396949,-0.0121807,-0.208281,-0.0457689,-0.202782,-0.108407,-0.0373463,-0.238405,0.184385,-0.102115,-0.0197173,0.0582703,-0.0871322,0.15725,-0.198541,0.0296495,-0.282418,-0.224409,0.181683,-0.0305033,0.217565,0.200536,-0.216923,-0.0590198,-0.00899024,0.04506,-0.00325129,0.0107444,-0.0426796,0.21252,0.20438,0.17847,-0.274072,-0.1197,0.209019,-0.149148,-0.0638745,-0.111459,-0.152283,0.12405,0.158863,0.196027,-0.184685,0.0945105,-0.224117,0.135004,0.102131,-0.158486,0.0950845,-0.149975,-0.162524,0.0740181,-0.0768584,0.0684952,-0.156575,-0.253401,-0.156359,0.144209,-0.00604121,-0.165441,0.126987,-0.0491733,-0.149473,-0.214315,-0.061757,-0.00858274,0.249134,0.254724,0.197086,0.165526,0.205929,0.185455,-0.226817,0.0927815,0.265322,0.21217,-0.0127452,-0.100823,0.0995964,0.141264,0.0406368,-0.0340436,-0.143252,-0.098526,0.113365,-0.0926697,0.0490991,0.0499165,0.205273,0.187642,-0.0307548,-0.0515585,-0.16949,0.0589133,0.190668,0.125911,0.165095,0.105928,0.259878,0.0521805,0.0334169,0.166893,0.0585647,-0.152242,0.153775,-0.00770554,0.0682147,-0.225488,-0.186549,-0.0689615,0.0483502,0.0126088,0.0209876,0.183026,-0.152466,0.16152,-0.0463152,0.130652,0.0883522,-0.137113,-0.178543,0.269995,-0.0734014,0.113572,0.182223,-0.22593,0.0511235,0.0954448,0.136316,-0.178869,-0.153311,0.021036,0.109165,-0.0760836,-0.107362,-0.180713,0.2216,-0.103381,-0.137793,-0.129534,0.174438,0.104284,0.120923,0.075291,0.181288,0.000269502,0.258445,0.0297674,-0.193551,-0.160841,0.0806939,-0.205728,-0.00477356,-0.0879064,0.205964,-0.00123459,-0.0497494,-0.212627,0.143673,0.014873,-0.122447,-0.103441,-0.144112,0.0449608,0.0326878,-0.0813345,-0.0015897,0.172798,0.0243632,0.112367,0.079085,-0.139503,-0.0348606,-0.113774,-0.226366,0.2089,-0.12348,0.0468929,-0.252801,-0.0408303,-0.140564,-0.215038,0.197887,0.015021,-0.277225,-0.0714979,-0.037397,0.00545236,-0.017326,-0.251988,0.165183,0.16141,-0.113923,-0.01932,-0.0353657,0.0869202,-0.250374,-0.0920321,-0.118181,0.144171,-0.242411,0.0244942,-0.120153,-0.074008,0.0803062,-0.140717,0.0846894,-0.102265,-0.111341,-0.185605,0.0393489,-0.0442018,-0.217182,-0.175094,-0.0392489,-0.00650191,0.23831,-0.197735,-0.0458631,0.2611,0.242226,-0.121316,-0.0896864,-0.0139575,0.118096,0.272012,0.010447,-0.210799,-0.0830321,-0.0822452,-0.178432,0.21624,0.0723797,0.0223379,0.059683,0.206441,-0.129836,0.232196,-0.141764,-0.0406629,0.0346816,0.0888125,0.0169336,0.134366,-0.1873,-0.226432,-0.444023,-0.365094,0.394385,0.472605,-0.478078,-0.206783,-0.204865,0.0549417,0.517328,-0.195843,0.381768,0.0489489,-0.231624,-0.465185,-0.00367839,0.211274,0.0221246,-0.531008,-0.0242313,0.185849,0.180052,-1.01077,-0.134647,0.267311,-0.852742,0.473804,-0.865734,0.438989,0.800795,0.0949709,1.06069,0.647486,
20,0.201653,0.127422,-0.0977601,0.0137271,0.0809433,0.230216,-0.131179,0.258801,0.169868,-0.109142,0.195558,0.0199396,-0.175657,-0.0310374,0.256722,0.167384,-0.137621,0.0936851,0.0722332,0.237293,0.121299,0.0182576,-0.0490515,-0.0509667,-0.0370753,0.0978474,0.109872,0.29443,0.109992,-0.111067,-0.0102863,0.205816,0.223301,0.214332,-0.0137413,0.153016,-0.217347,-0.0554416,0.0223834,-0.115598,-0.160385,0.253215,-0.0803629,0.0194697,0.209436,-0.213479,0.0927409,0.00261999,0.0696456,0.0295328,-0.176581,-0.212598,0.191373,-0.0166563,-0.0387812,-0.0112804,-0.207285,-0.0448523,-0.201789,-0.10746,-0.0386802,-0.239641,0.182943,-0.103418,-0.0210598,0.0568898,-0.0884419,0.155821,-0.199797,0.028283,-0.283633,-0.225652,0.180243,-0.0318406,0.216107,0.199086,-0.21817,-0.0603432,-0.010338,0.0436859,-0.00460187,0.00938706,-0.0440109,0.211064,0.202929,0.177031,-0.27529,-0.120994,0.207565,-0.150428,-0.0658744,-0.113436,-0.154239,0.121958,0.156755,0.1939,-0.186626,0.0924335,-0.226039,0.132907,0.10005,-0.16044,0.0930072,-0.151933,-0.164476,0.071951,-0.078852,0.0664308,-0.158529,-0.255308,-0.158313,0.142108,-0.00806929,-0.167391,0.124894,-0.0511804,-0.151432,-0.216242,-0.063758,-0.0106096,0.250043,0.255631,0.198021,0.166476,0.206859,0.186395,-0.225676,0.093767,0.266223,0.213097,-0.0117084,-0.099743,0.100579,0.142226,0.0416476,-0.0329963,-0.142152,-0.0974474,0.114341,-0.0915939,0.0501058,0.0509228,0.206203,0.188581,-0.0297092,-0.0505028,-0.168376,0.0599153,0.191606,0.126881,0.165914,0.106776,0.260651,0.0530546,0.0343001,0.167711,0.0594357,-0.151268,0.154599,-0.00680228,0.069081,-0.224479,-0.185559,-0.0680284,0.0492261,0.0135022,0.0218769,0.183836,-0.151492,0.16234,-0.0453932,0.131488,0.0892087,-0.136147,-0.177556,0.270763,-0.0724661,0.114417,0.183034,-0.224921,0.0515889,0.0958886,0.13674,-0.178291,-0.152746,0.021516,0.109602,-0.0755563,-0.10682,-0.180135,0.221982,-0.102841,-0.137236,-0.128981,0.174843,0.104724,0.121354,0.0757446,0.18169,0.000759659,0.258809,0.0302432,-0.192966,-0.160273,0.0811449,-0.205138,-0.00428095,-0.0873733,0.206354,-0.000743702,-0.0509997,-0.213798,0.142329,0.0135913,-0.123662,-0.104665,-0.145317,0.0436644,0.0313974,-0.0825694,-0.00286342,0.171439,0.0230769,0.111038,0.077772,-0.140709,-0.0361181,-0.114994,-0.22753,0.207524,-0.124695,0.0455955,-0.253953,-0.0420849,-0.14177,-0.216208,0.196516,0.0137391,-0.278364,-0.0727376,-0.0385647,0.00426381,-0.0185034,-0.253051,0.163917,0.160146,-0.115053,-0.0204965,-0.0365344,0.085692,-0.251438,-0.0931732,-0.119309,0.142915,-0.243479,0.0232964,-0.121281,-0.0751578,0.0790812,-0.141835,0.0834623,-0.103401,-0.112473,-0.1867,0.0381438,-0.0453662,-0.218262,-0.176195,-0.0404157,-0.00768464,0.239019,-0.196814,-0.0450156,0.261798,0.242933,-0.120432,-0.0888175,-0.0131254,0.118864,0.272705,0.0112671,-0.209871,-0.0821664,-0.0813799,-0.17752,0.21696,0.0731697,0.0231522,0.0604792,0.207165,-0.128948,0.232908,-0.14087,-0.0398178,0.03549,0.0895944,0.0177506,0.135125,-0.186384,-0.225496,-0.446755,-0.364916,0.394193,0.47479,-0.480632,-0.205286,-0.204765,0.0588526,0.524243,-0.196171,0.38453,0.0489251,-0.231512,-0.467374,-0.000889362,0.209775,0.0221138,-0.534687,-0.0313864,0.186182,0.174445,-1.01357,-0.13041,0.273675,-0.855971,0.470984,-0.86727,0.442981,0.804508,0.0923849,1.06746,0.640716,
21,0.203314,0.129119,-0.095954,0.0154789,0.0826624,0.231863,-0.129356,0.260433,0.171544,-0.107331,0.197221,0.0216884,-0.173813,-0.0292637,0.258355,0.169061,-0.135795,0.0953981,0.0739565,0.238936,0.122999,0.0200072,-0.0472691,-0.0491833,-0.0352987,0.0995583,0.111577,0.296045,0.111697,-0.109254,-0.00940892,0.206588,0.224064,0.2151,-0.0128622,0.153814,-0.216369,-0.0545422,0.0232449,-0.114669,-0.159434,0.253964,-0.0794514,0.0203326,0.210206,-0.212503,0.0935681,0.00349109,0.0704841,0.0303908,-0.175623,-0.211622,0.192152,-0.0157758,-0.03789,-0.0104026,-0.206312,-0.0439581,-0.200819,-0.106536,-0.0399804,-0.240844,0.181535,-0.104686,-0.0223686,0.0555431,-0.0897179,0.154426,-0.201018,0.0269502,-0.284814,-0.226861,0.178836,-0.0331441,0.214682,0.19767,-0.219382,-0.0616328,-0.011652,0.0423457,-0.00591863,0.00806349,-0.0453085,0.209643,0.201511,0.175626,-0.276475,-0.122254,0.206145,-0.151674,-0.0678337,-0.115372,-0.156156,0.119907,0.154687,0.191815,-0.188527,0.0903971,-0.22792,0.130851,0.0980104,-0.162353,0.0909706,-0.15385,-0.166387,0.0699246,-0.0808049,0.0644071,-0.160444,-0.257175,-0.160228,0.140047,-0.0100567,-0.169301,0.122842,-0.0531468,-0.153349,-0.218128,-0.0657183,-0.0125957,0.250939,0.256523,0.198941,0.167412,0.207776,0.187321,-0.224549,0.0947384,0.267111,0.21401,-0.0106856,-0.0986773,0.101547,0.143174,0.0426444,-0.0319632,-0.141066,-0.0963828,0.115302,-0.0905322,0.0510985,0.0519151,0.20712,0.189506,-0.0286776,-0.0494611,-0.167277,0.0609032,0.19253,0.127836,0.166705,0.107596,0.261396,0.0539006,0.0351553,0.168501,0.0602786,-0.150322,0.155396,-0.00592708,0.0699192,-0.223498,-0.184597,-0.0671234,0.050074,0.0143675,0.0227381,0.184618,-0.150546,0.163133,-0.0444992,0.132296,0.0900372,-0.135209,-0.176598,0.271503,-0.0715589,0.115233,0.183817,-0.223939,0.052042,0.0963202,0.137151,-0.177726,-0.152193,0.0219838,0.110027,-0.0750412,-0.106289,-0.179569,0.222353,-0.102312,-0.136691,-0.12844,0.175236,0.105151,0.121773,0.076186,0.18208,0.00123755,0.259162,0.0307067,-0.192394,-0.159716,0.0815836,-0.20456,-0.0038006,-0.0868525,0.206732,-0.000265076,-0.0522345,-0.214953,0.141,0.0123251,-0.124861,-0.105874,-0.146506,0.0423835,0.0301225,-0.0837888,-0.00412166,0.170096,0.021806,0.109724,0.0764745,-0.141901,-0.0373601,-0.116197,-0.228679,0.206163,-0.125893,0.0443137,-0.255089,-0.0433241,-0.14296,-0.217363,0.195161,0.0124728,-0.279488,-0.0739618,-0.0397325,0.00307515,-0.019681,-0.254115,0.162651,0.158881,-0.116184,-0.0216731,-0.0377032,0.0844637,-0.252502,-0.0943144,-0.120437,0.141659,-0.244547,0.0220985,-0.122408,-0.0763078,0.0778561,-0.142952,0.0822351,-0.104537,-0.113604,-0.187796,0.0369387,-0.0465307,-0.219342,-0.177296,-0.0415826,-0.00886748,0.23971,-0.195911,-0.0441867,0.262477,0.243622,-0.119566,-0.0879673,-0.0123121,0.119613,0.273379,0.0120686,-0.208962,-0.0813195,-0.0805334,-0.176627,0.217661,0.073941,0.0239479,0.0612566,0.207871,-0.128078,0.233602,-0.139994,-0.0389915,0.0362796,0.0903577,0.0185489,0.135867,-0.185486,-0.22458,-0.449576,-0.364738,0.394001,0.476948,-0.483174,-0.203936,-0.204665,0.0626642,0.530947,-0.196564,0.387381,0.0489013,-0.231399,-0.469535,0.00188713,0.208423,0.022103,-0.538267,-0.0383305,0.18658,0.169005,-1.01627,-0.126329,0.279835,-0.859117,0.468286,-0.86875,0.446877,0.808177,0.0898884,1.07398,0.634192,
22,0.204942,0.130783,-0.0941801,0.0171987,0.0843494,0.233477,-0.127566,0.262033,0.173187,-0.105551,0.198852,0.0234051,-0.172001,-0.0275222,0.259957,0.170706,-0.134002,0.0970789,0.0756478,0.240547,0.124666,0.0217247,-0.0455188,-0.0474321,-0.0335543,0.101237,0.11325,0.297628,0.11337,-0.107474,-0.00855375,0.207338,0.224806,0.215846,-0.0120053,0.15459,-0.215413,-0.053665,0.0240841,-0.113763,-0.158506,0.254691,-0.0785621,0.0211733,0.210954,-0.211549,0.0943732,0.00433998,0.0713003,0.0312265,-0.174687,-0.210668,0.192909,-0.0149176,-0.0370209,-0.00954692,-0.205361,-0.0430861,-0.19987,-0.105633,-0.041247,-0.242012,0.180161,-0.105921,-0.0236437,0.05423,-0.0909602,0.153065,-0.202206,0.025651,-0.285961,-0.228036,0.177463,-0.034414,0.213292,0.196288,-0.220562,-0.0628889,-0.0129323,0.041039,-0.00720178,0.00677352,-0.0465725,0.208255,0.200127,0.174255,-0.277627,-0.12348,0.204758,-0.152886,-0.069752,-0.117267,-0.158031,0.117898,0.15266,0.18977,-0.190386,0.0884018,-0.22976,0.128836,0.0960114,-0.164226,0.0889749,-0.155726,-0.168258,0.0679392,-0.0827169,0.0624244,-0.162317,-0.259002,-0.162101,0.138028,-0.0120031,-0.17117,0.120831,-0.0550723,-0.155226,-0.219973,-0.0676376,-0.014541,0.25182,0.257401,0.199847,0.168333,0.208678,0.188233,-0.223437,0.0956954,0.267984,0.214909,-0.00967729,-0.0976262,0.1025,0.144107,0.0436268,-0.0309445,-0.139994,-0.0953328,0.116249,-0.089485,0.0520767,0.0528929,0.208022,0.190417,-0.0276606,-0.0484339,-0.166193,0.0618767,0.193439,0.128777,0.167469,0.108389,0.262114,0.0547196,0.0359834,0.169265,0.0610945,-0.149404,0.156165,-0.00507895,0.0707304,-0.222544,-0.183662,-0.0662454,0.0508949,0.0152058,0.0235723,0.185374,-0.149628,0.163899,-0.0436323,0.133077,0.0908386,-0.134298,-0.175667,0.272216,-0.0706788,0.116022,0.184573,-0.222985,0.052483,0.0967396,0.137551,-0.177173,-0.151653,0.0224394,0.11044,-0.0745384,-0.105771,-0.179015,0.222711,-0.101796,-0.136158,-0.127911,0.175617,0.105566,0.12218,0.0766153,0.182457,0.00170326,0.259502,0.0311581,-0.191834,-0.159172,0.0820102,-0.203994,-0.00333243,-0.0863439,0.207098,0.000201367,-0.0534528,-0.216092,0.139688,0.0110753,-0.126044,-0.107066,-0.147678,0.0411191,0.0288641,-0.0849918,-0.0053634,0.168769,0.0205516,0.108427,0.0751935,-0.143075,-0.0385857,-0.117384,-0.229811,0.204819,-0.127076,0.0430484,-0.256208,-0.0445467,-0.144135,-0.2185,0.193822,0.011223,-0.280596,-0.0751695,-0.0408983,0.00188852,-0.0208565,-0.255176,0.161386,0.157619,-0.117312,-0.0228477,-0.03887,0.0832374,-0.253564,-0.0954536,-0.121564,0.140405,-0.245613,0.0209026,-0.123534,-0.0774558,0.0766331,-0.144068,0.0810099,-0.105672,-0.114734,-0.18889,0.0357356,-0.0476931,-0.22042,-0.178394,-0.0427475,-0.0100483,0.240382,-0.195027,-0.0433763,0.263139,0.244292,-0.118719,-0.0871356,-0.0115172,0.120344,0.274035,0.0128516,-0.208072,-0.080491,-0.0797053,-0.175752,0.218344,0.0746938,0.0247251,0.0620157,0.208559,-0.127227,0.234277,-0.139137,-0.0381836,0.0370508,0.0911027,0.0193288,0.136589,-0.184607,-0.223681,-0.452473,-0.364561,0.39381,0.479077,-0.485701,-0.20272,-0.204565,0.0663798,0.537449,-0.197015,0.390309,0.0488775,-0.231286,-0.471667,0.00464799,0.207205,0.0220923,-0.541751,-0.045073,0.187037,0.163722,-1.01888,-0.122395,0.285803,-0.862184,0.4657,-0.870176,0.45068,0.811799,0.0874753,1.08028,0.6279,
23,0.206538,0.132415,-0.0924382,0.0188863,0.0860044,0.235059,-0.125808,0.263602,0.174799,-0.103804,0.200451,0.0250897,-0.170221,-0.0258128,0.261526,0.172319,-0.13224,0.0987276,0.077307,0.242125,0.126302,0.0234102,-0.0438007,-0.045713,-0.031842,0.102884,0.114891,0.299179,0.115011,-0.105725,-0.00772061,0.208066,0.225525,0.21657,-0.0111705,0.155344,-0.214479,-0.0528099,0.0249014,-0.112878,-0.1576,0.255396,-0.0776949,0.021992,0.211681,-0.210617,0.0951562,0.00516684,0.0720946,0.0320403,-0.173773,-0.209737,0.193644,-0.0140813,-0.0361739,-0.0087133,-0.204432,-0.0422362,-0.198944,-0.104753,-0.0424803,-0.243148,0.17882,-0.107123,-0.0248856,0.0529502,-0.0921693,0.151737,-0.203361,0.0243852,-0.287075,-0.229179,0.176123,-0.0356506,0.211935,0.194939,-0.221707,-0.0641116,-0.0141794,0.0397657,-0.00845164,0.00551686,-0.0478032,0.2069,0.198776,0.172916,-0.278745,-0.124673,0.203405,-0.154065,-0.0716292,-0.119121,-0.159865,0.115929,0.150675,0.187766,-0.192205,0.0864476,-0.23156,0.126862,0.0940535,-0.166057,0.0870205,-0.157562,-0.170087,0.065995,-0.0845878,0.0604829,-0.164149,-0.260787,-0.163933,0.136049,-0.0139085,-0.172998,0.118861,-0.0569566,-0.157062,-0.221777,-0.0695159,-0.0164451,0.252686,0.258265,0.200739,0.16924,0.209565,0.18913,-0.222339,0.0966374,0.268842,0.215793,-0.00868394,-0.09659,0.103439,0.145025,0.0445942,-0.0299408,-0.138937,-0.0942978,0.117181,-0.0884528,0.05304,0.0538558,0.20891,0.191313,-0.0266585,-0.0474217,-0.165123,0.0628352,0.194333,0.129703,0.168207,0.109155,0.262806,0.0555126,0.0367854,0.170002,0.0618843,-0.148512,0.156909,-0.00425692,0.0715156,-0.221616,-0.182753,-0.0653936,0.0516897,0.0160179,0.0243804,0.186103,-0.148735,0.164639,-0.0427915,0.133832,0.0916139,-0.133413,-0.174761,0.272903,-0.0698249,0.116785,0.185302,-0.222057,0.0529119,0.097147,0.137938,-0.176633,-0.151125,0.0228829,0.11084,-0.0740476,-0.105265,-0.178474,0.223057,-0.101292,-0.135637,-0.127394,0.175986,0.105969,0.122575,0.0770324,0.182823,0.0021569,0.25983,0.0315974,-0.191286,-0.15864,0.0824247,-0.20344,-0.00287635,-0.0858474,0.207451,0.000655734,-0.0546537,-0.217214,0.138393,0.00984293,-0.12721,-0.108241,-0.148833,0.0398721,0.027623,-0.0861774,-0.00658778,0.16746,0.0193146,0.107148,0.0739299,-0.144233,-0.0397939,-0.118554,-0.230926,0.203492,-0.128241,0.0418004,-0.257311,-0.045752,-0.145291,-0.219621,0.192501,0.00999055,-0.281686,-0.0763599,-0.0420601,0.000705865,-0.0220281,-0.256233,0.160126,0.15636,-0.118437,-0.0240183,-0.0400328,0.0820152,-0.254622,-0.0965889,-0.122686,0.139155,-0.246675,0.0197107,-0.124655,-0.0785998,0.075414,-0.145179,0.0797887,-0.106802,-0.11586,-0.18998,0.0345364,-0.0488517,-0.221495,-0.179489,-0.0439084,-0.0112251,0.241036,-0.194161,-0.042584,0.263782,0.244944,-0.11789,-0.086322,-0.0107405,0.121056,0.274672,0.0136165,-0.207199,-0.0796807,-0.0788953,-0.174895,0.219009,0.0754286,0.0254843,0.0627567,0.209229,-0.126394,0.234934,-0.138298,-0.0373939,0.037804,0.0918295,0.0200905,0.137294,-0.183746,-0.222801,-0.455433,-0.364383,0.393618,0.481176,-0.488209,-0.201626,-0.204466,0.0700029,0.543759,-0.197519,0.393299,0.0488537,-0.231174,-0.47377,0.00739033,0.206109,0.0220815,-0.545143,-0.0516227,0.187545,0.158587,-1.02139,-0.118599,0.29159,-0.865177,0.463217,-0.871553,0.454394,0.815375,0.0851402,1.08635,0.621827,
24,0.208103,0.134016,-0.0907284,0.0205419,0.0876273,0.23661,-0.124082,0.265138,0.176379,-0.102088,0.202019,0.0267423,-0.168473,-0.0241354,0.263064,0.1739,-0.130511,0.100344,0.0789341,0.243672,0.127905,0.0250636,-0.0421145,-0.044026,-0.0301616,0.104499,0.1165,0.300698,0.116619,-0.104009,-0.00690926,0.208773,0.226223,0.217272,-0.0103575,0.156076,-0.213567,-0.0519766,0.0256969,-0.112016,-0.156715,0.256079,-0.0768494,0.0227889,0.212385,-0.209707,0.0959175,0.00597192,0.0728671,0.0328323,-0.172881,-0.208827,0.194358,-0.0132669,-0.0353487,-0.00790146,-0.203525,-0.041408,-0.198039,-0.103894,-0.0436806,-0.244251,0.177512,-0.108292,-0.0260945,0.0517034,-0.0933455,0.150442,-0.204483,0.0231523,-0.288157,-0.230288,0.174816,-0.0368543,0.21061,0.193623,-0.222821,-0.0653014,-0.0153935,0.0385253,-0.00966856,0.00429314,-0.0490009,0.205578,0.197458,0.171611,-0.27983,-0.125834,0.202085,-0.155211,-0.0734653,-0.120934,-0.161658,0.114002,0.14873,0.185804,-0.193982,0.0845345,-0.233318,0.124929,0.0921367,-0.167847,0.0851071,-0.159356,-0.171875,0.0640919,-0.0864176,0.0585825,-0.16594,-0.262531,-0.165724,0.134112,-0.0157726,-0.174785,0.116932,-0.0587998,-0.158856,-0.22354,-0.071353,-0.018308,0.253537,0.259113,0.201615,0.170131,0.210436,0.190012,-0.221257,0.0975642,0.269685,0.216662,-0.00770588,-0.0955692,0.104362,0.145929,0.0455463,-0.0289524,-0.137896,-0.093278,0.118098,-0.0874359,0.053988,0.0548034,0.209782,0.192194,-0.0256717,-0.0464248,-0.164069,0.0637784,0.195213,0.130613,0.16892,0.109897,0.263473,0.0562803,0.0375623,0.170714,0.0626489,-0.147645,0.157627,-0.0034601,0.0722755,-0.220713,-0.181869,-0.064567,0.0524593,0.0168049,0.0251633,0.186807,-0.147868,0.165353,-0.0419759,0.134561,0.0923641,-0.132553,-0.173882,0.273565,-0.0689961,0.117523,0.186007,-0.221154,0.0533289,0.0975424,0.138314,-0.176104,-0.150608,0.0233145,0.111229,-0.0735688,-0.104771,-0.177944,0.223391,-0.1008,-0.135128,-0.126889,0.176343,0.106361,0.122958,0.0774377,0.183177,0.00259859,0.260146,0.0320248,-0.19075,-0.15812,0.0828274,-0.202898,-0.0024322,-0.0853628,0.207793,0.00109816,-0.0558366,-0.218318,0.137116,0.00862868,-0.128357,-0.109398,-0.14997,0.0386432,0.0264001,-0.0873449,-0.00779402,0.166169,0.0180958,0.105886,0.0726845,-0.145372,-0.040984,-0.119706,-0.232023,0.202184,-0.129388,0.0405706,-0.258395,-0.0469392,-0.14643,-0.220724,0.191198,0.00877623,-0.282759,-0.0775322,-0.0432163,-0.000471062,-0.023194,-0.257285,0.158871,0.155108,-0.119556,-0.0251832,-0.0411899,0.0807987,-0.255675,-0.0977184,-0.123803,0.13791,-0.247732,0.0185245,-0.125771,-0.0797381,0.0742007,-0.146285,0.0785733,-0.107926,-0.11698,-0.191064,0.033343,-0.0500045,-0.222564,-0.180578,-0.0450636,-0.0123963,0.241672,-0.193312,-0.0418096,0.264407,0.245579,-0.117079,-0.0855263,-0.00998152,0.121751,0.275292,0.0143636,-0.206345,-0.0788881,-0.0781032,-0.174056,0.219656,0.0761456,0.0262256,0.0634798,0.20988,-0.125578,0.235573,-0.137477,-0.036622,0.0385393,0.0925385,0.0208344,0.137981,-0.182902,-0.221939,-0.458447,-0.364206,0.393426,0.483244,-0.490696,-0.200643,-0.204366,0.0735366,0.549885,-0.19807,0.396343,0.0488299,-0.231061,-0.475842,0.0101115,0.205123,0.0220708,-0.548445,-0.057988,0.188101,0.153591,-1.02381,-0.114935,0.297204,-0.868099,0.460831,-0.872882,0.458023,0.818904,0.0828781,1.09222,0.61596,
25,0.209635,0.135584,-0.0890505,0.0221656,0.0892184,0.238128,-0.122388,0.266643,0.177927,-0.100405,0.203554,0.028363,-0.166758,-0.02249,0.264569,0.175449,-0.128814,0.101929,0.0805294,0.245187,0.129476,0.0266851,-0.0404603,-0.0423708,-0.0285132,0.106081,0.118077,0.302186,0.118196,-0.102325,-0.00611941,0.209458,0.2269,0.217953,-0.00956597,0.156786,-0.212677,-0.0511648,0.0264708,-0.111175,-0.155853,0.256741,-0.0760255,0.0235643,0.213068,-0.208818,0.0966572,0.0067555,0.0736181,0.0336028,-0.17201,-0.207939,0.195049,-0.0124739,-0.034545,-0.00711113,-0.202639,-0.0406014,-0.197157,-0.103057,-0.0448485,-0.245321,0.176236,-0.109428,-0.0272709,0.0504891,-0.0944892,0.14918,-0.205573,0.0219519,-0.289206,-0.231365,0.173542,-0.0380255,0.209319,0.19234,-0.223901,-0.0664588,-0.0165752,0.0373174,-0.010853,0.00310192,-0.0501662,0.204289,0.196173,0.170338,-0.280883,-0.126962,0.200798,-0.156324,-0.0752603,-0.122706,-0.16341,0.112115,0.146827,0.183883,-0.195718,0.0826626,-0.235035,0.123038,0.0902611,-0.169596,0.0832349,-0.161109,-0.173622,0.06223,-0.0882063,0.0567232,-0.16769,-0.264234,-0.167474,0.132216,-0.0175957,-0.17653,0.115044,-0.060602,-0.160609,-0.225262,-0.073149,-0.0201298,0.254372,0.259945,0.202475,0.171007,0.211293,0.190878,-0.220191,0.0984754,0.270512,0.217515,-0.0067434,-0.0945639,0.10527,0.146816,0.0464828,-0.0279796,-0.13687,-0.0922739,0.118999,-0.0864346,0.0549205,0.0557354,0.210638,0.193059,-0.0247004,-0.0454434,-0.16303,0.0647061,0.196076,0.131509,0.169609,0.110614,0.264115,0.0570237,0.0383148,0.171401,0.0633893,-0.146802,0.158321,-0.00268759,0.0730111,-0.219835,-0.181009,-0.0637648,0.0532046,0.0175675,0.0259218,0.187487,-0.147025,0.166044,-0.0411846,0.135267,0.0930899,-0.131718,-0.173026,0.274203,-0.0681917,0.118236,0.186687,-0.220275,0.0537341,0.0979261,0.138678,-0.175587,-0.150104,0.0237344,0.111606,-0.0731018,-0.104289,-0.177426,0.223713,-0.10032,-0.134632,-0.126396,0.176689,0.10674,0.12333,0.0778311,0.183519,0.0030285,0.260451,0.0324403,-0.190226,-0.157612,0.0832182,-0.202368,-0.00199984,-0.0848901,0.208123,0.0015288,-0.0570007,-0.219403,0.135858,0.00743321,-0.129486,-0.110536,-0.151088,0.0374331,0.025196,-0.0884936,-0.0089815,0.164897,0.0168957,0.104643,0.0714578,-0.146492,-0.0421553,-0.120839,-0.233102,0.200894,-0.130516,0.0393596,-0.25946,-0.0481076,-0.14755,-0.221807,0.189913,0.00758069,-0.283812,-0.0786857,-0.044365,-0.00164067,-0.0243525,-0.25833,0.157624,0.153862,-0.120668,-0.0263407,-0.0423397,0.0795895,-0.25672,-0.0988407,-0.124913,0.136674,-0.248781,0.0173456,-0.12688,-0.0808691,0.0729948,-0.147384,0.0773652,-0.109044,-0.118093,-0.19214,0.032157,-0.0511499,-0.223625,-0.18166,-0.0462115,-0.0135601,0.242291,-0.192482,-0.0410527,0.265015,0.246196,-0.116286,-0.0847481,-0.0092401,0.122428,0.275895,0.0150931,-0.205508,-0.0781132,-0.0773286,-0.173235,0.220286,0.0768451,0.0269493,0.0641855,0.210515,-0.124781,0.236195,-0.136674,-0.0358676,0.0392571,0.09323,0.0215609,0.13865,-0.182077,-0.221094,-0.461503,-0.364028,0.393235,0.485281,-0.49316,-0.19976,-0.204267,0.0769841,0.555834,-0.198663,0.399429,0.0488061,-0.230949,-0.477882,0.0128091,0.204239,0.02206,-0.551662,-0.0641767,0.188698,0.148726,-1.02615,-0.111393,0.302656,-0.870954,0.458535,-0.874166,0.461569,0.822386,0.0806846,1.09789,0.610288,
26,0.211136,0.137121,-0.0874043,0.0237576,0.0907777,0.239615,-0.120725,0.268116,0.179443,-0.0987534,0.205058,0.029952,-0.165074,-0.0208762,0.266043,0.176967,-0.127148,0.103482,0.082093,0.246671,0.131016,0.0282749,-0.0388378,-0.0407474,-0.0268966,0.107632,0.119622,0.303641,0.119742,-0.100672,-0.00535073,0.210121,0.227555,0.218613,-0.00879561,0.157475,-0.211807,-0.0503742,0.0272237,-0.110355,-0.155011,0.257381,-0.0752228,0.0243185,0.21373,-0.207951,0.0973759,0.00751791,0.0743479,0.0343522,-0.171161,-0.207072,0.19572,-0.0117022,-0.0337625,-0.00634197,-0.201775,-0.0398159,-0.196295,-0.102241,-0.0459843,-0.246359,0.174992,-0.110533,-0.0284153,0.0493068,-0.0956008,0.14795,-0.206631,0.0207835,-0.290222,-0.23241,0.1723,-0.0391647,0.208059,0.191088,-0.22495,-0.0675841,-0.0177248,0.0361415,-0.0120054,0.00194272,-0.0512995,0.203032,0.194919,0.169098,-0.281904,-0.128058,0.199542,-0.157406,-0.0770144,-0.124437,-0.165122,0.11027,0.144965,0.182002,-0.197414,0.0808316,-0.236711,0.121187,0.0884264,-0.171304,0.0814037,-0.162821,-0.175328,0.0604089,-0.0899541,0.0549048,-0.169399,-0.265896,-0.169184,0.130361,-0.0193779,-0.178235,0.113197,-0.0623632,-0.162322,-0.226943,-0.0749041,-0.0219108,0.255191,0.260762,0.20332,0.171867,0.212133,0.191729,-0.21914,0.0993708,0.271324,0.218353,-0.00579676,-0.0935745,0.106163,0.147688,0.0474036,-0.0270226,-0.13586,-0.0912856,0.119885,-0.0854492,0.0558371,0.0566517,0.211479,0.193908,-0.023745,-0.044478,-0.162008,0.0656179,0.196924,0.132388,0.170274,0.111308,0.264735,0.0577436,0.0390439,0.172066,0.0641061,-0.145983,0.158992,-0.00193858,0.0737233,-0.21898,-0.180174,-0.062986,0.0539264,0.0183067,0.0266569,0.188144,-0.146206,0.166711,-0.0404169,0.135948,0.0937923,-0.130906,-0.172194,0.274817,-0.0674108,0.118927,0.187344,-0.21942,0.0541277,0.0982982,0.13903,-0.175082,-0.149611,0.0241426,0.111972,-0.0726465,-0.103818,-0.17692,0.224024,-0.0998512,-0.134146,-0.125915,0.177022,0.107108,0.123689,0.078213,0.183849,0.0034468,0.260743,0.0328443,-0.189714,-0.157116,0.0835975,-0.20185,-0.00157909,-0.084429,0.208441,0.00194783,-0.0581454,-0.220469,0.134619,0.00625705,-0.130595,-0.111655,-0.152187,0.0362424,0.0240112,-0.0896231,-0.0101497,0.163644,0.0157149,0.10342,0.0702505,-0.147593,-0.0433073,-0.121953,-0.234161,0.199624,-0.131625,0.0381679,-0.260506,-0.0492567,-0.148651,-0.222872,0.188648,0.00640445,-0.284847,-0.0798199,-0.0455051,-0.00280152,-0.0255023,-0.259366,0.156386,0.152626,-0.12177,-0.0274896,-0.0434807,0.0783891,-0.257757,-0.0999542,-0.126014,0.135445,-0.249821,0.0161755,-0.12798,-0.0819914,0.0717976,-0.148474,0.0761659,-0.110152,-0.119197,-0.193209,0.0309797,-0.0522867,-0.224678,-0.182734,-0.0473507,-0.0147151,0.242893,-0.191668,-0.040313,0.265605,0.246796,-0.115509,-0.0839871,-0.00851588,0.123088,0.27648,0.0158055,-0.204688,-0.0773554,-0.0765712,-0.172431,0.220898,0.0775274,0.0276559,0.064874,0.211132,-0.124,0.2368,-0.135887,-0.0351304,0.0399577,0.0939043,0.0222701,0.139302,-0.181268,-0.220267,-0.464592,-0.363851,0.393043,0.487286,-0.495598,-0.198969,-0.204167,0.0803483,0.561614,-0.199291,0.402549,0.0487824,-0.230836,-0.479891,0.0154808,0.203445,0.0220493,-0.554795,-0.0701961,0.189332,0.143985,-1.02842,-0.107968,0.307953,-0.873744,0.456323,-0.875408,0.465037,0.825821,0.0785556,1.10338,0.6048,
27,0.212605,0.138626,-0.0857898,0.0253181,0.0923055,0.241071,-0.119095,0.269557,0.180927,-0.0971333,0.20653,0.0315094,-0.163421,-0.019294,0.267486,0.178452,-0.125514,0.105004,0.083625,0.248123,0.132524,0.0298331,-0.0372469,-0.0391555,-0.0253115,0.109152,0.121136,0.305065,0.121255,-0.0990511,-0.00460286,0.210764,0.228189,0.219251,-0.00804607,0.158144,-0.210959,-0.0496044,0.0279557,-0.109556,-0.15419,0.258001,-0.0744409,0.0250519,0.214371,-0.207104,0.0980737,0.00825951,0.075057,0.0350807,-0.170332,-0.206226,0.19637,-0.0109512,-0.0330008,-0.00559362,-0.200931,-0.0390513,-0.195454,-0.101446,-0.0470887,-0.247366,0.173781,-0.111606,-0.0295283,0.048156,-0.0966811,0.146751,-0.207657,0.0196466,-0.291208,-0.233424,0.171089,-0.0402724,0.206831,0.189869,-0.225967,-0.068678,-0.018843,0.0349971,-0.0131263,0.000814978,-0.0524013,0.201806,0.193698,0.167889,-0.282894,-0.129122,0.198318,-0.158456,-0.0787278,-0.126127,-0.166792,0.108465,0.143143,0.180163,-0.199069,0.0790413,-0.238347,0.119377,0.0866324,-0.172972,0.0796131,-0.164493,-0.176994,0.0586285,-0.0916612,0.0531271,-0.171068,-0.267517,-0.170852,0.128547,-0.0211194,-0.179899,0.111391,-0.0640838,-0.163994,-0.228584,-0.0766186,-0.0236511,0.255995,0.261563,0.204149,0.172712,0.212958,0.192563,-0.218106,0.10025,0.27212,0.219174,-0.00486613,-0.0926011,0.107039,0.148544,0.0483083,-0.0260816,-0.134866,-0.0903134,0.120754,-0.0844798,0.0567377,0.0575519,0.212304,0.194742,-0.0228057,-0.0435285,-0.161001,0.0665138,0.197756,0.133251,0.170916,0.111979,0.265331,0.0584409,0.0397503,0.172707,0.0648003,-0.145186,0.15964,-0.00121223,0.0744128,-0.218148,-0.17936,-0.06223,0.0546255,0.0190231,0.0273694,0.188777,-0.14541,0.167355,-0.0396718,0.136608,0.094472,-0.130117,-0.171385,0.275409,-0.0666526,0.119594,0.187978,-0.218588,0.0545099,0.0986589,0.139371,-0.174588,-0.14913,0.0245394,0.112326,-0.0722025,-0.103359,-0.176425,0.224324,-0.099394,-0.133672,-0.125445,0.177345,0.107464,0.124038,0.0785835,0.184168,0.0038537,0.261025,0.0332369,-0.189213,-0.156631,0.0839653,-0.201343,-0.00116975,-0.0839793,0.208749,0.00235545,-0.0592705,-0.221515,0.1334,0.00510061,-0.131685,-0.112754,-0.153267,0.0350713,0.0228461,-0.0907329,-0.0112981,0.162411,0.0145539,0.102216,0.0690629,-0.148675,-0.0444396,-0.123047,-0.2352,0.198373,-0.132715,0.0369959,-0.261533,-0.0503861,-0.149732,-0.223917,0.187403,0.00524795,-0.285861,-0.0809345,-0.0466352,-0.00395237,-0.0266421,-0.260392,0.155157,0.151399,-0.122863,-0.0286284,-0.0446117,0.0771987,-0.258784,-0.101058,-0.127105,0.134227,-0.250852,0.0150154,-0.12907,-0.0831037,0.0706104,-0.149554,0.0749766,-0.111251,-0.120292,-0.194267,0.0298124,-0.0534134,-0.225721,-0.183797,-0.0484798,-0.0158602,0.243478,-0.190872,-0.0395902,0.266179,0.247379,-0.11475,-0.083243,-0.00780854,0.123732,0.277049,0.016501,-0.203885,-0.0766146,-0.0758307,-0.171644,0.221494,0.0781929,0.0283457,0.0655456,0.211732,-0.123237,0.237388,-0.135118,-0.0344101,0.0406414,0.0945618,0.0229624,0.139938,-0.180477,-0.219457,-0.467707,-0.363674,0.392852,0.48926,-0.498008,-0.198261,-0.204068,0.0836321,0.567232,-0.199953,0.405694,0.0487586,-0.230724,-0.481868,0.0181247,0.202735,0.0220385,-0.557848,-0.0760533,0.189998,0.139362,-1.03061,-0.104654,0.313103,-0.876472,0.454189,-0.876609,0.468429,0.829208,0.0764873,1.10869,0.599486,
28,0.214043,0.1401,-0.0842065,0.0268472,0.0938021,0.242495,-0.117495,0.270968,0.182381,-0.0955445,0.207971,0.0330356,-0.1618,-0.0177432,0.268897,0.179907,-0.123912,0.106494,0.0851258,0.249543,0.134001,0.0313601,-0.0356872,-0.037595,-0.0237576,0.11064,0.122618,0.306458,0.122738,-0.0974614,-0.00387542,0.211387,0.228803,0.21987,-0.00731695,0.158792,-0.210131,-0.0488551,0.0286672,-0.108777,-0.15339,0.258601,-0.0736795,0.0257649,0.214992,-0.206278,0.0987512,0.00898069,0.0757457,0.0357888,-0.169524,-0.2054,0.197,-0.0102207,-0.0322596,-0.0048657,-0.200108,-0.038307,-0.194634,-0.100672,-0.0481623,-0.248342,0.172599,-0.112648,-0.0306104,0.0470361,-0.0977305,0.145583,-0.208652,0.0185405,-0.292163,-0.234407,0.169909,-0.0413493,0.205634,0.18868,-0.226954,-0.069741,-0.0199303,0.0338836,-0.0142164,-0.00028188,-0.0534722,0.200611,0.192507,0.16671,-0.283852,-0.130156,0.197125,-0.159476,-0.0804011,-0.127777,-0.168423,0.106701,0.141362,0.178364,-0.200683,0.0772912,-0.239942,0.117607,0.0848786,-0.174599,0.0778627,-0.166125,-0.178619,0.0568884,-0.0933282,0.0513897,-0.172696,-0.269099,-0.172481,0.126772,-0.0228207,-0.181523,0.109625,-0.0657642,-0.165626,-0.230184,-0.0782929,-0.0253511,0.256782,0.262348,0.204962,0.17354,0.213766,0.193382,-0.217088,0.101114,0.272899,0.21998,-0.00395164,-0.0916439,0.107899,0.149384,0.0491969,-0.0251568,-0.133888,-0.0893573,0.121607,-0.0835265,0.0576222,0.058436,0.213113,0.195559,-0.0218825,-0.0425952,-0.16001,0.0673935,0.198572,0.134099,0.171537,0.112629,0.265906,0.0591163,0.0404348,0.173327,0.0654726,-0.144412,0.160266,-0.000507767,0.0750804,-0.217338,-0.178569,-0.0614958,0.0553028,0.0197178,0.0280599,0.189389,-0.144635,0.167977,-0.0389486,0.137245,0.0951299,-0.12935,-0.170598,0.275979,-0.0659163,0.12024,0.18859,-0.217778,0.0548809,0.0990084,0.139701,-0.174105,-0.148659,0.024925,0.112669,-0.0717698,-0.102911,-0.175942,0.224612,-0.0989481,-0.13321,-0.124986,0.177656,0.107809,0.124375,0.0789428,0.184476,0.00424939,0.261296,0.0336183,-0.188723,-0.156157,0.084322,-0.200847,-0.00077161,-0.0835408,0.209044,0.00275188,-0.0603756,-0.222541,0.132201,0.00396424,-0.132755,-0.113833,-0.154326,0.0339204,0.0217011,-0.0918226,-0.0124265,0.161198,0.0134129,0.101032,0.0678954,-0.149736,-0.0455519,-0.124121,-0.236219,0.197143,-0.133784,0.035844,-0.262539,-0.0514955,-0.150793,-0.224942,0.186178,0.0041115,-0.286856,-0.0820289,-0.0477541,-0.00509208,-0.0277708,-0.261407,0.15394,0.150184,-0.123945,-0.0297561,-0.0457317,0.0760195,-0.259799,-0.10215,-0.128184,0.13302,-0.251872,0.0138665,-0.130148,-0.0842049,0.0694344,-0.150622,0.0737985,-0.112338,-0.121375,-0.195314,0.0286562,-0.0545291,-0.226752,-0.184849,-0.0495979,-0.0169941,0.244046,-0.190092,-0.0388839,0.266737,0.247945,-0.114007,-0.0825155,-0.00711776,0.124358,0.277601,0.01718,-0.203099,-0.0758903,-0.0751068,-0.170873,0.222073,0.0788418,0.0290189,0.0662006,0.212316,-0.12249,0.237959,-0.134365,-0.0337064,0.0413086,0.0952027,0.0236382,0.140557,-0.179702,-0.218663,-0.470838,-0.363497,0.392661,0.491202,-0.500388,-0.197629,-0.203969,0.0868381,0.572695,-0.200642,0.408856,0.0487349,-0.230611,-0.483814,0.020739,0.2021,0.0220278,-0.560823,-0.0817548,0.190692,0.13485,-1.03273,-0.101444,0.318113,-0.879142,0.452128,-0.877773,0.471747,0.832549,0.0744762,1.11384,0.594337,
29,0.21545,0.141543,-0.0826543,0.0283454,0.0952677,0.243888,-0.115927,0.272347,0.183803,-0.0939867,0.209381,0.0345307,-0.16021,-0.0162233,0.270277,0.181331,-0.12234,0.107954,0.0865956,0.250933,0.135447,0.0328561,-0.0341586,-0.0360654,-0.0222348,0.112098,0.12407,0.30782,0.124189,-0.0959027,-0.00316799,0.211989,0.229398,0.220468,-0.00660785,0.15942,-0.209323,-0.0481258,0.0293588,-0.108019,-0.15261,0.259181,-0.0729381,0.0264579,0.215593,-0.205472,0.0994086,0.00968186,0.0764143,0.0364769,-0.168736,-0.204595,0.197609,-0.00951015,-0.0315383,-0.00415778,-0.199305,-0.0375828,-0.193833,-0.0999169,-0.0492056,-0.249288,0.171449,-0.11366,-0.0316622,0.0459465,-0.0987496,0.144445,-0.209617,0.0174648,-0.293087,-0.235359,0.16876,-0.0423959,0.204467,0.187521,-0.22791,-0.0707738,-0.0209873,0.0328004,-0.0152762,-0.00134849,-0.0545129,0.199447,0.191347,0.165563,-0.284781,-0.131159,0.195963,-0.160465,-0.0820345,-0.129388,-0.170013,0.104977,0.139621,0.176604,-0.202258,0.075581,-0.241498,0.115877,0.0831647,-0.176187,0.0761522,-0.167716,-0.180205,0.0551881,-0.0949553,0.0496921,-0.174284,-0.27064,-0.174069,0.125038,-0.0244822,-0.183107,0.107899,-0.0674047,-0.167218,-0.231745,-0.0799273,-0.0270114,0.257554,0.263116,0.205758,0.174351,0.214558,0.194184,-0.216086,0.101961,0.273663,0.220769,-0.0030534,-0.090703,0.108742,0.150207,0.0500692,-0.0242483,-0.132927,-0.0884174,0.122445,-0.0825896,0.0584904,0.0593039,0.213905,0.19636,-0.0209755,-0.0416781,-0.159036,0.068257,0.199372,0.13493,0.172136,0.113257,0.266459,0.0597706,0.0410982,0.173926,0.0661238,-0.143658,0.160871,0.000175562,0.075727,-0.216549,-0.177799,-0.0607828,0.0559589,0.0203912,0.0287293,0.18998,-0.143881,0.168578,-0.0382465,0.137861,0.0957667,-0.128604,-0.169831,0.276527,-0.0652011,0.120864,0.189182,-0.216989,0.055241,0.099347,0.140019,-0.173634,-0.1482,0.0252997,0.113001,-0.0713481,-0.102475,-0.175469,0.224889,-0.0985131,-0.132758,-0.124539,0.177956,0.108144,0.124701,0.0792912,0.184773,0.00463412,0.261555,0.0339887,-0.188245,-0.155694,0.0846678,-0.200363,-0.000384437,-0.0831134,0.20933,0.00313734,-0.0614603,-0.223546,0.131023,0.00284817,-0.133804,-0.114891,-0.155365,0.0327897,0.0205764,-0.092892,-0.0135346,0.160006,0.0122922,0.0998688,0.0667482,-0.150778,-0.0466438,-0.125174,-0.237219,0.195933,-0.134833,0.0347124,-0.263526,-0.0525846,-0.151834,-0.225946,0.184973,0.00299536,-0.287831,-0.0831032,-0.0488609,-0.00621967,-0.0288873,-0.262409,0.152735,0.148981,-0.125015,-0.0308717,-0.0468395,0.0748524,-0.260803,-0.103231,-0.129252,0.131825,-0.252879,0.0127297,-0.131215,-0.085294,0.0682705,-0.151679,0.0726325,-0.113414,-0.122446,-0.196349,0.0275122,-0.0556326,-0.227772,-0.185889,-0.0507038,-0.0181159,0.244598,-0.189328,-0.0381939,0.267278,0.248496,-0.11328,-0.0818042,-0.00644319,0.124969,0.278137,0.0178427,-0.202329,-0.0751822,-0.0743992,-0.170119,0.222636,0.0794745,0.0296758,0.0668395,0.212884,-0.121759,0.238515,-0.133629,-0.0330188,0.0419596,0.0958275,0.0242978,0.141159,-0.178944,-0.217885,-0.473981,-0.36332,0.392469,0.493111,-0.502738,-0.197064,-0.203869,0.089969,0.578007,-0.201356,0.412028,0.0487111,-0.230499,-0.485727,0.0233221,0.201534,0.0220171,-0.563723,-0.0873067,0.191411,0.130443,-1.03479,-0.0983328,0.32299,-0.881755,0.450135,-0.878901,0.474995,0.835842,0.0725193,1.11883,0.589344,
30,0.216826,0.142956,-0.0811327,0.0298129,0.0967026,0.24525,-0.114389,0.273696,0.185195,-0.0924597,0.21076,0.0359952,-0.158651,-0.0147341,0.271627,0.182724,-0.120799,0.109383,0.0880348,0.252292,0.136863,0.0343214,-0.0326607,-0.0345665,-0.0207427,0.113525,0.125491,0.309152,0.12561,-0.0943747,-0.00248014,0.212573,0.229972,0.221047,-0.00591831,0.160029,-0.208535,-0.047416,0.0300309,-0.10728,-0.151849,0.259741,-0.0722162,0.0271314,0.216174,-0.204686,0.100047,0.0103635,0.0770634,0.0371455,-0.167967,-0.203809,0.198199,-0.0088192,-0.0308366,-0.00346945,-0.198522,-0.0368782,-0.193053,-0.099182,-0.0502193,-0.250204,0.170328,-0.114642,-0.0326845,0.0448865,-0.0997392,0.143337,-0.210553,0.0164186,-0.293982,-0.236282,0.16764,-0.0434129,0.20333,0.186392,-0.228837,-0.071777,-0.0220147,0.0317467,-0.0163065,-0.0023855,-0.0555241,0.198312,0.190216,0.164444,-0.28568,-0.132133,0.194829,-0.161424,-0.0836287,-0.130959,-0.171564,0.103291,0.137919,0.174884,-0.203794,0.0739101,-0.243015,0.114187,0.0814901,-0.177735,0.0744811,-0.169269,-0.181751,0.0535272,-0.0965432,0.0480338,-0.175834,-0.272142,-0.175619,0.123343,-0.0261044,-0.184652,0.106213,-0.069006,-0.16877,-0.233266,-0.0815225,-0.0286323,0.258309,0.263869,0.206539,0.175147,0.215334,0.19497,-0.2151,0.102791,0.27441,0.221542,-0.00217143,-0.0897783,0.10957,0.151015,0.0509253,-0.023356,-0.131981,-0.0874939,0.123265,-0.0816689,0.0593425,0.0601555,0.214682,0.197145,-0.0200848,-0.0407774,-0.158078,0.0691043,0.200155,0.135744,0.172716,0.113865,0.266993,0.0604046,0.0417412,0.174504,0.0667546,-0.142925,0.161456,0.000838493,0.0763531,-0.215781,-0.17705,-0.0600902,0.0565947,0.0210443,0.0293783,0.190551,-0.143148,0.169159,-0.0375649,0.138457,0.0963831,-0.127878,-0.169086,0.277056,-0.0645063,0.121468,0.189753,-0.21622,0.0555904,0.0996749,0.140327,-0.173173,-0.147752,0.0256636,0.113322,-0.0709371,-0.102048,-0.175008,0.225156,-0.0980889,-0.132317,-0.124102,0.178246,0.108467,0.125017,0.0796288,0.185059,0.00500812,0.261804,0.0343484,-0.187777,-0.155242,0.0850028,-0.199889,-7.99509e-06,-0.0826966,0.209604,0.00351206,-0.0625246,-0.224532,0.129865,0.00175256,-0.134834,-0.11593,-0.156384,0.0316795,0.0194721,-0.093941,-0.0146222,0.158833,0.011192,0.098726,0.0656215,-0.151799,-0.0477153,-0.126208,-0.238197,0.194743,-0.135862,0.0336013,-0.264492,-0.0536532,-0.152854,-0.226931,0.183789,0.00189968,-0.288785,-0.0841569,-0.0499548,-0.00733431,-0.0299909,-0.263399,0.151543,0.147791,-0.126072,-0.0319743,-0.0479343,0.0736983,-0.261794,-0.104298,-0.130307,0.130643,-0.253873,0.0116058,-0.132269,-0.0863701,0.0671196,-0.152723,0.0714794,-0.114476,-0.123504,-0.197371,0.0263811,-0.0567232,-0.228779,-0.186916,-0.0517968,-0.0192247,0.245135,-0.188581,-0.0375197,0.267803,0.24903,-0.11257,-0.0811088,-0.0057845,0.125564,0.278657,0.0184896,-0.201575,-0.0744901,-0.0737074,-0.169381,0.223183,0.0800914,0.0303169,0.0674625,0.213436,-0.121044,0.239054,-0.132908,-0.0323472,0.0425947,0.0964364,0.0249416,0.141746,-0.178201,-0.217124,-0.477127,-0.363143,0.392278,0.494989,-0.505055,-0.196562,-0.20377,0.0930271,0.583177,-0.202091,0.415205,0.0486874,-0.230387,-0.487608,0.0258727,0.201029,0.0220064,-0.56655,-0.092715,0.192151,0.126138,-1.03679,-0.0953161,0.32774,-0.884315,0.448207,-0.879995,0.478176,0.83909,0.0706136,1.12368,0.584501,
